1182 100
the 0.0266961 -0.0387496 0.0404277 -0.019896 0.0110273 -0.0381856 0.0334357 0.00174334 0.00207392 -0.0400017 -0.0396648 0.0359609 0.0430744 0.0206808 0.00169047 -0.0473951 -0.00939598 0.0190897 -0.0286099 -0.0415241 0.0168478 -0.0340753 0.0163432 0.010684 0.0440016 0.0365509 0.00872343 0.0425295 -0.0478488 -0.0276741 -0.0355912 0.0314649 0.0237578 0.0142226 -0.0161982 0.0338798 0.0117432 0.0101494 -0.047217 0.0329784 -0.0362947 0.0324956 -0.0304968 0.0447556 0.00937353 -0.0247172 0.0182709 0.0400798 0.0252788 0.0113657 -0.00967288 -0.0119713 -0.0368383 -0.019283 -0.0194285 -0.0377154 0.0272295 0.0185985 -0.00475385 -0.0108153 0.0310115 0.0160926 0.00174599 -0.020674 -0.00569388 0.044827 0.0307163 0.00321471 0.0422946 -0.0157488 0.0223298 -0.0344005 0.0282881 -0.0309529 -0.0393734 -0.037307 -0.0348566 0.0231286 -0.0146514 -0.036943 0.0438999 -0.0412137 -0.0292393 -0.0241312 -0.00554099 0.0171159 0.0303546 0.00178039 0.0418082 0.0247476 -0.00292957 -0.0345223 0.0146364 -0.0377477 -0.0347613 -0.0153344 -0.005534 0.0373538 0.0315348 0.0124489
and -0.00897245 0.0341095 0.032987 0.0470633 -0.0206447 0.0463532 0.0103267 -0.038324 -0.0464383 0.0273002 0.00470413 0.0204537 0.00250088 -0.0116043 -0.0341144 0.0258215 0.0408022 -0.0389104 0.0260144 0.0264157 -0.0325933 -0.0435028 0.0381063 0.0490491 -0.0440592 -0.00096669 0.021811 0.0149553 0.0325248 0.0412781 0.0155891 0.0231239 0.0263062 -0.00312456 0.003008 0.0313946 0.0391957 0.0115083 0.0378859 -0.000734877 -0.0224531 -0.0353092 -0.0209125 0.00669843 0.0269399 0.0333638 -0.029542 0.045324 0.0252713 -0.0481012 0.0439632 0.0149521 -0.0384677 0.00615396 0.0351261 0.00733569 0.0234041 -0.0330055 0.0124618 0.0139189 0.0216453 0.00922117 0.0375061 0.0240158 -0.0466415 0.0155038 -0.0324917 0.000337362 0.00151863 0.0233969 0.00442473 -0.0165919 0.0391428 -0.0456192 0.00236336 -0.0169324 0.0134132 0.0466828 -0.028118 -0.0487502 0.0298045 -0.0157788 -0.007179 0.0402831 0.0441011 0.023041 0.0270363 -0.000131823 0.0261013 -0.0222863 0.00715129 -0.00103289 -0.0374259 -0.0275408 0.0207205 -0.00482439 0.0322738 0.0245973 -0.0378937 -0.0130135
to 0.0261224 0.00516709 -0.0148541 0.046649 0.00223032 -0.0438478 -0.0253001 -0.0457367 -0.00995135 -0.0260723 -0.0376368 0.000273287 0.0447845 -0.0411944 0.0106669 -0.0047537 -0.00141859 -0.0327059 -0.00572535 -0.0166981 0.0422032 0.0258692 -0.0276014 0.0155703 -0.0313577 -0.0252435 0.00217134 -0.0325578 0.0488626 -0.0344209 0.0312439 0.0400205 0.0128606 0.0101393 -0.00409585 -0.0334223 -0.0354223 0.0393961 0.00322081 0.0297194 0.025892 -0.0234619 -0.0309924 -0.0245209 0.0179615 0.0414683 -0.0333514 -0.0131121 0.0145115 0.0339488 -0.0195143 -0.000447549 0.0112758 0.003206 0.0193238 -0.0272466 -0.0457951 0.00935207 -0.0430947 -0.0327547 0.0272562 -0.00522733 0.0345755 0.0490357 0.00896643 0.0339571 0.00113194 -0.0118356 0.0109842 0.0431521 -0.00357736 0.0249174 -0.0449195 -0.0394618 0.0233199 0.048953 0.0457835 0.0213104 -0.0326234 -0.0261028 0.000130951 -0.00264806 0.0239042 -0.0455557 -0.00930385 0.0415972 -0.00292952 -0.00521559 -0.0203372 -0.0106947 0.0153255 -0.0114576 -0.0098386 0.031514 -0.00603475 -0.0105127 -0.00134999 0.00545672 0.0438706 -0.0168119
she -0.0466514 0.00942088 -0.0358636 -0.0137882 0.0350373 0.0268584 0.0329321 -0.0197139 0.0368691 -0.0029061 -0.0202069 -0.0152373 -0.020797 -0.0209338 -0.0227378 0.0319176 -0.0176321 -0.00267072 0.0421331 -0.0372432 -0.000688683 -0.0479801 -0.00557718 -0.0330258 -0.0361499 -0.0495379 0.0137609 0.0276075 -0.00880029 -0.0424066 0.0489986 0.0314664 -0.0231793 0.00798802 -0.00623817 -0.0394166 0.0410543 -0.0386674 -0.0413819 0.0312504 0.0188211 -0.0126436 0.0214326 -0.0331554 0.0489833 0.0203588 0.0223802 0.000525571 -0.0294087 -0.0317406 -0.03618 0.0376311 -0.0105288 0.002053 0.00637643 -0.0321625 -0.0278838 0.0157775 0.042586 -0.0284903 -0.00253682 -0.0151517 0.0377367 0.000561047 -0.0341401 -0.00717099 -0.027782 0.00673071 -0.032114 0.0233649 -0.0376046 0.00609621 0.046716 0.0375228 0.0134071 0.0253465 -0.0231916 -0.0354869 -0.0117969 -0.0451204 -0.00489463 0.00890756 -0.0245627 0.0270771 0.0270246 0.00827588 -0.0265297 0.0472185 0.0475057 0.00404118 0.00435789 0.0303203 0.0292602 0.00161164 0.0154126 0.022597 0.024916 -0.0202741 -0.00903155 -0.0410856
a -0.371282 0.859186 -0.0430232 -0.0652759 0.143779 -0.102262 0.0859186 -0.0696019 0.00764731 -0.0682782 -0.00706876 0.0457698 0.146523 0.0835975 0.0544263 0.132847 -0.04259 0.17853 0.113244 -0.226246 0.0489815 0.0441732 -0.0917825 0.113633 0.132843 -0.0907839 -0.179234 0.206634 -0.699789 0.0489414 0.0502132 -0.154306 0.0209528 0.00247765 0.135661 0.479561 -0.298134 -0.000577402 0.00319025 0.102798 0.180131 -0.153979 0.121783 0.128405 0.391991 -0.0781041 0.0309175 -0.116952 -0.0889811 -0.325178 0.0630363 -0.376625 0.211999 -0.12469 0.0445488 -1.67604 0.117054 -0.18518 0.504673 0.0966296 0.079514 -0.0270072 0.0558289 0.82133 0.10787 -0.00673582 -0.205243 -0.112818 0.0715693 0.0739589 -0.187283 0.283106 -0.492492 -0.0365943 -0.189156 0.125178 -0.115108 -0.0895536 -0.0857185 0.112053 0.115058 0.214068 -0.0605173 -0.20173 -0.128443 -0.102326 -0.0139075 -0.0908116 0.36911 0.139584 0.141579 0.121818 -0.124123 -0.128872 -0.0621267 -0.141669 -0.147366 1.15058 0.933402 0.127768
i -0.0457001 -0.0236929 0.0040298 -0.045301 0.0198509 -0.031295 0.0451498 0.0309004 0.0300799 0.0390267 -0.0416233 -0.0149044 -0.029966 -0.00831429 0.0041926 0.0378101 0.0250899 0.0134231 0.0303859 -0.0275204 0.0248949 -0.0311391 -0.0187158 -0.0124263 0.016598 0.0103697 0.036905 0.0186597 -0.0190988 0.0171597 -0.00219268 -0.0244886 0.0056463 -0.0486529 0.0355898 -0.0442263 0.0110757 0.0196877 -0.0463475 -0.0315384 -0.0368649 -0.0376122 -0.0237749 0.0458904 0.0366259 -0.029456 0.0474544 -0.016741 -0.0420656 0.00411663 -0.030133 -0.00809305 0.047828 0.0197225 0.0179405 -0.0443233 -0.0489798 -0.00452216 0.0329491 -0.00872578 -0.0126248 -0.0218837 0.0482668 -0.0499175 0.0417226 -0.0107013 0.00845983 0.0209864 0.0292158 0.0295605 -0.00015695 -0.0422357 0.0482952 -0.0307903 -0.0312098 0.0484092 0.0471834 -0.0260177 0.026867 0.0106983 -0.00754231 -0.0426448 0.0287472 -0.0265354 0.0201815 -0.037097 -0.0197222 0.0254874 0.0304073 -0.0171126 -0.0228273 0.0396355 0.0247238 0.0179056 -0.0277166 -0.017206 -0.0288862 0.0339772 -0.019834 0.0186731
it -0.00976617 0.0198805 0.0441826 0.0357749 -0.0133971 0.0313043 0.0364822 0.0437183 0.00378071 -0.043483 -0.0212697 -0.0400554 0.041737 0.00958679 0.0115197 -0.0452624 -0.00511049 0.0144714 -0.00524635 0.0106164 -0.0416982 -0.0479278 0.0488782 0.0398775 -0.0202274 -0.0425253 -0.00390337 -0.00139005 -0.0135924 -0.0451932 0.0208874 0.0267488 -0.0496498 -0.028655 2.60957e-05 0.0317168 -0.0161529 0.0349493 -0.0457332 -0.0305531 -0.0477366 0.00645096 0.0120511 -0.00648644 -0.00840545 -0.016848 -0.0316115 -0.0410011 0.0491007 -0.0121283 -0.00921147 0.0401833 0.00447607 -0.00408871 0.0276453 0.0106136 -0.0420325 -0.0285686 -0.0193353 -0.0402327 0.0253491 0.00695863 -0.0220076 0.0455643 0.0305837 0.0219277 -0.028254 -0.0151506 0.0258139 0.00438986 -0.0136206 0.00597183 0.0300269 0.0110398 -0.0406945 -0.0162769 0.0309729 -0.00609454 0.00298252 -0.0307704 0.0374942 0.0192951 0.024486 -0.0493284 -0.0408596 -0.032735 -0.0281736 -0.0332744 0.0366602 0.0487179 0.0220415 0.0190669 -0.000253357 0.0117308 -0.0372077 0.00403628 -0.0339798 0.0111471 0.0249686 0.0135996
of -0.0324834 -0.0445864 -0.0124137 -0.0288816 -0.0135169 0.0201615 -0.0459124 -0.0495672 -0.0340107 0.0439482 0.049065 0.0363387 -0.0202121 -0.0046006 -9.61199e-05 -0.0487438 -0.0199375 0.0322327 0.0305288 0.0287734 -0.0404065 0.0343181 -0.037175 0.00858351 -0.0266277 -0.0340845 -0.0467771 0.013002 -0.0457253 0.000178196 -0.00305625 0.0155147 0.00698099 0.0154089 -0.049543 0.0451683 -0.0125775 -0.0204303 -0.0169152 -0.0454164 0.0117733 -0.0208575 -0.0358026 0.0211815 0.000323486 0.0206508 -0.0128464 0.00668441 -0.0284512 0.005627 -0.00322654 -0.0208315 -0.0206976 0.0365728 -0.0342621 0.0324687 -0.00636943 -0.0317055 -0.0292275 0.0459205 0.037921 0.0155944 -0.0355732 0.0441094 0.0153144 0.0244684 0.0172445 0.0230245 -0.00356717 0.0446744 0.00565463 0.0161529 0.0454753 -0.022559 -0.0211611 -0.0142474 -0.0444509 0.0322552 -0.0193672 -0.0114434 0.0305589 0.0491292 -0.020216 -0.0116987 -0.0173718 0.0347519 0.0367074 0.0322178 0.0490929 -0.0258512 0.0163806 0.00296431 -0.00343949 -0.0116115 0.0458177 0.011309 0.0465972 -0.0157775 0.0380611 -0.0398264
was -0.0441172 0.01965 0.00190154 0.0382173 -0.039972 0.00365222 0.0187501 0.0296961 0.0295498 0.0343613 0.0454163 -0.023004 -0.00766116 0.0180106 -0.0100339 -0.045926 -0.0267297 0.0476904 -0.0114725 0.00623882 -0.023321 0.0418275 -0.0435597 -0.0412534 -0.042517 0.044186 -0.0234138 -0.0110885 0.0473096 -0.0239404 -0.0494878 -0.040618 -0.0387799 -0.0140552 -0.00667306 0.0281769 -0.000248861 0.0132724 -0.0442233 -0.0152813 0.00442018 0.0324845 0.0218432 0.000597775 0.0278997 0.0420644 0.0355407 0.00936438 0.00742199 0.0156683 -0.00686904 0.0217588 -0.0328762 0.00753193 0.00741726 0.00211005 0.0190465 -0.0428312 0.0142325 -0.00628961 0.0470339 0.0465985 -0.0300272 0.00422405 -0.0314344 -0.0105689 0.00871718 -0.0161732 0.00736127 -0.040972 0.0152242 -0.0162754 -0.0433463 0.014677 0.00943924 -0.0253551 0.0226158 -0.0465301 0.046482 0.0396353 -0.0172569 0.00764154 -0.0240122 0.0399284 -0.00520819 -0.046317 -0.0309035 -0.0172569 -0.0443365 0.0384919 0.0263228 -0.00547155 0.0217309 0.00280018 0.0044987 -0.00532211 -0.00487626 0.00234549 -0.0287799 -0.0301495
in 0.000223935 -0.0461745 0.0129339 0.0385863 0.0439399 0.0092163 0.0372013 -0.0183723 0.0251986 -0.0181761 0.043326 -0.0302051 -0.0288771 0.013295 -0.00682896 -0.0193948 -0.0264905 0.0210899 -0.0256338 0.0129369 -0.007383 -0.0180953 0.0314327 0.0485114 0.0282488 0.0065298 0.0249795 0.0448549 -0.0333865 -0.0210954 -0.00603319 -0.0241024 0.0312738 0.000453614 -0.0142298 -0.0398863 0.00738968 -0.0366064 -0.0229524 -0.0323352 0.0279737 -0.000308253 -0.0349184 -0.0151906 0.0162818 -0.0328691 -0.0220908 -0.0364989 0.000791885 0.0236642 -0.0158657 -0.0251288 -0.00855287 0.00195173 -0.00677978 0.0194154 -0.0318967 -0.0440599 0.0237966 0.0090316 -0.0269157 -0.0290138 -0.0369839 -0.0447084 0.0399275 -0.0424201 -0.0194542 -0.0281508 0.0464488 0.0128451 -0.0196649 0.00866375 0.0394122 -0.0402268 -0.00503149 -0.0302633 -0.00671352 0.0213833 0.0115642 -0.00473193 0.0187641 0.0262691 -0.0385901 -0.0458714 0.0255308 0.0200496 -0.00384431 -0.0424111 -0.0254484 -0.0124659 0.0365185 0.0470128 0.00740964 0.0124676 -0.0167872 0.0180417 -0.00212959 -0.00600734 -0.0014159 0.0126105
alice -0.0389847 -0.012076 0.009534 -0.0238114 -0.0444602 -0.0330702 0.0482621 0.0269563 -0.0137889 -0.0147279 0.0368622 0.0460665 -0.0130317 -0.0274953 -0.0281525 0.0482779 -0.0400353 -0.00486872 -0.00550712 0.00485779 -0.00148091 0.0212747 -0.00652011 -0.0114191 -0.0370634 -0.00604022 0.0171536 -0.00521366 -0.0069154 -0.0247947 0.0397346 0.00990228 -0.0240265 -0.00803324 0.0132162 -0.033085 -0.0442745 -0.0391869 0.0488746 0.000134625 0.0134376 -0.019732 0.0184346 0.0117549 -0.0434151 0.00724305 -0.0354874 -0.0482092 -0.0325645 0.0374778 0.0472564 -0.000211932 0.000525724 0.0262118 -0.014881 -0.0291318 0.0306411 0.04221 -0.000653051 -0.0149004 0.0314036 -0.0315393 -0.0445729 -0.0159836 0.0371949 0.0183913 0.0377736 0.0254721 -0.0223482 -0.0192521 0.00188749 0.0491054 -0.0274337 -0.00419099 -0.0454357 0.0223886 -0.0152207 0.0276898 0.0247248 -0.0273231 0.0014617 0.0391709 -0.00928229 -0.00750432 0.0186286 0.0469277 0.0176853 0.0307655 -0.0346123 -0.0163621 -0.0119017 0.0278373 0.0458519 0.0280331 0.0171191 0.0330079 -4.06876e-05 0.0254069 0.00533847 -0.0287708
you 0.0133384 0.0416283 0.028471 0.0106735 0.0494618 0.0476611 0.0316195 0.0451771 0.0216316 -0.0260007 0.0113699 0.0210015 -0.00726939 -0.0458393 0.0365154 -0.0111734 -0.00527561 -0.0397262 0.0492549 -0.0246073 -0.0442912 0.0225836 0.0276882 0.0451928 0.0452217 -0.0444039 0.0411555 0.0311587 0.0334737 0.0034919 0.0439964 0.0283832 -0.0457871 -0.0243672 -0.00617143 -0.0182246 0.00923951 0.0357943 0.0360769 0.0474947 -0.0439003 0.019403 0.0371086 -0.0335001 0.026307 0.0454105 -0.0343278 -0.033466 -0.000232004 0.016178 -0.0253757 0.0129786 -0.0231238 0.0461603 0.0180095 0.0334851 0.0341182 0.0250231 0.00539445 0.0376051 0.0074539 -0.00839911 -0.0286893 0.0140409 -0.0256455 0.0241853 0.0371599 0.0241742 0.0225491 -0.00776912 -0.0129037 0.00178779 -0.0186966 0.0320407 -0.00226362 0.036702 0.0491 -0.0279853 0.0200612 -0.0155544 -0.0267057 0.00621444 0.00881976 -0.0266201 -0.0241038 -0.00062127 0.0255453 0.000585686 0.0094251 0.0348203 0.00428983 0.0222423 -0.021272 -0.0266669 0.0086627 -0.0038044 -0.0478267 -0.0057338 -0.0229148 -0.0232583
that -0.00484793 -0.0407315 0.0449433 -0.017717 0.0155136 0.0112028 -0.0133848 0.046861 -0.0400248 0.0446557 -0.01061 0.045549 0.0190084 0.0159306 0.0431885 0.0225023 -0.0463212 0.0049498 0.00657653 -0.0153551 -0.0318524 -0.0398822 -0.0388213 0.0289894 0.00902843 0.0142338 0.0374738 0.0234917 -0.0064921 -0.0365198 0.024838 -0.00671764 0.0288791 0.00467601 -0.0452421 -0.0363562 0.0490784 -0.0315787 0.0032666 -0.0100242 0.00347732 0.0327247 -0.0144109 -0.0475937 0.00669849 -0.0414335 0.0157855 -0.0249592 0.0136417 0.010558 -0.0211819 -0.00259734 0.0352027 -0.0267064 -0.0100074 0.0401728 -0.0117852 0.0130913 -0.013612 -0.0094202 -0.0080096 0.0460948 0.00734776 0.0125218 0.0361308 0.0282238 0.0346608 -0.0383126 -0.0192463 -0.0252461 0.0442185 -0.0178547 0.00868676 0.0242428 -0.0313452 0.00459908 0.0031072 0.0448638 0.0416675 -0.0136936 0.035441 -0.00622352 -0.0210501 -0.0450181 -0.00822446 -0.0268013 -0.0187421 -0.0482804 0.0346943 -0.0477574 0.0227832 0.00935662 -0.0389505 0.0155859 -0.00502707 0.0307745 0.0415939 -0.0103607 -0.00581811 -0.0479983
her -0.00932846 -0.0221918 -0.0183389 0.0331357 0.0226916 0.0261026 -0.00818731 -0.0483676 -0.0400101 0.037251 -0.0221488 0.0148778 -0.0112531 -0.0354898 0.0459265 -0.0395134 0.012684 -0.00852491 0.0114124 -0.0211164 -0.0429117 -0.00254868 -0.00301018 -0.0206259 0.0405276 -0.0279828 -0.0240009 -0.029724 -0.0431957 -0.00268009 0.0341872 0.0422267 0.0155844 -0.0421575 -0.0251026 -0.0159932 -0.00349095 -0.0471276 0.0433326 0.0489368 0.00414666 -0.0185691 -0.0396941 0.0126825 -0.0362102 0.0413574 0.000265621 0.00678724 0.0443899 -0.0151452 -0.0303991 0.0206486 0.00705064 -0.0019215 0.0498815 -0.00530986 0.0441169 -0.0306161 -0.0283838 -0.00192492 -0.0123481 -0.0372941 0.00912251 0.0469523 0.0467222 0.0339711 -0.00717834 0.00380664 -0.0485602 -0.0422227 -0.0473978 -0.0295289 -0.0159114 -0.00155801 -0.0105842 0.00739456 -0.0399563 0.00490277 0.0348458 -0.0127282 0.00601255 -0.0451668 0.00887636 -0.0154073 0.00182831 0.0266261 0.0499269 0.0302666 -0.00488422 0.0349901 -0.0202887 0.00199995 -0.0474144 -0.00542104 -0.0408892 -0.00522793 0.0183318 0.008371 0.0237503 0.0212117
as -0.0231743 0.0488582 -0.00844495 -0.0237163 0.00218055 0.0116128 -0.0204757 0.0271719 0.0402545 0.0198025 0.0298334 0.0353824 -0.00883128 0.0499482 -0.0316927 -0.0343318 0.00301621 0.00966175 0.0187845 0.0265393 -0.00679771 0.0480144 0.0399448 0.0283172 -0.0232114 0.00124156 0.0017355 0.0239 0.0499555 0.0304612 -0.0310787 -0.0263657 -0.000822175 9.71444e-05 0.0102515 -0.0311325 0.00269258 0.0141024 -0.0104328 -0.032886 0.0310021 0.0209537 -0.0258721 -0.000276674 0.0376283 -0.0369029 -0.0166796 0.0220894 0.00344517 0.0055894 0.0229199 0.0459592 -0.0322767 -0.0272369 -0.00194009 0.00359114 -0.0280891 0.00979368 -0.0168363 0.0146225 0.0376312 -0.0376238 0.0173767 -0.0244068 0.018234 0.047208 -0.0298261 -0.024838 0.0467979 -0.0276342 -0.00259884 0.0458189 0.0336609 -0.0381885 -0.00366881 0.0436329 0.0329974 0.0185913 -0.00452667 -0.0441577 -0.016267 0.00985491 -0.0148934 0.0102871 -0.00535389 -0.0061501 0.0131112 0.0372824 -0.0112128 -0.0148898 -0.0157666 0.0352337 0.00582385 -0.0317247 -0.0276463 0.0302608 0.0428048 0.00984994 -0.0405708 -0.0371133
said -0.00319481 0.0154334 -0.00748437 -0.0259997 0.0469081 0.00104892 0.030319 -0.00883148 -0.0317758 0.0378481 0.0293924 0.0103997 -0.0421496 0.0410612 0.0382397 -0.0252108 0.0091878 0.0210395 -0.022499 0.0114472 -0.0091295 -0.0455639 0.0446653 -0.0103541 0.0474621 -0.0247034 -0.0421229 -0.00410299 -0.00448639 0.0290606 0.0075227 -0.0457986 -0.0372041 0.0396936 -0.0425612 0.0215864 0.0210278 -0.0122768 0.038509 -0.0200064 -0.0246988 0.0338032 0.0338803 0.00642452 0.0028097 -0.0439145 -0.00843658 0.00418096 -0.00295866 -0.000950385 -0.0422468 0.01834 -0.0134424 -0.0307048 -0.00983274 0.00969069 0.0158039 -0.011458 -0.0375033 -0.0251835 -0.0280102 -0.0020562 0.0089965 0.0159403 -0.0324119 -0.00162871 -0.025609 -0.00629923 0.0307156 0.010044 0.0332592 0.0265199 0.0224727 0.0230928 -0.028852 0.0365736 -0.0158614 0.0249781 -0.0082476 -0.0371155 0.00407396 0.0230881 -0.048531 0.0426458 -0.0180638 -0.0445421 -0.0007434 0.0185546 0.0102952 -0.0165695 0.00162137 -0.0264045 0.0262403 0.0304415 -0.0157425 0.0130138 -0.0372595 -0.0230099 -0.0058776 0.0142502
had 0.0210728 -0.0178163 -0.0245119 0.0417635 0.0287743 0.0468925 0.0211194 -0.0452642 0.0192444 0.0310725 -0.00477878 -0.0497741 -0.0429515 0.0205707 -0.0345448 0.00640961 -0.0394328 -0.0343279 -0.0475605 0.0306395 -0.0347518 0.0176079 0.0144188 -0.0152536 -0.0179539 0.0429191 -0.0393422 0.00928546 0.030063 0.0195025 0.0152522 0.0330211 -0.0114849 0.0122957 0.00266577 -0.0399621 -0.0405537 -0.0203941 0.00991123 -0.0305113 -0.0263598 -0.037978 0.0338513 0.0133148 -0.0491818 -0.014892 -0.0272495 0.00263638 -0.0428901 -0.00415323 0.0134284 0.0182653 0.013421 -0.0361368 0.0334366 0.0280146 -0.00279987 -0.0271066 -0.00400195 -0.0239558 0.0292768 -0.0332642 -0.00983616 -0.044421 -0.0329322 -0.0153616 -0.0188622 -0.0158302 0.010528 -0.0037512 -0.00877223 0.0416484 -0.00414463 0.0311907 -0.0447427 -0.0426616 -0.013123 0.0238605 0.00238885 0.0370005 -0.0278152 0.0207318 0.0447055 0.0323269 0.00610212 -0.0154793 0.0219288 -0.00293 -0.0414014 0.00351157 -0.0357867 0.0161482 0.0145931 -0.0410583 -0.0393898 0.0382656 0.00948076 -0.0368546 0.0387167 -0.00256138
for -0.0391325 0.00499881 0.0499819 -0.00909848 -0.043185 -0.0103774 0.0315029 0.0400245 -0.045675 -0.00657509 -0.0258278 -0.0473299 -0.0399503 0.0386879 -0.0167815 -0.030675 -0.0149218 0.0459901 -0.0309457 0.0260478 0.0338303 -0.0203489 0.0145665 0.00968055 0.0142624 0.0315154 0.012249 0.0377117 -0.0469093 0.0294314 0.0467068 -0.0195476 -0.0354783 -0.048839 0.0108028 0.0376457 -0.0277358 0.0296718 0.0488776 0.00348623 0.0477181 -0.0405347 -0.0495133 -0.041265 -0.0129492 -0.0342279 0.00283372 -0.0307965 -0.000760891 -0.0427566 0.00639832 0.000178121 -0.0189235 0.0486792 0.0019735 0.0406115 0.0136253 -0.0292237 0.0146711 -0.00597673 -0.00731052 0.0404862 0.0176153 0.0320566 0.0431716 0.0416085 0.0273887 -0.0348015 0.0475948 0.0486551 0.0461615 0.0208968 -0.0467096 -0.00175697 0.0375046 -0.0195773 -0.036014 0.0150426 0.024765 -0.00530468 0.0134831 0.0144934 0.0135619 0.0248895 -0.0321755 -0.0309531 0.0454968 0.0185008 0.0214687 0.0468022 -0.0114556 0.00899541 -0.0265829 -0.0231696 0.0274681 -0.0304086 0.043232 0.0307671 0.0368134 -0.0422037
but 0.0204097 0.0063558 0.000878345 0.0480765 0.0133276 0.00233209 0.0485401 0.0474092 0.0382031 0.00541855 0.00943828 0.0171546 0.0394545 0.0107695 -0.0345644 -0.0285501 -0.0494672 -0.0211542 -0.0043723 0.0192038 0.0324962 -0.00388864 0.0101852 0.030708 -0.00953629 0.0214142 0.0268992 -0.000444256 0.0136035 0.0187294 0.0188286 0.0328899 0.0158373 -0.0359227 -0.0183607 0.0162 -0.0487334 -0.0145083 0.0382122 -0.0160857 -0.0170673 -0.0106897 -0.0249693 -0.0319307 -0.0356537 0.0089085 0.0333298 -0.048355 -0.0438093 -0.049456 -0.0333756 0.026555 0.00720771 -0.00894649 0.0499634 0.00654177 0.0415002 0.0408426 -0.0467628 0.0465578 -0.0155591 0.00196119 0.0100938 -0.0475613 0.00744122 0.0464458 -0.0497896 -0.0134584 0.0217391 0.0483812 -0.0334197 0.0157866 -0.0454768 -0.033834 -0.0406648 0.0160901 -0.0148163 -0.00499196 -0.0373022 -0.00285935 0.0227276 -0.023665 0.0199942 0.0354605 0.0420158 0.0281274 -0.0299752 0.035344 0.0158743 0.00210639 -0.0338956 -0.0399373 0.00743195 -0.0424948 0.00786799 -0.0281872 0.00386077 0.00821853 0.0205154 -0.00111263
be -0.0361508 -0.00551357 -0.0107862 0.0336181 -0.046046 -0.000726737 0.0126997 -0.0305352 -0.017048 -0.011228 -0.0232756 0.0352194 0.00253725 0.0434727 0.0336978 0.0275694 -0.0341487 0.045551 0.0231356 0.0261235 -0.00507838 0.0264368 -0.027244 0.0384542 0.04875 0.0445114 0.00735746 -0.0243987 0.0422552 -0.0189082 0.00631082 0.00543734 0.0343092 -0.0228849 -0.0371072 0.0284564 -0.0490569 -0.0206414 0.0282296 0.0444717 -0.0421426 -0.0362316 -0.0461718 -0.0017373 0.00210788 0.0397422 0.0143611 0.000903249 0.005714 0.0231216 -0.0393214 -0.049024 -0.0371085 0.0333371 0.0171627 0.0236611 -0.0234949 0.00234977 0.0265476 0.00792905 -0.0178287 -0.00418333 0.00550302 0.0248235 0.00421747 0.0351418 0.0166482 -0.0478219 -0.00746856 -0.0368975 0.0103197 0.00874465 -0.0107948 -0.00440468 0.012546 0.00646029 0.0395918 -0.034659 -0.00346469 -0.0288625 0.0221532 -0.0373788 -0.0377891 0.03388 0.0321912 -0.0420775 0.0262597 -0.0379635 -0.0158476 -0.0233652 0.0402161 0.00376861 0.0464441 0.0449075 -0.0120926 0.0310022 0.0126293 -0.0257869 -0.0151929 0.0473557
on -0.00664601 0.0112495 -0.00130751 -0.0307565 0.019056 -0.0497607 -0.0414847 0.0311014 0.0436714 0.0379462 -0.0405195 -0.00829656 -0.0439757 -0.0216819 -0.0436199 -0.0382284 -0.00421844 0.0268126 0.00943074 -0.0126233 0.0252925 0.0440551 -0.00243406 0.0315969 0.0295185 0.0135744 -0.0440625 0.0249337 0.0280485 -0.0318812 0.033351 -0.031183 -0.0388324 0.0218936 -0.0022514 -0.0357011 0.0133406 -0.00784475 -0.00873933 0.0244353 -0.022456 -0.0459916 0.000361599 0.0497682 -0.0188066 -0.0419574 0.0263362 0.00459132 -0.0423796 -0.043345 -0.00171065 0.0256843 -0.03213 0.0129246 -0.00436749 -0.0304483 0.0239289 0.0293413 -0.0311945 0.0300469 0.020399 -0.0187489 -0.0138343 -0.048517 0.00248064 -0.0295795 -0.0125157 0.0303418 -0.0142663 0.0320165 -0.0157403 -0.0417965 -0.0122688 -0.00724449 -0.00441765 -0.0436277 0.0179296 0.0271781 -0.0386647 0.00981003 0.00551684 -0.0493983 -0.00990702 0.00900678 0.013295 0.00366813 0.0118717 0.0185032 -0.0498127 -0.00999641 0.0230647 -0.0211034 -0.0304004 0.00813096 0.00500593 -0.0305358 -0.0327999 0.0243693 0.037902 0.0372612
all -0.0137895 -0.0298434 -0.0241562 -0.0310506 -0.0469966 -0.0346151 0.0466882 -0.0147628 -0.0186128 -0.0207259 0.0178898 -0.0100048 -0.00961071 -0.00151891 0.0191163 0.0276392 -0.0116522 -0.0109141 -0.0247433 -0.0439243 -0.0261614 -0.00749386 -0.0431 0.00344046 0.000376951 -0.0088409 0.027034 0.00525676 0.0414226 -0.00682498 -0.0270764 0.0354845 -0.0163391 0.0338199 0.0121843 -0.0238168 0.00952931 0.0229515 -0.0206355 0.00571956 0.022467 0.0235205 0.0487238 0.0112993 0.0496953 0.00854246 0.00636404 0.0188832 -0.0472135 0.0132322 0.0204914 -0.00177133 0.0200325 -0.00692677 0.000766803 0.0407271 0.0139046 0.0100355 -0.045218 0.0119357 -0.0212634 -0.0482807 0.00281209 -0.0137384 -0.0262479 -0.00693097 0.00727993 0.039141 -0.00858761 0.0189065 0.0186435 0.0395482 -0.00151262 0.0361618 -0.0479416 0.0171024 -0.035848 0.00378261 -0.00493503 -0.0256631 0.0152796 -0.044202 0.0126054 -0.000405706 0.0232799 -0.0245669 0.0260995 -0.0252731 -0.0292919 -0.0444204 0.00102128 -0.0480375 -0.0315796 0.0301154 -0.0307732 0.00632746 -0.00631998 0.0483955 -0.00534634 -0.0492483
with 0.0116862 0.0267789 0.0259164 0.01986 -0.0306274 -0.014531 -0.0482371 0.0251831 -0.0276742 0.00196407 0.0429929 0.0324992 0.00476833 0.0415673 -0.020865 -0.000302304 -0.0203401 -0.0415189 0.0305028 -0.0141725 -0.0483837 -0.0478566 0.00801282 -0.0290126 -0.0129682 -0.0184312 -0.00822775 0.00593711 0.00108037 0.0367902 0.0407273 0.019491 -0.0076591 -0.0029488 0.0373692 0.0144989 -0.0110672 0.0355215 0.0146356 -0.033072 0.012495 0.0132087 0.0366911 -0.0406051 -0.0413255 0.0281343 -0.0331077 0.0328158 0.0190063 0.0499317 0.0365339 -0.012117 0.0186414 0.00500933 -0.0369286 -0.0467344 -0.00643576 0.0041035 -0.0334163 0.0140816 -0.0159523 0.033441 0.0248153 0.0193864 0.0393387 -0.0349329 0.0345833 -0.039347 -0.01193 0.0236527 -0.0441045 0.0051447 0.0221858 0.0257207 -0.00446371 -0.0125074 0.0321565 0.00733979 0.0264976 0.0370691 -0.00207648 0.0255181 -0.00963034 0.0334248 -0.0301622 0.027038 0.0152955 0.0466022 0.0116176 -0.0182438 -0.0321015 -0.039153 -0.0409236 0.0416472 -0.0112502 0.0188224 0.000165321 -0.0154789 -0.0213612 -0.0123889
little 0.0175918 -0.00081595 -0.00721928 0.0183131 -0.044562 0.039722 0.0281049 0.0258199 0.0280199 0.0211874 -0.0441448 0.0426438 0.0103093 -0.00454311 0.0138933 0.0482166 0.0451517 -0.0234059 0.0408373 0.0217886 0.0377573 0.0239472 -0.024664 0.0452092 -0.0489123 0.0488013 -0.0165375 -0.0358621 0.00852085 -0.024456 0.0319951 0.0436117 0.0490465 0.00384263 -0.0300415 -0.00906036 -0.007903 0.0313223 0.0148756 -0.0266678 0.00353463 0.0259796 0.000890613 0.0322327 0.043874 -0.0204681 -0.0478499 -0.03182 0.0083693 -0.0181071 0.0257817 0.018025 0.0324626 0.0286604 0.0147218 0.0189795 0.00451968 -0.0391453 -0.00681722 0.0293461 0.0495269 0.0342614 0.00332397 -0.0431558 0.0262378 -0.00359576 0.0116631 -0.0246676 -0.0139933 -0.0305823 -0.0493322 0.0228705 0.0429859 0.0198587 -0.0168343 0.0100156 -0.0170751 0.00558467 -0.0203516 -0.0288587 -0.0398861 -0.0427542 -0.0308492 0.0158359 -0.00425836 0.0108186 0.0204497 -0.025793 -0.0271135 -0.012027 0.0241877 -0.0114911 0.0216936 -0.00921947 0.0402473 -0.0476486 -0.0157347 -0.0331214 0.0362897 -0.0337673
mouse -0.0342144 -0.0168604 -0.0172786 -0.0477412 -0.0190803 -0.04806 -0.0177324 -0.0293373 0.0451919 -0.0261317 0.0395754 -0.0384293 -0.0283533 0.0253116 -0.0459095 0.013306 -0.00257205 -0.0180051 0.0373094 -0.0183793 -0.0361242 -0.0109336 0.0498247 0.0150683 0.0126344 -0.0284607 -0.0429946 0.0216374 0.0406871 -0.00186303 -0.0237799 0.0351646 -0.00687606 -0.0249289 -0.00405199 0.00930966 0.00351341 -0.000975776 0.00240381 0.0358344 -0.0134934 -0.0384914 -0.0424511 -0.0190738 0.0388421 -0.043862 0.0181681 0.0216016 0.045246 -0.0213476 0.0451097 -0.0472311 0.0240365 -0.0238725 0.0142158 -0.0300522 0.0483034 0.0118315 -0.0453577 -0.0218803 -0.00509256 -0.049341 0.0294383 -0.0035999 -0.0304608 -0.0333534 0.0392472 -0.0366267 0.017414 -0.0350291 -0.0142259 0.0401542 0.0130534 0.016319 0.034261 0.02699 0.0199701 -0.0181494 0.0228556 0.0185252 -0.0411836 -0.0173113 0.00196861 0.0442984 -0.0380571 0.0277945 0.00792323 -0.0465853 0.0287446 0.0497317 -0.0196136 -0.0229813 -0.0494774 0.049139 -0.0445337 -0.0414903 -0.00874543 0.0127985 0.00569189 -0.0343614
down 0.0492013 -0.0178594 -0.00667535 0.0375021 -0.0102185 -0.0153318 -0.0416915 0.0204836 -0.0396929 -0.0204141 -0.00465595 -0.0470568 -0.00108349 0.0365593 -0.0219865 0.0491918 -0.0332556 -0.0167844 -0.0486821 -0.0323383 -0.0436918 0.0342769 -0.0198107 -0.0382744 -0.000921287 -0.0430287 0.0310164 0.0136576 0.0471135 0.0138199 -0.0460238 0.0367966 0.00178691 -0.0383378 0.0305298 0.0326449 0.0279825 -0.00347801 -0.0106247 0.0346619 0.0350768 0.0399864 0.00650115 0.0215746 -0.00193614 0.0423308 0.0369852 -0.0287101 -0.010357 -0.0322072 0.0290222 0.00336404 -0.021616 0.00673874 0.0294748 0.0471924 -0.0332717 0.0441975 0.0176095 -0.0313958 0.0161159 0.0293058 0.0155202 -0.0323444 0.0269767 -0.00814445 0.00722265 0.0174338 0.0265697 -0.0288504 0.0477415 -0.0404172 0.017609 0.00318575 0.0208295 -0.0452191 -0.0464803 -0.014504 -0.037772 0.0289273 -0.00688143 -0.0106876 -0.0047668 0.0232625 0.0250702 -0.0488068 0.0187295 0.0343747 -0.0192057 0.0407496 0.00960462 -0.00621188 -0.0264736 -0.0369336 -0.018416 -0.0167566 0.0326736 0.0134303 -0.0480748 0.0011559
very -0.00693946 0.0179561 0.00358682 -0.0302479 0.0145897 0.0317357 -0.0461329 -0.0392965 0.0035647 0.0342368 -0.0336623 0.0474317 0.0423584 0.0294088 -0.0168782 -0.0425022 -0.0220319 0.00680364 -0.0272974 0.026937 0.0295695 -0.0316362 0.0029583 0.0370455 0.0285048 0.00105109 0.0168668 -0.0456191 -0.0457171 0.00897025 0.0479589 -4.87193e-05 0.0068453 -0.00936697 0.00626577 0.00595016 -0.025747 0.00199055 0.0191311 0.0417995 -0.0291613 -0.014373 -0.019805 -0.00887933 -0.000584375 0.00763991 -0.0468946 -0.0321421 -0.0303133 -0.0419909 -0.00765575 -0.0259037 0.0146963 0.0498707 0.0309697 -0.0463251 0.0488551 -0.0268023 0.0433987 0.0247879 -0.00657023 0.0156675 -0.00950227 0.0172757 -0.0144059 0.00550474 0.0342 0.0076098 -0.0219729 0.00832282 0.0109177 0.00909512 -0.000927638 -0.00922491 -0.0432801 -0.026544 -0.0374705 0.00373007 0.0135108 -0.0403427 0.0329635 -0.0413731 0.0239464 -0.0426216 -0.00259353 -0.0223174 0.0225164 -0.00647764 -0.0220811 0.0382587 0.0493865 -0.0463623 0.0330539 0.0476691 -0.0422068 -0.00405437 0.0295371 0.0320091 -0.0442931 0.0456716
this 0.0454363 -0.0451987 0.00995163 0.0399971 0.00329298 -0.0413529 0.0332447 -0.0407021 -0.00149889 0.0489674 -0.00925714 -0.0492765 0.0488513 0.0334439 -0.0235114 -0.0434551 -0.00384314 0.025841 -0.0117149 -0.0268921 0.0195887 0.0336118 0.0127447 0.0469636 -0.0329947 -0.00141186 -0.0290169 -0.0443134 0.0379971 0.00183243 0.0472451 0.0462888 0.0334177 0.0469574 0.0471621 -0.0471261 0.0154311 0.0352332 0.0477076 0.00742894 0.02574 0.0388293 0.0258487 -0.0357059 0.0123432 0.00755029 0.00345575 -0.0120994 -0.0437763 0.0119308 -0.0308327 0.0452455 -0.0204633 -0.0279435 -0.0363617 0.00308764 -0.0181193 0.0211138 -0.0415563 0.0458134 0.0417367 0.0382489 -0.0487186 -0.0380441 -0.0244926 0.0144904 0.00559469 0.0140086 -0.0306604 -0.0462843 0.0238923 -0.034198 -0.0378629 0.0446721 0.0161004 -0.0350177 0.0110642 0.0197488 0.0243942 0.0393312 -0.0370734 0.0481815 -0.0347641 -0.0123025 -0.00620335 -0.00127124 -0.0279519 0.0433878 0.0272387 -0.00602236 -0.038879 0.0491158 0.0162478 0.0120636 -0.0269627 0.0237749 -0.000478733 -0.00306665 0.0216681 -0.0374261
not -0.0390256 0.0243523 -0.0378296 -0.0175562 0.0279269 -0.00468903 0.0261498 -0.0240933 0.0301593 -0.014711 0.0441499 -0.0407912 -0.0420874 -0.0147495 0.0498604 0.0419811 0.0114061 -0.0171332 0.0408446 -0.0247353 -0.0445835 -0.0221734 -0.00372165 0.0366059 -0.0487518 -0.00126021 -0.012674 -0.0130012 -0.0288245 0.00495888 -0.0215475 -0.0327375 -0.032932 0.00942462 0.0026959 -0.00744937 0.0227604 0.0317374 0.0476167 0.0453327 0.0151145 -0.0448774 -0.00817151 -0.0104011 -0.00827601 0.0126762 0.00810082 -0.0324893 0.0401554 -0.0312877 -0.0471574 0.0419061 -0.0351601 -0.0172939 -0.0235898 -0.00421894 -0.00103179 -0.00939642 -0.0117385 -0.00950254 0.0491217 0.00864727 -0.0427709 -0.0478583 0.0325578 -0.0261464 -0.00242882 -0.0234129 -0.0221216 -0.0367695 0.00271368 0.0107098 0.018929 0.00962223 -0.0404291 -0.0366889 0.0189583 -0.0206383 -0.0239388 -0.0401672 -0.0435439 0.0496843 0.0252528 0.0391002 0.0358735 0.00533732 -0.0372831 -0.0473664 0.00948783 0.0353894 -0.0353121 -0.0236238 0.0087495 0.0245137 -0.0176256 -0.0278791 -0.0448972 0.0417147 -0.0215586 0.0369116
so -0.046906 0.0319459 0.0115125 0.0453295 -0.0179217 0.0324433 -0.046125 0.0116843 0.0427097 0.0264474 -0.0363524 -0.0154716 0.0367348 0.0401088 0.0418565 -0.00376048 -0.00763512 0.0291736 -0.0348445 -0.00378871 0.0350825 0.033761 -0.0459406 0.00974798 0.044682 0.0340834 0.0275939 0.00728218 -0.0386081 -0.0390127 -0.0463852 -0.00440811 0.0406401 -0.0161532 0.00838338 0.0207353 0.0123099 -0.021899 -0.0355265 -0.0443035 -0.0211559 0.00192799 -0.0193327 -0.0428409 0.0429714 -0.0164883 -0.0170361 -0.00310434 0.0360842 -0.0225491 -0.0444425 -0.023859 0.00560995 -0.0211855 -0.0276417 -0.0222512 0.0224792 -0.0147176 0.00881568 0.0111762 0.015681 -0.0180981 0.0200045 -0.0101529 -0.00225338 -0.00973405 0.000922453 0.0139942 -0.0433332 -0.000233509 0.0253862 -0.0410715 -0.00013243 -0.0228629 -0.0301306 -0.0415375 0.0362684 0.0269165 0.0132684 0.0186202 -0.00031209 -0.0149488 -0.0244011 -0.0211272 0.0466242 -0.027337 0.00344832 0.0233852 0.0423769 -0.00802832 0.0349036 0.0121659 -0.0239778 -0.0409724 -0.0451384 0.00576612 0.0491801 -0.0313961 -0.0225857 -0.0331305
out 0.00197821 0.0308337 0.0474191 -0.0387859 -0.00213274 0.0425956 -0.0222534 -0.035079 -0.0202848 0.0106899 0.0101778 -0.0391343 0.0454132 -0.0379123 -0.0489731 0.0486122 0.0123003 -0.0270767 -0.032464 0.0020919 0.0365422 0.0380919 -0.00619103 0.0115405 0.0424475 -0.00815302 0.0183204 -0.00740585 0.0367722 -0.0322939 -0.034426 -0.0427249 0.0324139 0.0362995 -0.0413755 0.0287207 0.0420431 -0.0318106 0.0428686 0.00838224 0.0493502 -0.0177076 0.0322976 0.0193277 -0.0143804 -0.0157238 0.0450632 0.0284237 0.0178288 -0.0318197 -0.026724 0.00439226 0.0385035 -0.0331826 -0.0452111 0.000257589 -0.00227975 0.0291378 -0.0209432 -0.0238939 0.0393951 -0.037115 -0.0277333 0.0013957 -0.0178833 -0.0233962 0.0178294 -0.00258745 -0.00710345 0.0120678 0.0100548 0.0320104 0.00604317 -0.0368757 0.0130369 -0.0350096 0.0444159 0.0148019 -0.00113229 0.0110583 -0.00247153 -0.0362365 0.0291153 -0.0478735 0.0254888 -0.00417155 0.039861 -0.00670405 -0.0347722 -0.0299539 -0.0168177 0.00784884 0.0156725 -0.00751952 0.0302573 -0.0363468 -0.0456133 0.041378 0.000786077 0.0325946
if 0.00881082 0.0441108 0.00905378 0.0296139 -0.0193437 -0.0365864 -0.0173668 -0.00606064 0.0261254 -0.0269659 0.00616352 0.00326356 0.0358781 -0.0236298 -0.025247 -0.047961 -0.041977 -0.026636 0.0137906 0.0303987 -0.0189306 -0.042494 -0.0241935 -0.00320461 0.00703254 0.0475348 -0.0222187 -0.0351149 -0.0240692 -0.0455999 0.0283074 -0.00965278 -0.0021062 -0.00725716 -0.011044 0.00267003 0.0430586 -0.00251339 -0.0427286 -0.0115304 0.0477787 -0.0222533 -0.0451885 0.0487787 -0.0414023 0.0288209 0.0274231 -0.0338696 0.0108683 -0.0122758 -0.0246778 0.0279676 0.0230733 -0.0403485 0.0113214 -0.0256671 -0.0419242 -0.00178231 -0.0180425 0.0479113 0.0047919 -0.00966173 0.00689372 0.0420306 -0.0349605 0.0347537 0.030406 -0.042758 -0.00141877 0.028148 -0.013194 -0.0175303 -0.0424663 -0.00511413 -0.0124751 0.0462251 -0.0169775 -0.010654 0.0496069 -0.0329327 -0.0264271 -0.040806 0.0295638 -0.0415699 0.003938 0.0412735 0.0264853 -0.0198207 0.0106406 -0.00247363 -0.0238927 -0.0390593 0.00135953 -0.037652 -0.001205 0.0227948 -0.00983114 -0.0299163 0.0113207 -0.0263908
is 0.0255144 0.0434827 0.00758975 -0.0347177 -0.0204996 0.0453482 0.0291391 -0.0257092 0.0367729 -0.0387619 -0.0131253 -0.0176823 0.0431937 0.0221535 -0.0193225 -0.0365811 0.00458027 -0.000564061 0.00331999 -0.0076717 0.0438208 -0.0353977 -0.000538588 0.0134425 0.0278032 -0.0384925 0.0234263 0.0411863 -0.0185179 0.0214653 0.0476098 -0.024272 0.0466076 -0.0210698 0.0253158 -0.00251605 -0.0242035 -0.00832765 -0.0113797 0.0273318 0.0279807 -0.04421 -0.0206138 0.0379225 -0.00160228 0.0364073 0.0270236 0.0302307 -0.0190654 0.0159317 -0.0366303 -0.0352691 0.0198142 -0.0256309 0.0122899 0.0400271 -0.0170081 -0.0460431 -0.0459553 -0.0136531 0.0312003 -0.035433 -0.00688116 -0.0466919 -0.0293619 0.0454364 -0.0229697 0.0286631 -0.0278546 -0.0146109 -0.0188711 0.00765083 -0.000843335 0.0204604 0.0400567 0.0131855 -0.041372 0.0336556 0.0101424 0.0253859 0.0466903 0.0426909 -0.0292773 -0.00701109 0.0285068 -0.0136371 -0.0305408 0.00284218 0.0480647 0.0234484 -0.0334696 0.044028 -0.0206793 -0.0320168 0.0174186 0.0153478 -0.0416328 0.0014563 0.0200059 -0.0467022
at -0.0357615 -0.0166149 -0.0312589 -0.0403072 0.00930401 0.0458088 0.0278685 0.0372627 0.0472601 -0.0234182 -0.0368542 -0.00849167 0.0403138 -0.0436382 -0.0185294 -0.010056 0.00912925 -0.0176379 0.0117202 0.0317664 -0.00364002 -0.0474352 0.00597361 0.00368184 0.0275424 -0.00423408 -0.0478583 0.012089 -0.000463031 -0.0330783 0.0077091 -0.00219978 -0.0377697 -0.0235731 -0.0173064 -0.022435 -0.0101786 -0.00302266 0.0252834 -0.0446138 -0.024761 0.00140586 0.0489326 -0.0229234 -0.00317669 0.0130695 -0.000160825 0.0326065 0.00236107 -0.00210258 -0.0411343 -0.0134049 0.031287 -0.0259997 -0.011373 0.0135519 0.00171882 0.00403817 -0.0426741 0.0310644 0.0355573 0.020612 0.0474936 0.0229943 -0.0337379 0.0466103 0.0472722 0.0352319 0.0410726 0.00999798 0.00233497 0.0203441 0.00383526 -0.015588 0.035894 0.031378 -0.0206226 -0.0387967 0.0497135 -0.00767139 -0.0233582 -0.0154278 0.0417261 0.0342458 -0.00809636 -0.0284227 0.0331275 0.0292163 0.0182987 0.0461951 -0.0495846 -0.00670306 -0.0420161 -0.0230592 -0.000863217 0.0457667 -0.0398302 0.0439785 0.0497999 0.0145546
t 0.0367269 -0.00483565 -0.0325022 -0.0139357 -0.0249416 0.0329012 -0.0284306 -0.0461537 0.0361134 0.0192203 -0.0318575 0.00292515 0.0266534 -0.048882 0.0304804 -0.0312341 0.00987291 0.0310081 -0.0194951 -0.0259474 -0.0375069 0.0391403 0.0159546 0.0309399 -0.0205444 -0.00783554 0.0057726 0.00146081 0.0327365 0.0199265 -0.0334405 -0.0394308 0.0333518 -0.0459244 0.0138126 0.0161803 -0.00505351 0.001806 -0.00276513 0.000147663 0.0119349 -0.00865314 -0.0161445 -0.0289881 -0.0222948 -0.0449252 -0.0100814 0.0304103 -0.0405152 0.00357508 -0.0207971 -0.00147791 -0.0180566 0.0360393 0.0397025 0.0103022 0.0166145 0.0399951 -0.0333532 -0.0398898 -0.0369728 -0.0351745 0.0254015 -0.0414615 0.00907366 -0.0316949 -0.0246867 -0.0353055 -0.0398871 -0.000762463 -0.0470476 0.0162317 -0.00609297 0.0351504 -0.0314452 0.0454337 -0.0373213 0.0102295 0.000392448 0.0392965 0.0342734 -0.0363094 0.031796 -0.0125244 -0.0249044 -0.0026396 0.0200155 -0.0180525 0.0495177 -0.0209329 -0.0336626 -0.0388381 -0.0276165 0.0333812 0.0130207 0.0125676 0.0292497 0.0374286 -0.023621 0.0120341
s -0.00808256 0.0142254 0.0366759 0.0457051 -0.0152297 -0.033718 0.038175 0.019506 -0.00167913 -0.0271483 0.0154607 0.0244338 -0.0234254 -0.0121354 -0.00139916 -0.0387803 0.0137442 0.00947875 0.0498325 0.0286855 -0.00903869 -0.00148882 0.0499828 -0.0492906 0.047481 0.00459359 -0.0421092 0.0370985 0.0210926 0.0488438 -0.0373908 -0.040391 -0.0234088 -0.0417691 0.0138145 0.0488023 -0.0375903 -0.0250357 -0.0395662 0.0183259 0.0282198 -0.0127986 -0.0235633 0.0133269 0.00564814 0.0319857 0.017413 0.0401982 -0.0447635 0.0305371 -0.0181022 0.00962546 -0.0165173 -0.016127 -0.0372982 0.0257646 0.0408844 -0.0213584 0.0384714 0.0202717 0.00661867 0.0374788 0.0110985 0.0381982 0.0184104 0.017574 -0.00191455 -0.0303059 -0.0400218 0.0253605 -0.0446767 -0.0064159 0.0292652 0.0200696 -0.01126 0.0391026 0.0295396 -0.00596794 -0.032897 0.0330146 0.0282285 -0.031933 0.000179064 -0.044201 -0.0462802 -0.0225052 -0.0256929 0.037874 -0.0464004 0.0150099 0.0361645 -0.0132235 -0.00399012 0.0331107 -0.0388319 0.0470346 -0.00280724 0.0457686 -0.0186141 0.0310346
ll 0.0485171 -0.0256198 -0.037656 -0.0119588 -0.0143337 -0.0384064 0.0447116 -0.0148454 -0.0239298 0.027557 -0.00772852 0.0237777 0.0123174 -0.0463557 0.0192259 -0.039563 0.044185 -0.000886392 -0.0274455 0.0122774 0.0415081 0.0222537 0.00810571 0.0117277 -0.0221938 -0.0214122 0.00646565 0.0402594 -0.0414108 0.0425909 -0.0257884 -0.0376965 0.0131631 -0.00224895 -0.00376939 -0.0109858 0.0207635 0.0078789 -0.0228715 0.0425593 -0.0223765 -0.033671 0.0434959 -0.0305755 -0.00978816 -0.0185802 0.0424331 -0.0305024 -0.0145829 -0.0317428 -0.0152866 0.0150097 0.0252165 0.0388071 -0.00852599 -0.0241749 -0.00516476 -0.0499574 -0.0369016 -0.0368829 0.0104149 -0.033476 0.00037732 -0.0278883 0.0252814 -0.00741417 -0.0104269 0.0024238 0.0105697 0.0282424 -0.0360502 -0.0268456 0.00402678 0.0459919 0.0200686 -0.0141957 -0.0112357 -0.0368623 0.0453882 0.0101942 -0.0130807 0.00405885 -0.0336162 0.0430756 0.0139487 -0.0407399 0.046068 -0.0424784 0.0215153 -0.0292425 0.0127799 0.0352998 -0.017477 0.0448694 0.00997175 0.0169408 -0.00800937 -0.0111465 -0.0317882 -0.0121318
how -0.0341816 -0.0234971 0.0400383 -0.00436782 -0.0256301 -0.0400053 0.0298188 -0.0050184 0.0103033 0.0347221 0.0271304 0.0256828 -0.0056656 -0.0206502 -0.000792932 -0.00815122 -0.0444747 -0.0473403 0.0413576 -0.00140148 -0.00251999 0.000248265 -0.0178969 -0.0344748 -0.0101431 0.0147773 0.0411715 -0.00769333 0.00835254 0.0452596 0.0391435 -0.0352714 -0.00565201 0.0118696 0.0318932 0.0120386 -0.0407331 0.0183255 0.0370327 -0.0456967 0.00751624 0.0251361 -0.00112553 0.0281835 -0.0186999 -0.0346241 0.0186912 0.00378963 0.0140519 0.0427073 -0.0143734 -0.00303536 -0.0395127 -0.0328917 -0.00517819 -0.0189546 0.0354018 -0.0163112 -0.00427907 0.0179109 -0.0396981 -0.0103624 0.0201748 0.0396351 -0.00485752 -0.0183359 0.0471364 -0.0165825 -0.00606447 0.033119 -0.00650073 0.00965643 0.0252782 -0.0185201 0.0118799 -0.02958 0.0354965 -0.0272355 -0.0339496 0.0235915 -0.0483185 0.0309008 -0.0491169 -0.0117678 0.0187684 0.0218958 0.0235122 -0.0186506 0.0490055 -0.0250842 0.00448166 -0.0150977 0.0444727 -0.0312521 0.0200958 -0.0480273 -0.00595151 0.0183989 -0.0420219 -0.0320388
they 0.0177976 -0.00835867 -0.0306526 0.00137081 0.0385008 0.0170819 -0.0305458 0.0271353 -0.036544 0.0192638 -0.00442827 -0.0404373 -0.0151232 0.0490521 0.0251106 -0.0252778 0.0385103 0.0255172 -0.00205685 0.00519887 0.0298744 0.0473487 0.0407207 -0.0210517 -0.00498754 0.0110499 -0.00875645 0.0325239 -0.0320315 0.0488118 0.00950606 -0.00243203 -0.0341676 -0.00355749 -0.0261572 0.0314157 -0.0453729 0.0173596 -0.018942 0.0432183 -0.0217424 0.0290125 -0.0041662 0.00750754 0.0319817 -0.0112699 0.0459639 -0.0431636 0.046214 -0.0169623 -0.0147211 0.0467845 -0.0163352 -0.0475199 -0.0309273 0.0175268 0.0331219 -0.0239635 -0.0181362 -0.0310745 0.0478522 -0.0103616 -0.0414094 0.0231292 0.0363878 -0.0390151 -0.0433934 0.0099576 -0.00183583 0.00586684 -0.0113022 -0.0491772 -0.0390189 0.0249659 0.0206249 -0.0120422 -0.0158711 0.0413614 -0.00153196 0.0150644 0.027471 0.0451286 0.00192398 0.000171412 0.0378779 0.00873375 -0.0128205 0.0438462 -0.0325415 -0.00282093 -0.0346604 0.00221218 0.0475547 -0.0104621 0.0166866 0.00102317 0.0322297 -0.0320799 -0.0318594 -0.0149324
about -0.0230643 -0.0486804 0.00933317 0.0375416 0.0448793 0.011788 0.0486293 -0.0270717 0.0169391 0.0266002 0.0281938 -0.0325314 -0.0154172 0.00633987 -0.0459636 0.00327685 0.0102948 -0.033022 0.0357902 0.0103468 -0.0250325 0.0189393 -0.0420175 -0.0277147 0.0202728 -0.0491332 -0.0152238 -0.0430916 -0.0244143 0.0400409 0.038359 -0.00559654 -0.0118441 0.00521351 -0.0229676 0.00763798 0.0499075 -0.0329154 -0.0202185 0.0217775 0.0456458 -0.0259327 0.0222191 0.0278847 -0.0317475 0.00194756 0.0405089 -0.0148577 -0.0465261 -0.0449672 -0.0332941 -0.0256284 0.0114772 -0.00770326 -0.0314535 0.00754984 0.0453619 0.00968767 -0.0271623 0.0124425 0.0439993 -0.000809431 -0.00138181 -0.0425584 0.0195259 0.0418394 -0.0464591 0.0482492 0.0354187 -0.00301816 0.00208317 -0.0212771 0.0365455 -0.0320151 0.0289654 0.0288203 -0.030976 -0.0358924 0.00209696 0.018731 0.0267633 0.0309157 0.0157062 -0.031945 -0.0476306 0.00160966 -0.0141919 0.00859748 -0.0307521 -0.0200252 -0.023689 -0.00254206 0.0424516 -0.0415407 0.00336114 -0.0234162 0.0398442 -0.00840647 -0.0436259 -0.0487136
herself -0.0463125 -0.0463041 -0.0383596 0.026561 -0.0311171 0.0342882 0.0159095 0.0150963 -0.00819504 0.00429412 0.0441639 -0.0495062 -0.0056133 -0.0225299 0.0267259 0.0335092 -0.0322247 0.0210969 0.0230511 0.0240688 0.0146642 0.000183426 0.0109228 0.0216305 0.0233019 -0.00257398 -0.047336 -0.0437286 0.00323603 0.0235801 -0.00460161 -0.024544 -0.0377208 -0.0208719 -0.0355968 -0.0244837 0.00997368 -0.0170214 0.017614 0.0159913 -0.0344458 -0.000802267 0.00628368 -0.0442309 0.0147591 0.0242 0.0134203 0.040921 -0.00244945 -0.0152962 0.00728425 0.0361387 0.0356728 0.0281909 0.0291951 -0.00671021 -0.020471 -0.0302882 0.0386458 -0.0438429 0.0168116 -0.0301535 0.0460938 0.0381605 0.0203532 -0.00702639 0.0432516 -0.0275882 -0.0312099 -0.0103293 0.0215294 0.0371017 0.00235225 -0.0151601 0.0209561 -0.0301906 -0.0436498 0.046462 0.0314894 0.0495264 -0.0133702 -0.0298488 0.0166821 0.0285513 0.011623 0.00319601 -0.0471767 -0.036859 0.00643158 0.0267661 -0.0295385 0.0072212 -0.0100203 -0.0299227 0.00086695 0.0257351 -0.0246592 -0.0178098 -0.0376057 -0.00323552
me -0.00920065 -0.0306505 -0.0406463 0.0426053 0.00537609 0.0038891 -0.011061 -0.0234164 -0.0241624 -0.00483616 -0.041349 0.0135949 -0.0294872 0.0353682 -0.0203681 -0.0407958 0.0177862 0.0348054 0.00685378 -0.0023977 0.0284333 -0.0050691 0.0211668 0.0146602 0.00423092 -0.0177708 0.0431615 0.0331634 0.0340186 -0.0236636 0.00327655 0.0448712 -7.69496e-05 -0.00273959 0.0123776 -0.0129492 0.0150941 0.022407 -0.0492638 0.0488983 0.015757 -0.0245377 0.0328102 0.0409669 0.0118846 -0.0143316 -0.042363 0.0128761 -0.022164 -0.0283481 -0.0187052 0.0178647 0.00931849 0.00285233 -0.0219549 0.0445678 0.0259822 -0.0364745 -0.0260305 0.0457387 -0.00246572 -0.0490501 -0.0455162 0.0101773 -0.0423354 -0.03615 0.0340314 -0.0204352 -0.0256413 0.0125989 0.00187701 -0.0255598 -0.0199585 -0.0302326 0.0279167 -0.0263324 -0.00179876 0.0422565 -0.0290757 0.0152519 -0.0371171 -0.0163951 -0.0301742 -0.0118434 -0.0435762 0.0324827 0.00308429 -0.0453631 -0.0266113 -0.00105833 -0.0194403 -0.0309844 0.0080513 0.00302406 -0.0210143 0.0397384 -0.0146282 -0.0474681 0.0300496 -0.00419586
up -0.0266892 -0.000834774 0.0142949 0.0494321 -0.0196051 -0.0192278 -0.00430258 0.0486821 0.041171 0.0485272 -0.0257014 0.0452337 -0.0303776 0.000577915 -0.0446913 -0.0236748 0.039434 0.04449 -0.0363575 -0.040548 0.0382892 0.00390659 0.00501196 -0.0301737 0.00689977 -0.0435951 0.00211681 -0.0162496 -0.0324877 0.0140472 0.00602617 -0.0476124 0.0287981 -0.0162174 0.0293569 0.0331913 0.0189821 -0.0459688 -0.0209014 0.00927915 0.0337082 0.0116248 0.0305379 0.0476484 -0.0333561 0.0498047 0.044157 0.0025079 0.0237186 0.0332864 -0.0146469 -0.0150802 0.0175612 0.0313122 -0.0324441 -0.036521 -0.0217382 -0.0351815 -0.0382208 0.0354315 -0.0336778 0.0438402 -0.0301324 0.0476607 0.011827 0.0451376 -0.0261424 0.0367007 0.0204216 -0.0292593 -0.0283715 -0.0286977 -0.0484277 0.00456184 0.00809375 -0.00785742 -0.0415664 -0.0237623 -0.00977868 -0.0407071 0.0366586 -0.0212942 0.0440621 0.0229365 0.0443669 -0.0134224 0.0141489 -0.0183711 0.03801 -0.018528 -0.0443582 0.0440149 -0.0179926 0.0490795 0.0265314 0.0454578 0.0321283 -0.0362104 -0.036235 0.0444588
what 0.00651351 -0.0155016 0.0128355 -0.032542 -0.0156518 -0.00803764 -0.0131614 0.0370117 -0.0206293 0.0449893 0.0468194 -0.0434383 -0.000329386 -0.0424862 0.0392074 0.0340807 0.044232 -0.040276 0.0377611 0.0336625 0.04954 -0.0265981 -0.04093 0.0354954 -0.0395445 0.029785 0.0157697 0.00504131 0.023457 -0.00488211 0.023153 -0.0300752 0.015021 0.0191105 -0.0229947 -0.0245383 0.0484962 0.000954855 0.02923 0.0376812 0.0329085 0.0339159 -0.00446038 0.0482945 -0.046815 0.0450251 -0.0146829 -0.0121915 0.0031606 0.0109444 0.0197443 -0.0386683 -0.0259191 0.0157089 0.0255962 0.0181833 -0.0446109 0.00409851 0.0152015 0.00796447 -0.0301772 -0.0265871 -0.014808 0.0341028 0.0197117 0.00743198 0.0215507 -0.0158747 -0.00432 -0.0442837 -0.0125929 0.0301005 -0.0229122 0.0436548 -0.0308887 0.0286959 0.0374667 -0.0123479 0.0491631 0.0236616 0.0225217 -0.0315804 0.0383587 0.026096 0.00455021 0.008173 0.0289183 0.0203508 -0.0135148 0.0128098 0.0185761 -0.0490403 0.00463644 0.0466265 -0.0127573 -0.0381138 -0.0195602 -0.02352 0.0156981 -0.00534276
way -0.0109893 0.0154798 -0.0368382 -0.00991217 0.0404238 0.00884927 -0.0325308 0.0153803 0.0444549 0.0240311 0.00232337 -0.00658061 -0.0288867 -0.0497035 -0.0209492 0.019623 -0.0251639 -0.0256716 0.0112621 -0.0267652 0.040067 0.0259139 -0.0343736 0.0413518 0.000837542 -0.0258393 -0.044802 -0.0280887 0.0119338 0.0467686 0.0197365 -0.0435954 0.00417566 0.00439675 -0.0352512 -0.00375801 -0.0215835 0.0323737 -0.0360777 -0.00399022 0.0340865 -0.0357885 0.0235157 -0.0113649 0.00897459 0.00299194 -0.00987725 -0.00126543 -0.0303927 0.0402326 0.0202023 0.0201747 -0.0303603 -0.0110527 -0.00683115 0.0205187 -0.0318688 0.0477908 0.00585452 -0.0282007 -0.00320216 0.0359132 -0.0211349 -0.0263015 -0.0463374 -0.0482639 -0.00810212 -0.0425098 0.0480469 0.0244402 -0.0320909 -0.000338137 -0.0147511 -0.000535823 -0.00689242 0.00464954 -0.0225559 0.0244711 -0.0197793 -0.0392602 0.0204487 0.024229 0.01888 0.0110102 -0.0119979 -0.00716431 -0.0311963 -0.00138594 -0.00425851 -0.00576359 0.00994061 0.0157857 0.0241397 0.0423618 0.0393068 -0.047703 -0.047959 0.0325075 -0.0282972 0.0341972
when 0.0312828 -0.0469665 0.000127994 -0.034051 -0.0416197 -0.0229719 -0.0310438 0.00858688 0.0437714 0.0284384 0.0398053 -0.00172286 0.0268566 0.0381232 -0.0330497 0.0395839 -0.0134045 -0.0456326 0.0139062 0.0381076 -0.0467313 0.032327 -0.0203034 0.0461881 -0.0359664 -0.0386005 -0.0476433 0.00568087 0.0253663 0.0316937 -0.0318076 -0.0129071 -0.0344312 0.0396862 -0.0271887 -0.00331811 -0.0458246 -0.0375149 -0.0156879 -0.0171759 0.0283432 0.0244062 -0.0319217 0.01432 0.0243238 -0.0417178 0.00332668 0.0108937 -0.0363205 0.0259814 -0.00973064 0.0421906 -0.0316563 -0.0461484 -0.0217752 -0.0157467 -0.0024873 -0.0232224 -0.00233314 0.00435814 -0.0131421 -0.00480605 0.0155544 0.0129312 0.0414776 -0.0329091 -0.0387776 -0.0156304 0.0248127 0.00363315 0.0178892 -0.032224 0.0401709 -0.0234589 0.0249442 -0.0393851 0.0485512 -0.0110047 0.0206642 -0.0252741 0.00150982 0.0196398 -0.0470599 -0.00748359 -0.0162833 -0.029915 -0.0101111 -0.031696 -0.00475119 -0.0368774 -0.0351906 -0.040314 0.0127062 0.0165563 0.0126361 -0.0216131 0.0395097 -0.00465914 0.0290051 -0.0497551
like -0.0131844 0.0476005 0.0105181 -0.0104543 0.0183533 -0.0134955 -0.0205052 0.0380187 0.0399341 -0.0229895 0.0355126 -0.00931277 -0.0394494 0.04086 0.0110501 0.0165191 -0.0230144 -0.0260669 -0.019322 0.0362948 0.0467546 0.0219077 -0.030555 -0.0388646 -0.0467227 0.0275934 0.0211861 -0.0234712 -0.00578941 0.042001 -0.0172276 0.0326497 -0.00489707 -0.045277 0.0271716 -0.0447621 0.0252162 -0.0467757 0.00569272 0.0405149 0.0109659 0.0454136 0.0343766 -0.0302964 -0.041527 0.00168916 0.0249422 0.0438874 -0.009804 0.0143004 -0.0367339 0.0489623 0.013279 -0.0275648 -0.0475415 0.0138013 -0.0283703 0.04204 -0.0343703 -0.0400157 0.0227021 -0.00382581 -0.0192115 -0.0473898 0.0391332 -0.0146897 0.00134424 -0.0225413 -0.0128076 -0.0121762 0.0331671 0.0229803 0.0370289 -0.00848545 0.0374411 0.0221981 -0.0452357 0.0123501 0.0280792 0.0402332 0.0184921 -0.0478476 0.000316001 0.039895 -0.0122737 0.021481 -0.0284825 0.0272547 -0.018394 0.0421774 -0.0201881 0.0165493 -0.0499439 -0.000525258 0.0468127 0.00517469 -0.03428 -0.00326771 -0.0218445 0.0216396
one -0.016764 0.00984024 -0.0237732 0.000186883 0.0128822 -0.0366502 0.0405949 -0.0183691 0.0338518 -0.0207429 0.0246246 0.00835303 -0.0341236 -0.0323002 0.0429685 0.046734 0.0246425 0.0442366 -0.00595003 -0.0423824 -0.017183 0.0394065 0.039963 0.0430311 0.0203082 0.00870313 -0.0430093 0.0302079 0.00416021 0.0137318 -0.03087 -0.0434186 -0.0343852 0.0364765 0.0234436 0.030209 -0.0223732 0.0144883 -0.00360546 -0.0472197 -0.034816 -0.0434477 -0.0160217 -0.0350142 0.0305102 -0.0257361 -0.032636 -0.0437189 0.0349331 -0.014248 -0.0207284 -0.0346042 -0.0172406 0.0177998 -0.0122577 -0.0389667 0.045153 -0.0410612 -0.0284893 0.0390423 -0.0439993 -0.0164816 -0.0414738 0.0414068 0.0403946 -0.0078262 -0.0484162 0.00830995 0.0273482 -0.033705 0.0016327 -0.0179582 0.00393496 -0.00916139 -0.0138017 -0.0273559 -0.0410348 0.0441466 -0.015421 -0.0334182 -0.0266553 -0.00705762 0.012139 -0.0281664 0.0184222 0.0102443 0.0168437 -0.0234378 -0.002125 0.0149488 -0.0127773 0.0290971 -0.0309256 -0.04847 0.0214221 -0.00847043 0.0118407 -0.0294899 -0.0148254 0.0025215
do 0.0378163 0.0381617 -0.0268529 0.0129618 0.0160762 0.00258521 0.0303665 -0.0144367 -0.0481128 -0.00657899 -0.0392035 -0.0214586 0.0475477 0.0379546 0.0466374 0.028001 0.0169751 0.0435427 0.0309963 -0.0280971 -0.0412491 -0.0284729 0.00973718 0.042957 -0.0313959 0.0296372 0.0284693 0.0368344 0.0252577 -0.0337863 0.0147975 -0.013324 -0.0122858 -0.0204484 -0.0390355 -0.0400819 0.0126926 -0.0272055 0.0273748 0.0399854 0.00383585 -0.0271655 -0.026927 -0.0476669 0.048281 -0.0295119 0.0242012 -0.0325343 -0.00274182 0.0489663 0.0329427 0.0287357 -0.00685292 0.0303412 0.0190371 -0.0351143 -0.00660548 -0.0442435 0.0045752 -0.0434326 0.0168232 0.00221753 -0.00909711 -0.0252844 -0.00808483 0.0485896 -0.0328812 -0.00561297 0.00503763 0.00624331 -0.0259405 0.0109015 -0.049411 0.0231691 0.0428148 -0.0337061 -0.00109351 0.00649794 0.041349 0.0320066 0.0478349 0.0372186 -0.00115566 0.0162676 0.0399955 0.018127 0.0122843 -0.0271475 0.0284835 0.016767 -0.0404922 0.010079 -0.00839936 -0.00102232 0.0343874 -0.0486831 0.0377968 -0.0310266 -0.0128045 0.0477854
no -0.0270972 0.0374541 0.0314846 0.0378548 0.0242236 0.00565432 0.0368411 -0.00122584 -0.042419 -0.0490494 -0.0158755 -0.0476773 0.0156075 -0.00730168 -0.0133325 0.0492544 0.0374231 0.041913 0.0468118 -0.0264458 0.0382478 -0.0110932 -0.000892974 -0.0054435 -0.00536378 -0.0451059 0.0135956 0.0181093 -0.00625497 -0.00600376 -0.0432558 0.00285763 0.0118048 -0.0429561 -0.0227924 -0.0331749 -0.0277494 0.0247635 -0.00634741 0.0149983 -0.00913554 0.0369171 0.0376715 0.020599 -0.0454621 -0.0488035 0.0128799 -0.0456066 -0.0314561 -0.022435 0.0218889 -0.0487179 0.0271847 0.0121103 -0.0336116 -0.0214578 -0.0133495 0.00213947 0.0378693 0.0298482 -0.0327188 -0.0221783 0.0460623 0.0307567 -0.0387408 -0.0119527 0.0168445 -0.0378254 -0.0317482 -0.0374827 -0.0246684 -0.0214056 -0.0126024 -0.0257412 0.0203442 0.000436686 -0.0206757 -0.00813602 -0.0121637 0.0438503 0.0172476 0.0441224 -0.0481095 0.0457254 0.0362843 -0.0132122 -0.0283512 -0.0312658 0.0286591 0.0189403 -0.0194113 -0.0463968 0.0397857 0.0438327 0.00147151 -0.00117751 0.0142696 -0.0371675 0.00960984 -0.00285802
oh -0.00514502 -0.0283231 -0.038149 0.0453491 -0.0119247 0.00527061 -0.018606 0.0329628 0.0153331 0.013119 0.0116238 0.0315341 0.00260085 0.0143494 -0.0345516 -0.0114388 0.00883838 -0.0200454 -0.0264819 -0.0275197 0.0184499 0.00448103 0.0187766 -0.0196387 -0.0413572 -0.0243906 -0.0444491 0.0234828 -0.0163121 0.0400053 -0.00338008 0.0273096 0.00104787 -0.036349 0.0432164 -0.033878 -0.00555419 -0.0425022 0.0391618 0.00780874 -0.0181179 -0.00330295 -0.0320608 0.0193644 -0.0321976 0.00704601 -0.0163474 -0.0125463 -0.0277922 -0.0324892 0.0392385 0.0223231 -0.0192963 -0.00321134 0.0414763 0.0230321 0.0263083 -0.0490651 0.034673 0.0406493 -0.0194225 -0.0143352 -0.00389154 0.0177851 0.00898315 0.0354078 -0.00707608 0.0225107 0.0471076 -0.00625681 0.0409998 -0.00846465 -0.0372614 -0.0367854 -0.0283482 -0.0370624 -0.0337187 -0.0458591 -0.0423306 0.00934397 -0.0436007 0.0364863 0.027334 -0.00559896 0.0449274 -0.0357281 0.0401137 0.0496744 0.00852203 0.0132394 -0.0283346 0.0493421 -0.0301119 -0.0159083 0.0366886 0.0389222 -0.0288226 -0.0102588 -0.027241 0.0452583
went 0.0385895 -0.0185966 0.00848653 -0.00625913 0.00942053 -0.0178582 0.0366493 -0.0284124 -0.0448526 -0.0191374 -0.0130729 0.0436113 0.00144881 -0.0190703 -0.0473343 -0.0389787 -0.0312595 0.00885103 0.0367458 -0.0417286 0.0472992 -0.0419096 -0.00626792 -0.0108439 -0.00225126 0.0277928 0.00375419 -0.0457316 0.00342145 0.0366544 -0.0238888 -0.0263151 -0.0328443 0.00193982 -0.0347855 -0.0250505 0.0440499 0.0232442 0.0478159 0.0104364 -0.00343412 0.00333179 -0.00907055 -0.0447969 -0.0202244 0.0060918 0.0148419 -1.10269e-05 0.0199616 0.0398516 0.0219204 -0.0201836 -0.011107 0.00950883 0.0133166 -0.034868 -0.0424958 -0.0407022 0.0490341 0.0251817 0.0408164 0.037979 0.0394942 0.0213266 0.0310107 0.0210963 0.0133751 -0.00190537 -0.00499566 0.0448537 -0.0456666 -0.00555022 -0.0480671 0.0104931 0.0254129 0.0487205 0.0267694 0.047743 -0.0021422 0.0397562 0.0491471 -0.0440256 0.0270317 0.0402158 0.0373921 0.0165903 -0.0198696 0.0379502 -0.0105675 0.00902759 -0.00514326 0.0347139 0.0169089 0.0402617 -0.0474527 -0.0335227 0.0372263 -0.0412048 0.00822986 0.0495531
thought 0.0388663 0.0372871 -0.0162988 0.014227 0.0262443 0.049982 -0.0126603 -0.00438882 -0.0259192 0.0457303 -0.00924589 -0.0436474 0.00908687 0.0380585 0.00378335 -0.0032685 -0.0363283 -0.0325739 4.692e-05 -0.0325569 0.0329989 -0.00765414 -0.0134844 0.00438298 -0.0190559 0.0191866 0.0118414 0.0367038 -0.0391921 -0.0464731 0.028243 0.0157336 0.0228993 -0.000981521 0.0221617 0.0469328 0.0245248 0.0244272 0.0175711 -0.0286731 -0.027146 -0.0302673 0.0368901 -0.00772475 -0.0101733 -0.00637419 0.00134002 -0.0154594 -0.0373153 -0.00909368 6.0726e-05 0.0306196 -0.0314612 0.0185182 -0.0011907 0.0364216 -0.00155044 -0.0374025 -0.0480345 0.0100712 0.0209908 0.00385907 -0.0327429 0.048232 -0.0205884 0.0202781 -0.00168029 -0.00622966 0.00284594 0.0428739 -0.0489068 0.0243804 -0.0287813 0.01457 -0.0493766 -0.0166334 -0.012389 -0.0149498 -0.0204752 -0.041352 -0.0157007 0.0421595 -0.00966376 0.0405505 -0.025674 -0.0249089 0.0156633 -0.00177776 0.0474854 -0.0375249 -0.0181052 0.0194704 -0.000798512 0.0441185 -0.00406909 0.0215028 -0.0241279 0.0144746 -0.00489668 -0.00673806
again 0.0328724 -0.0135488 0.00258375 0.0479597 -0.0288689 -0.0384838 -0.0389596 -0.00316247 0.0306817 0.0286403 -0.0057097 -0.0276979 -0.0141952 -0.0377851 -0.0409986 0.0209896 0.0494344 -0.00680774 0.0234167 0.0274555 -0.0155241 0.0214872 -0.0166412 0.00826697 0.044202 -0.0109637 0.0435532 -0.00455872 0.0356841 -0.0362345 0.0488501 -0.0203964 0.0343305 0.02631 0.0156792 0.0338226 -0.0469362 -0.0264314 0.0302751 0.0334877 0.0381582 -0.0445418 -0.0146978 0.00526695 0.041535 0.0193522 0.032978 0.0202437 0.0298498 -0.0183489 -0.00802464 -0.0137785 -0.0121543 -0.0496597 -0.0115612 -0.000671089 -0.00612636 -0.00612184 -0.0363415 0.0224021 -0.035753 0.0208179 0.0498508 0.00404857 -0.00221113 0.0300556 0.00453727 -0.0188252 0.000339735 -0.0319927 0.044448 -0.0293689 -0.0495842 -0.00180957 -0.036884 -0.0313787 -0.025362 0.015112 0.00336949 0.0382263 -0.00357462 0.0310394 -0.0294457 -0.014898 -0.0255716 -0.0411498 0.0490835 0.0154505 -0.0120582 0.0238413 0.00150808 0.0448569 0.000957131 0.0198852 -0.0295383 0.0368371 -0.034542 0.0289777 -0.0124024 0.0250548
there 0.0099067 0.0289144 -0.0424073 -0.0260872 0.00315977 0.0485823 0.0489193 -0.0443304 0.0457985 0.0300858 -0.0466658 0.0181332 -0.0212385 -0.018427 -0.000917017 0.0177481 -0.0407233 0.00863737 0.0472399 0.0262828 0.000705671 -0.0467513 0.024909 -0.0395581 -0.0291028 0.0191821 -0.0334573 -0.0345616 0.0239812 -0.0449791 0.0138964 -0.0242257 -0.0127447 0.0268102 0.026066 0.00906069 0.0239009 0.0112542 0.0276543 0.00919746 -0.0423892 -0.0237271 0.0037751 -0.0319 0.0357893 0.00471256 -0.0140561 0.0173778 0.028624 -0.0459562 -0.0244969 -0.0235671 -0.00586401 0.0177455 0.00710881 -0.0153676 0.0344744 0.0147162 0.0335646 0.0431159 -0.000596654 -0.0493248 0.032706 -0.00172798 -0.0209224 0.0361888 0.0318015 -0.00638304 0.0343786 0.00966296 -0.0144126 -0.0300358 -0.0447606 -0.0338613 0.0276668 0.0304253 0.0465433 0.020492 0.0292037 -0.0405334 0.013189 -0.0106609 -0.0388795 0.0350966 -0.0425011 0.010977 0.0286503 -0.00568726 -0.00133026 0.0240623 0.0175461 -0.0161538 0.0464335 0.00658107 0.0114266 0.0106055 -0.049613 -0.00307905 0.0331299 0.026074
see -0.0095908 0.036612 0.011818 -0.0211842 -0.0251071 -0.0190121 0.0232181 -0.00850182 -0.0375925 0.0348368 -0.0115518 0.0272591 0.0136778 0.0381624 0.0130911 -0.0351114 0.0310855 0.00595603 0.0161446 0.045533 0.0417191 -0.00817144 0.0341528 0.0433346 -0.029513 0.0393512 0.0346504 -0.00514331 0.0314295 0.0175993 -0.01387 -0.0470629 -0.0412256 0.0123666 -0.0136536 -0.00447935 0.010223 -0.0378624 -0.000248216 -0.00740803 0.0374455 -0.0157726 0.00400538 0.0479812 -0.0373698 -0.028003 0.0251282 -0.0369779 0.0338399 -0.014543 0.0466833 -0.0311346 0.00828278 -0.0493106 -0.0415466 0.0421363 0.0182719 0.0296612 0.0316786 -0.00750736 0.033717 0.00460731 0.0385558 -0.00372775 0.00812829 0.0446452 0.0455251 -0.049994 -0.0196208 0.01142 0.00499792 -0.00726476 -0.0273835 -0.00740259 -0.0273233 -0.0277726 -0.0301537 0.00383798 0.00831681 -0.0395342 0.00959687 0.0264629 0.04099 -0.0106825 0.00969355 0.00389753 0.0468971 -0.029892 -0.00910715 -0.0276279 0.0238524 0.0149172 0.0441 0.0241093 -0.00907518 -0.0243312 -0.0336616 0.0195002 0.0331555 0.0408093
or 0.0196129 0.0021351 -0.0329166 -0.0118414 -0.0362109 0.017892 -0.0146205 0.00620161 -0.0492975 -0.04599 0.0360047 -0.00209089 -0.00849362 -0.0449112 0.0213622 -0.0202409 0.0214633 0.00906898 -0.0345372 -0.0418289 0.0420392 5.65425e-05 -0.042414 0.0351511 -0.0443594 0.0451138 -0.0165935 -0.0114687 -0.032958 -0.033107 -0.000812721 0.00675122 0.0102492 0.0355472 -0.0031827 0.00296041 -0.024813 -0.039825 -0.0150885 0.0105981 0.044108 -0.0381108 0.00564123 -0.0407859 -0.017761 0.0158225 0.0473462 -0.0414416 -0.0270686 -0.0168195 -0.030067 0.0324626 0.0467334 -0.0264728 0.0219297 -0.0176595 0.0192083 -0.00688492 -0.00526332 -0.0212549 0.0483382 0.00470455 0.0341228 0.02731 -0.008376 -0.00441628 -0.0492632 0.0253097 -0.0452184 -0.00293708 0.0416355 -0.036303 0.00862546 -0.0444515 -0.0304489 -0.0190713 0.032384 0.0304924 0.0376692 0.0252046 0.0309637 0.0102312 -0.0321577 0.0298661 0.0440478 0.046766 0.0350172 0.0452299 -0.0132651 0.01896 0.0121748 -0.00976943 0.0495224 0.030024 -0.0331824 -0.0169869 0.0335314 -0.0306485 -0.0490954 -0.0295909
could 0.00347525 0.0155956 -0.0320316 0.0384038 -0.0452706 -0.00396583 -0.0182747 0.0170814 -0.00169823 -0.0344184 0.00562938 0.000535369 -0.00496968 0.0443049 0.00355874 0.0158224 -0.022329 -0.013914 0.0215923 0.0476615 0.0364818 0.0096214 -0.0205616 -0.0340086 0.0308639 0.0260153 -0.0331217 0.0337246 -0.033015 -0.000745345 0.0179025 0.0354011 -0.0364554 0.0413273 -0.0187744 -0.0408239 0.0201829 0.0134839 0.00226936 -0.0246568 0.0494852 0.042606 -0.0227808 0.0105676 0.0212604 -0.0202903 0.0239159 -0.0195652 -0.031795 -0.0340443 -0.0443827 -0.0102422 -0.0212545 0.00772221 -0.0239788 0.0255712 -0.0172571 0.0274827 0.0104392 -0.0210586 0.0212006 -0.0305723 0.0398479 -0.0323886 -0.022668 -0.00810093 -0.0239668 0.0463793 -0.0424964 -0.0130922 0.00206691 -0.0490176 0.0428312 -0.0307632 0.0125261 -0.021935 0.0343263 -0.0315767 -0.0200099 -0.0360054 -0.0452794 -0.0291159 -0.0270379 -0.0336193 0.00363018 0.0166559 -0.0242517 0.0187295 -0.0325984 0.0169526 0.00169212 -0.00974226 -0.00202404 -0.0115524 0.0449664 0.0101579 -0.0484129 -0.0280737 0.00714942 -0.0334876
would -0.00859557 0.0375502 0.0349158 -0.0347374 -0.0347692 0.00918977 -0.00364605 0.0228949 0.0381181 0.0268361 0.0421797 -0.014756 0.0296878 0.00210832 0.0147121 0.0226322 0.0371956 0.0311081 -0.0359831 -0.0481436 -0.0294664 0.0211753 -0.0340229 -0.00463332 -0.0481703 0.0331588 -0.0178762 -0.0149311 0.00343931 0.0225713 -0.0133688 -0.0395727 -0.0381575 0.0417487 0.0280185 0.0331909 0.0246429 0.0396737 -0.0314632 -0.0106974 -0.0147837 0.0279899 0.0283133 0.0473204 0.0250505 -0.0321844 -0.0347065 0.0182483 0.0214514 0.0346761 -0.0146407 0.0315778 -0.0386493 -0.0392805 -0.00952469 -0.0185606 -0.0279572 -0.0410651 0.00267678 0.0480896 -0.00920323 -0.0117368 0.0435236 -0.0138246 -0.00212637 0.0486824 0.0365531 -0.00539995 -0.00798582 -0.0285996 -0.048838 -0.0078699 -0.0211103 -0.0492255 0.0221876 -0.0024853 0.0261925 0.0402222 0.0452189 0.0187121 -0.0396977 -0.0268079 0.00121941 -0.014193 -0.0143311 0.028833 0.0382058 0.042003 -0.0401102 -0.0282508 -0.0236497 -0.0232689 0.00770301 0.0218871 0.00968137 0.0483621 -0.0185624 -0.0191083 0.0488081 0.0421742
think -0.0204353 0.0470454 -0.00560858 0.0386808 0.00286924 -0.013446 -0.0495105 0.0306335 -0.0483626 -0.0478343 0.0180685 -0.0108132 -0.046031 -0.00728457 0.0482606 -0.028505 -0.000556804 -0.0335097 -0.0058497 0.043655 0.00878181 0.0263229 0.0432962 -0.0310501 0.0373915 -0.0282517 -4.82909e-05 -0.0450643 -0.00446576 0.0324266 -0.0347621 -0.00732668 -0.0192234 0.0354551 -0.0348697 -0.0202215 0.031569 0.00506217 -0.00528819 0.0316818 0.0378025 0.0181254 -0.0344195 0.00074954 -0.00786642 0.0335413 0.00163506 -0.0323621 -0.0485834 -0.0232882 0.00172701 0.00134157 -0.0131287 0.04897 -0.0298066 0.0492083 0.0285972 0.0160999 0.0344189 0.00716561 -0.0315255 0.00100149 -0.0153512 -0.0341249 -0.0249788 0.0141694 0.0130905 0.0251688 0.0269845 -0.0394855 -0.0403279 0.000880994 0.0301957 -0.0319998 0.0237566 0.0380527 0.0251864 0.0459964 0.0103465 -0.0302228 -0.0264178 0.0128977 -0.00245617 -0.039597 -0.0219577 0.0399738 -0.0424884 -0.0115235 0.0331741 0.00581075 0.000209153 -0.0200309 0.00622301 -0.00929135 -0.0483861 -0.027739 -0.0332544 -0.0320191 -0.0446214 0.022972
them 0.0443694 -0.0254877 0.0144283 0.00282451 -0.0452347 -0.00292752 0.0320817 0.0369867 0.0119873 0.0120641 -0.0161495 0.0356946 -0.0432272 -0.0107821 -0.017725 0.0328059 0.0265107 -0.0362723 0.0455204 0.0145782 6.4481e-05 0.00757509 0.0339191 -0.0376818 -0.0178502 0.00908463 0.047164 -0.0121337 -0.00507472 0.0298648 0.026144 0.0359866 -0.0288158 -0.0497448 -0.0145175 0.0332966 0.0297545 -0.0475202 0.0406373 0.0393519 0.0303408 0.0178041 -0.0110383 0.0126009 -0.0336709 0.0124165 -0.0328033 0.00833325 0.0450835 0.0464603 -0.0276454 -0.0199644 0.00465194 -0.0432716 0.0247185 -0.0450353 0.00931296 -0.0271391 0.0266334 0.0312463 0.0470414 -0.0116088 0.0258587 0.0296135 0.0394919 -0.00529367 -8.03545e-06 -0.0103491 -0.0422309 -0.00750443 0.0161654 -0.0115617 0.0458251 0.0176567 -0.0123991 0.0283496 0.0142737 -0.0278069 -0.0402495 0.0193847 -0.0312475 0.00849849 -0.00593326 0.0488858 0.040977 -0.0423902 -0.0455864 -0.00497188 -0.0113516 -0.0165488 0.0442156 0.0410844 0.045352 -0.031914 -0.0193589 -0.0220222 -0.0125969 -0.0360031 0.0178782 0.0203439
know -0.00217357 -0.0442221 0.0322166 -0.0260302 0.0393072 0.0321072 -0.00907604 0.0179171 0.0329327 -0.00259935 0.00322076 0.0302228 -0.0161851 -0.0293221 0.0292129 0.00911807 0.00766985 -0.0289185 0.0164948 0.0023536 -0.0107712 0.0460403 -0.0431448 -0.039345 -0.029009 -0.0143859 -0.0336076 0.0250734 0.0285592 0.00939576 0.0229066 0.0325049 0.0403539 -0.00114857 -0.00142212 -0.0176782 0.0413245 -0.0212373 -0.0363315 0.0177267 -0.0199695 -0.0467925 -0.0259636 0.013766 0.0314521 0.0263154 -0.0171818 0.0305038 0.0196897 -0.00242196 0.00533907 0.0387028 0.039042 0.0207903 -0.0406119 -0.0348141 -0.0361935 0.0261342 -0.0130497 0.00356589 0.0300711 -0.0432595 0.034846 -0.016951 0.0279044 0.0420864 -0.0455255 -0.0282155 -0.0400601 0.0422684 0.0139456 0.045579 0.0322314 -0.0470838 -0.0380127 0.0377461 0.0180586 -0.0154609 -0.0114623 -0.0124525 -0.0105545 0.028817 -0.0239921 -0.045182 0.0315234 -0.021889 -0.00468564 -0.00671258 -0.0480482 0.0226738 0.00732626 0.0420737 0.0489943 0.037792 -0.0247023 -0.0370733 0.0357524 -0.0294065 -0.0242793 0.0419075
rabbit -0.0359265 -0.0210056 0.0292 0.0134697 0.0282973 0.0197265 -0.0241952 -0.00192945 0.0433755 0.0457568 -0.0157576 0.0374261 -0.0148751 -0.0492184 0.0136226 -0.0385657 0.0177876 -0.0300714 -0.0496484 0.00723313 0.00388625 0.0377264 0.0294837 -0.0488309 -0.00606861 0.0261242 -0.034403 0.0148659 0.0116566 -0.0444279 0.0306139 0.00783252 -0.0464198 0.0190904 -0.00305723 -0.0461888 -0.0232774 0.0209948 -0.0373504 0.0198751 -0.0320737 0.00237527 -0.0453426 0.0267051 -0.034277 0.0382254 0.00205302 0.0112323 -0.00220412 0.00575799 -0.00155265 -0.0235668 0.00141479 0.0209299 0.0241822 0.0345982 -0.0395727 -0.00268354 0.0167567 -0.0138885 0.0114094 -0.0092722 0.0211378 0.0193176 -0.0442608 -0.03372 -0.00406588 0.0289408 0.0164608 0.0199716 -0.00318625 0.0283413 -0.0356401 0.0403288 -0.0456558 -0.00165328 0.0224781 0.0493948 -0.00546658 0.00846077 0.0252428 0.0397739 -0.015222 0.0430361 0.0298678 -0.0150508 -0.0309727 -0.0377196 -0.0389119 0.0327162 0.0435059 -0.0442759 -0.0362538 -0.0158846 -0.0161104 -0.0140373 -0.0141155 0.0421589 -0.0106826 -0.00557745
dear -0.0199172 -0.0418382 -0.0208273 0.0478282 -0.0464217 0.0101008 -0.0280114 -0.0196351 0.0410793 -0.0261889 0.039113 0.0497709 0.0160596 0.0410936 0.00756016 0.00633157 0.0277039 -0.000728883 0.00666391 0.0172356 -0.0108983 0.0321798 0.0193437 0.00406669 0.00667102 -0.0181749 -0.0497271 0.044747 0.0316633 -0.0185057 0.0174678 0.00945568 -0.0418131 -0.045016 0.00248252 0.0206585 0.00692745 -0.0154856 0.0400238 -0.0457839 0.0130331 -0.0283973 0.0269195 -0.047246 0.0453686 -0.0331681 -0.00681621 0.0477305 -0.0132373 0.00677481 -0.0072217 0.0433318 -0.0420539 0.033562 0.0198504 0.0461176 0.0329827 -0.00904293 -0.0347242 -0.0220039 0.0251829 -0.0423459 -0.0177976 -0.01462 0.00873718 0.0202831 0.00604115 -0.0284503 -0.0371366 0.0491574 0.0422425 0.0190939 0.0139447 -0.028245 -0.00873826 -0.0479728 0.0467099 0.0331115 -0.0459805 0.0239162 0.0403719 0.02059 0.026308 0.00805365 0.0410894 -0.00690384 0.0397061 -0.0107063 -0.043468 -0.0323422 -0.0207715 -0.0339808 0.0294257 0.0273084 -0.0303297 0.00892506 -0.0385228 0.0123188 0.0358922 0.00376837
were 0.0476641 0.0125448 0.025765 -0.0402307 0.00428592 -0.00235473 0.0139332 0.0153415 0.0443504 -0.0213639 -0.0207867 0.0129829 0.00529686 0.0458589 0.00164596 0.0120971 0.0058772 0.0377738 0.0363214 -0.0395915 -0.0432756 -0.00859876 0.0137305 -0.000674546 0.0130641 0.0181276 0.0283618 -0.00674144 -0.0273591 0.0168757 0.0200903 0.0270485 0.00154718 0.014031 0.0272228 0.036694 0.0359054 -0.0342717 0.00499896 0.00298307 0.00748838 -0.0157379 -0.0123945 0.00785289 0.0159892 0.005962 -0.0482876 0.00226058 0.0361237 -0.0307394 -0.00623193 0.0406705 -0.0388782 0.00654049 0.0280586 -0.00794504 0.0441118 -0.0378725 0.0293726 0.0294762 -0.0425835 -0.0255007 -0.0250949 0.0304917 -0.0300423 0.00174711 -0.0447998 -0.0369267 -0.0426778 -0.0383955 -0.0323729 -0.0213878 -0.00321522 0.0173198 -0.0208747 0.0490349 -0.038776 0.0430507 -0.0174175 0.0118837 0.0396303 0.0181845 -0.00186246 0.0212002 0.0163303 -0.047666 0.024046 0.0294185 0.0202699 0.00237054 -0.0495639 -0.0183775 0.0160043 -0.0390998 0.000694774 -0.0422302 -0.00660193 0.044265 0.020521 -0.00169107
time 0.0346353 0.0428221 -0.00940605 0.00281487 0.0201222 0.0427342 -0.0401461 0.00656979 0.04816 0.00495462 0.0183404 0.0441825 -0.0177002 0.0239615 -0.0304208 0.0326793 -0.0286681 -0.0274572 -0.0310318 -0.00405454 0.0127682 0.00836916 -0.00315084 -0.0189517 -0.0216386 -0.035841 -0.000459563 0.0199369 0.0208071 -0.0419721 0.0482987 -0.0489468 -0.0327886 0.0404216 -0.0126688 -0.0301072 -0.0387785 -0.022226 -0.0307024 0.00356654 -0.0235487 0.0344985 0.0384917 -0.0282155 -0.045604 -0.0387315 -0.0157962 -0.0390226 0.0215447 -0.0151426 -0.0214453 -0.0271432 -0.0449831 -0.0366948 -0.00181349 -0.0378392 -0.0283787 0.0277447 -0.0388027 -0.0348178 0.0353901 0.0380533 -0.0389428 0.0419265 -0.00807695 0.0132947 0.0404132 -0.0271158 0.0417749 -0.0210939 0.00783324 -0.00712449 -0.0228994 -0.0191625 0.0167209 0.0437767 -0.0456719 5.92582e-05 -0.00617256 -0.0463846 0.0268137 -0.000752401 0.0233345 0.0411458 -0.0381086 -0.0483413 -0.013508 0.0338234 0.0279197 0.0328402 -0.0447649 0.00455578 -0.00764283 0.022418 -0.0170782 -0.0358132 0.0142275 -0.0460607 -0.0227621 -0.00559937
get 0.0266533 0.0382524 -0.0488908 0.0395586 -0.0318843 0.0450589 -0.0417167 0.00214578 0.0294194 0.0460237 -0.0188542 -0.0108176 -0.00270659 0.0128471 0.00516618 -0.00394864 0.0483299 0.0218739 -0.0235379 -0.0496455 0.0314432 -0.038505 -0.037557 0.0485539 -0.0213004 0.0200036 0.0136393 -0.0040378 -0.0355711 0.0218845 -0.0311126 -0.0236405 0.0325786 -0.0126569 -0.0214353 0.0229968 0.0337112 0.0438424 -0.0217207 0.0409542 0.00781335 -0.0432237 0.030451 0.0472151 -0.00768184 -0.0231418 0.0320613 0.0134197 -0.0245037 -0.0429806 -0.00813733 0.0203292 -0.00284626 -0.00497682 0.0311569 -0.049398 -0.0439743 -0.019843 -0.00902169 0.0261167 0.0374685 -0.000989508 0.0157203 -0.0206364 0.0247427 -0.00798919 -0.0287887 -0.0440498 0.0388517 0.000126444 0.0435795 -0.0244982 -0.0157308 0.0191838 -0.0322473 0.0339881 0.0291849 -0.0212686 0.00996451 0.0492637 0.0053343 0.0433511 0.049958 0.0331203 -4.2595e-05 -0.0160229 -0.0337338 -0.00490018 0.0178232 8.41841e-05 0.0392307 0.0406879 -0.0430404 -0.0379338 0.0223252 0.0467769 -0.0216508 0.0204563 0.0344359 -0.0254922
here 0.0270442 0.0472313 -0.00174905 -0.0216344 -0.0497659 0.0193426 -0.00555205 -0.0441023 -0.0102104 0.00430988 -0.041006 -0.0170127 0.0284197 -0.0264189 -0.0386081 0.0327571 -0.0191827 0.00526954 -0.0289383 0.0349582 0.0400044 -0.0100436 -0.012147 0.0135618 0.0156092 -0.0171558 -0.0341349 -0.00442985 -0.0102324 0.0267102 -0.00609293 -0.0130563 0.0117099 0.0345914 0.0371584 -0.0463862 -0.0136695 -0.012236 0.038538 0.0365727 0.0380644 -0.026304 0.0480254 -0.014456 -0.0475892 -0.0473713 -0.000244975 -0.0144251 -0.0310475 0.00417969 -0.0365311 -0.00521927 0.038176 0.00243391 0.0222973 0.033407 0.0188274 0.040116 -0.0104415 -0.0484169 0.037765 0.0476113 -0.0476834 0.0488469 -0.00785253 0.0371217 -0.0100956 -0.0226118 -0.00124768 -0.0486302 0.0169479 0.00289537 -0.0127965 0.0381322 0.0477893 -0.0358691 -0.00758488 0.0232039 0.0155945 -0.0261282 -0.00930048 0.0075331 -0.0468023 -0.0191226 0.0265132 0.00309018 0.0470049 -0.033061 0.00877181 -0.0120536 0.0468133 0.0145517 -0.0374473 -0.00676801 0.0473974 -0.000628602 0.0424157 0.0149669 0.0349575 0.0380827
must -0.00489693 0.0154021 -0.0433586 0.0487575 -0.00606662 0.0446927 -0.0274087 0.00405623 0.0313899 -0.0122266 0.0350993 -0.03079 -0.0201642 -0.0230206 -0.0331599 -0.029501 -0.00720229 0.0243722 0.0255586 -0.0400312 -0.0335586 0.0246375 -0.0136041 0.0248976 0.00498056 0.0486614 0.0329948 0.0480475 -0.0465358 0.010754 -0.0234367 -0.033793 0.0431454 0.0209141 -0.0341624 -0.0391331 -0.0121586 0.012054 -0.0148908 0.0149213 -0.00573398 0.0361429 -0.0209848 0.0107275 0.0116866 0.00975062 0.0123482 0.0462384 0.0288753 0.0412996 -0.0402272 -0.000910677 -0.00657622 0.0496547 0.013552 0.0440992 -0.0191527 0.0362811 -0.00662436 -0.00495844 0.00662176 0.0479744 0.016293 -0.00839912 0.00448517 -0.0234502 -0.033556 0.0173692 -0.0236874 0.024437 0.0441524 0.00351268 -0.0456303 -0.0228153 -0.0193819 0.00794462 -0.0310001 -0.00683105 0.0255123 -0.0429743 -0.00314612 0.0326982 -0.0297679 0.00309765 -0.0120121 0.0404803 0.0432918 -0.0183671 0.0156947 0.00210166 -0.0251841 -0.00300761 0.00259746 0.00199293 0.0195721 0.0230947 -0.00704831 -0.00436555 0.0132139 0.0372319
my -0.0376944 0.0101954 0.00826348 -0.0455552 -0.0377432 0.000395823 -0.0316488 -0.0367426 -0.0279639 0.0320647 0.0136974 -0.00924535 -0.0224531 0.00146912 0.0464444 -0.0488837 -0.0424243 -0.0481674 -0.0216464 0.0066948 0.0205587 -0.0392155 0.0142711 -0.0498765 -0.0432333 -0.038313 -0.0252043 0.0228501 -0.0252324 0.019085 0.0498576 -0.0146875 -0.047602 0.0191474 0.0468441 -0.0325589 -0.0166039 0.0170292 -0.0214251 0.0238325 0.0339984 -0.0176703 -0.0143451 0.00444268 -0.0282629 -0.0104207 0.0131562 0.0300071 -0.0274147 -0.0319212 -0.0485819 -0.00439268 0.0458663 0.0247201 0.0410334 0.0329518 -0.0453534 0.00604894 -0.0482249 -0.00642692 -0.0209261 -0.0483926 0.00342575 -0.0101466 -0.0379349 -0.00925475 -0.0320567 0.0273961 -0.0412157 -0.0116273 -0.0334156 -0.00954344 -0.0370177 -0.0400591 -0.0336537 -0.00537006 -0.0173479 -0.0431406 -0.0122008 0.0192925 0.0103398 0.049159 -0.0325745 -0.00804488 0.0296955 0.034454 0.0225588 -0.0425469 -0.0428709 0.0273552 -0.0177354 -0.040262 0.00633835 0.022474 0.00201689 -0.0181892 0.00675013 -0.0198671 -0.00921447 -0.0234311
by -0.0110291 0.0129887 0.0309774 0.04643 -0.0100572 0.0137425 -0.0215027 -0.00986508 0.0481565 0.0224636 0.0270864 -0.0290174 -0.0239221 -0.00417197 -0.045412 0.039201 0.0207372 0.0238982 -0.00160571 -0.00118978 -0.00994563 -0.0047995 0.0191329 -0.0221848 -0.0362997 -0.0438848 0.0163389 0.0221638 0.0307257 0.0256412 -0.0319226 -0.0161404 0.0474498 0.0293359 0.00961952 0.032134 0.0252099 -0.0168348 0.0130526 -0.0136544 0.04971 0.0323514 -0.0298473 -0.0407633 -0.0194151 -0.0358235 -0.0409997 -0.0216535 0.0349652 0.0365039 0.0214409 -0.00723435 0.0402961 -0.0461226 -0.0319189 -0.00912075 -0.0338844 -0.0475675 0.00277954 -0.0325937 -0.0421703 -0.00478811 0.0335649 0.0440197 0.0251274 0.0449412 0.0207637 -0.0196058 -0.0318857 0.0444792 -0.0421027 0.0204643 -0.0246211 0.0260602 0.0291733 0.0181784 0.0301535 -0.0255435 -0.0157949 0.0275838 0.0441673 -0.0265021 -0.0329187 -0.0160434 -0.0409848 0.0158963 0.0211228 0.00559155 -0.0268113 -0.0149616 -0.0340892 0.0198645 0.0197271 -8.92952e-06 -0.0384284 0.0465198 -0.0142296 -0.0474313 -0.0395608 0.0311908
into -0.0482717 -0.0430125 -0.0118267 -0.0403551 0.0236356 0.0431758 -0.00953935 0.0342321 0.027338 0.0282674 0.00288067 0.0203745 -0.00961871 0.0222819 0.0480263 0.0288072 0.0102451 -0.041012 -0.0115848 -0.015563 0.00507717 -0.00988267 -0.02794 -0.00158161 0.0267987 -0.00292404 -0.0425307 0.0266176 -0.013693 0.0402048 0.0474679 -0.0257898 -0.0215239 0.0203889 0.0338794 0.0171466 0.0407282 0.00953848 -0.000290237 0.00672451 -0.0290882 -0.0180369 0.0287521 -0.028417 0.00747668 -0.0446222 -0.0263869 0.027391 -0.00600326 -0.0316165 -0.0432112 -0.032394 0.0412064 0.0234754 -0.0116961 -0.0151974 0.00451221 0.00374172 -0.0140777 -0.0296479 -0.00468557 0.0216817 -0.00773736 0.0185734 -0.030213 0.00196564 0.0466664 -0.00791949 0.00506858 -0.0309476 -0.0112413 0.0396296 -0.0145268 0.0205873 -0.0498226 -0.0100689 0.0415483 0.0121223 -0.0292906 -0.0208222 0.0440699 -0.0296245 -0.0242319 -0.0241241 -0.00845439 -0.00256727 -0.0353125 -0.0364162 0.0250529 0.0260685 0.00311597 -0.0444907 0.0484668 -0.0388932 -0.0388661 0.0182219 0.00871873 0.0262388 -0.000108458 0.0286517
found -0.0495648 0.0160654 0.00386029 -0.0291063 0.0103768 0.00354423 -0.0452322 -0.0134652 0.0403311 -0.0487641 -0.0365401 -0.0449071 0.00273523 0.00748064 -0.00406581 0.0398483 0.00064826 0.0451777 -0.00807415 -0.00706793 0.0175446 -0.00813765 -0.00267937 -0.0183366 -0.0482086 0.02785 0.0190713 -0.0253739 0.00909443 0.0182409 0.00955461 0.0180898 0.0448468 0.0438067 -0.0201238 0.00674485 -0.033433 0.0226063 -0.0384585 0.0298638 0.0330227 -0.0334306 0.0387562 0.0213445 0.03244 0.0134092 0.038832 0.0200852 -0.0388892 0.018793 -0.00189562 -0.0272932 0.00757443 -0.00259139 -0.0248609 0.0197139 -0.043634 -0.0440905 0.0477358 -0.0291673 0.0298172 -0.0266728 -0.0144567 0.047407 0.0258706 -0.0397641 0.0368234 -0.0425576 0.0338265 -0.0119565 -0.0489163 0.0150224 0.0098176 0.0268025 0.0208873 -0.00501574 0.0396687 -0.0462731 -0.0368932 0.0220617 -0.0490687 -0.00787318 0.0130747 0.0249118 0.0120514 -0.0162557 0.0301515 0.000880577 -0.00463688 -0.0276543 0.0477692 0.0444174 0.0374082 -0.00251456 0.037969 0.0189689 0.0240772 -0.0474335 -0.0140409 0.0334629
such 0.0451642 0.000404082 0.047655 0.020798 -0.0354845 -0.0105587 0.0443542 0.0420067 0.00312106 -0.0171826 -0.0379629 0.0384198 -0.0350508 0.0198346 -0.0345717 0.040491 -0.0386244 -0.0460287 0.0149831 0.035001 -0.0316439 0.0428478 0.0439978 0.0422946 0.0264259 -0.00397046 0.00515298 0.0144635 0.0224769 -0.0351306 0.0370491 0.00256374 0.0465644 -0.0160501 0.0137181 0.0474917 0.0474967 -0.0334092 -0.0424019 -0.0301196 0.00596535 -0.0370453 -0.00154955 -0.00489439 -0.0131299 -0.0459348 -0.00840905 0.0228812 0.0338613 -0.00220932 0.00367613 -0.0131308 0.0163854 -0.014877 -0.0133266 -0.00103173 -0.0394287 0.0189042 -0.0122905 -0.0188437 0.0436909 -0.0461202 -0.0376487 0.0432771 0.0235852 0.00894946 -0.0222135 -0.0408647 -0.0139461 0.000328541 -0.047819 0.0384101 -0.0231408 -0.0212365 0.0266133 0.0247296 0.0376645 0.00799293 -0.0189448 0.0367776 0.0465413 -0.00236332 -0.0118301 0.036138 -0.0305224 0.0383408 -0.0400767 -0.0212311 0.028817 -0.0103932 -0.0250412 -0.0120679 -0.0209068 -0.0047091 0.0410296 0.00630207 -0.0426507 0.00295383 0.0233006 0.0414485
began -0.0338794 -0.0307381 0.00884054 -0.0424027 0.0051177 0.0279231 -0.0155135 -0.0381033 0.0180662 -0.0176538 0.0148619 0.0475534 0.0141776 -0.003896 0.0204402 0.0269252 -0.00261753 0.0477473 0.0448183 0.0249164 0.0265118 -0.0461903 0.0227786 -0.0462397 -0.0429577 -0.0317617 0.0023603 -0.00627346 0.0477753 -0.0410633 -0.0334809 0.0190282 -0.00452761 -0.0023505 0.00583424 0.00093472 0.0149822 0.00541503 -0.0494686 0.0359539 0.0286035 0.00317019 0.0177494 0.00730329 -0.0487258 -0.027779 -0.00888385 0.0179393 0.047037 -0.0114473 0.0253803 -0.00144733 0.003631 0.0363479 0.0169653 0.0270288 -0.0406549 0.0287966 0.0203942 -0.0131913 0.0033325 0.0167219 0.034779 0.00844216 -0.0403527 -0.0327199 0.0082641 -0.0443498 -0.0311145 -0.000349604 -0.0314218 -0.0112725 0.0212202 -0.0117363 0.0199845 -0.0117746 0.0349708 0.0239021 0.0142934 0.0242761 -0.0103966 -0.0281661 -0.025048 0.0478082 -0.00658474 0.0289224 -0.0388506 0.0409739 0.023567 -0.0317884 0.0250101 0.0183764 -0.031466 -0.0251135 -0.00096773 -0.00419366 0.0300482 0.0360496 -0.0143116 0.00920624
soon -0.013986 0.0365671 0.0250531 0.0313398 -0.00377408 -0.027488 0.0305674 0.0205822 0.0296187 0.0272941 -0.0281247 -0.02448 -0.041846 0.01106 0.0400652 -0.0356892 0.0482798 -0.022788 0.0162479 0.0394159 0.0174167 -0.00890505 0.0405463 0.0493833 -0.0240121 -0.0376594 0.0496954 -0.0345803 -0.0324494 0.0185342 -0.0443348 -0.0155981 -0.0458795 0.00718617 0.0194406 -0.0319987 0.0266796 0.0279424 0.01326 0.0394394 -0.0234906 -0.0397474 0.0141192 -0.00563807 -0.0223609 -0.0202487 0.0175219 0.0321027 0.00931344 -0.0308181 -0.00700093 0.0472806 -0.0194499 -0.0441662 0.0024012 0.0033791 -0.040444 0.0300936 -0.029032 -0.0324414 0.048092 0.0110021 0.0305639 -0.0238306 -0.0368796 0.0494623 -0.0194044 -0.0172959 0.000883292 0.014014 0.0377984 -0.00172766 -0.0321244 0.0131584 0.0210336 -0.0477652 0.0184935 0.0326535 -0.00590365 0.0117589 0.000505626 -0.0263475 -0.0102651 -0.0386873 -0.00544375 0.0352948 0.00658255 0.0361591 0.0214091 -0.0102329 -0.0205982 -0.0461255 0.0325793 -0.00994284 0.0452615 -0.00728239 -0.042113 0.0210905 -0.0443145 -0.0124513
m -0.0497747 0.0266547 0.0198972 0.0400038 0.0136752 0.00399651 -0.00157265 -0.00589486 0.00877842 -0.0120922 -0.01357 -0.0309081 -0.0173686 5.25638e-06 0.0461888 -0.00492722 -0.0401169 -0.0167018 0.0176072 -0.0482864 0.021429 0.0302407 0.00314654 0.0285817 0.0412106 0.0197212 -0.00810938 -0.0162904 -0.0114608 -0.0375268 0.000328638 0.0230434 -0.0185429 -0.0274458 0.00646832 -0.0270851 0.0192034 0.00165238 -0.0135293 0.00558685 0.0245273 -0.0155963 -0.0409724 -0.0143306 -0.0280344 0.0172689 -0.0135728 -0.0105395 0.0382496 -0.0187008 0.0201971 -0.0059002 -0.0165033 -0.00955199 -0.0272262 -0.0216119 -0.0363881 -0.0349569 0.0111696 -0.0437153 0.00227416 0.00903609 -0.0483343 0.0316472 -0.0496822 -0.0436696 -0.0234108 0.0391985 0.0385404 -0.0405299 0.00998089 0.00330561 0.0188903 0.0217376 0.0320975 -0.0249477 0.0475478 0.0013498 0.041128 -0.0433568 0.0335588 -0.0485757 0.0431281 0.0020945 0.000464488 0.0155451 0.00425495 0.0323054 -0.0302301 -0.0105443 -0.0217273 0.00804662 -0.0184345 0.0201235 0.0201743 0.0212182 -0.00761203 0.0284902 0.0320702 -0.00776738
quite -0.0318566 -0.0305793 -0.0404088 -0.00237659 -0.0478803 0.0461363 0.0497995 -0.0338761 0.00489223 -0.0263518 0.0358961 -0.0430428 0.0383545 0.0311975 -0.0494512 0.0217754 0.000487041 -0.0158636 0.0197694 0.0360604 -0.00595585 0.0418607 0.0404227 0.0465925 -0.0168234 0.0295558 0.0419391 -0.046676 -0.0108616 -0.0181899 -0.0128883 -0.0366208 0.0279845 0.0103022 0.0451021 -0.0142884 0.0477553 -0.0113215 -0.0407256 -0.00173078 0.00587729 0.00423379 -0.0229895 0.021677 0.0331049 -0.02231 0.0341371 -0.0176235 -0.0112667 -0.00679336 -0.0129164 -0.0269517 0.030962 -0.0335679 0.0351007 0.0425367 0.00586133 0.0238301 -0.0150881 -0.00427327 -0.0323719 0.0206989 -0.0221901 0.000586808 0.0485517 -0.0222073 0.00789895 -0.0379485 0.0467373 0.0497711 0.0480861 -0.0119941 -0.0090808 -0.0156665 -0.0087266 -0.0293388 -0.0325912 -0.0447841 0.000399075 0.0218875 0.038307 -0.0176463 -0.0368335 -0.0224248 0.019699 -0.0373246 0.032659 -0.0304045 0.0173455 -0.0481567 -0.0238744 -0.0341546 0.00475656 -0.032228 -0.033163 0.044609 -0.015987 0.0205065 -0.000345431 0.0366894
then -0.0201842 0.000491202 0.042058 -0.0287577 -0.0315149 0.021057 -0.0304196 -0.00718363 -0.0282292 -0.0400915 0.0483547 0.0418261 -0.0230424 0.0481654 0.044874 -0.00778924 -0.0178883 0.0128319 -0.0323208 -0.0391209 -0.007732 0.0228371 -0.0246542 -0.0130125 -0.0120924 -0.0245203 0.0133096 0.0296829 -0.023048 -0.033891 0.0213718 -0.0429456 0.0253001 -0.0256566 0.0284042 -0.0257022 0.0102808 0.0154993 -0.0116965 -0.0155616 0.0418487 -0.028459 -0.0324819 -0.0170026 -0.0126286 -0.00729694 0.0238626 0.046175 0.0386491 0.04144 -0.0287754 0.0129999 -0.00912049 -0.0403834 0.0358678 0.013718 -0.0275284 -0.0124262 -0.00763849 0.00296838 -0.0406397 0.0440856 0.00912273 0.0349974 -0.0184257 0.0129451 -0.0426051 0.0452459 -0.0257349 0.0289171 -0.0446975 0.0229551 -0.0484721 0.017467 0.035176 0.0303345 -0.0231032 -0.0472553 0.0308111 0.0431678 0.00703714 -0.0308487 -0.0331962 -0.00959239 0.0084855 -0.0486755 0.0486506 -0.00304588 0.0066798 -0.0364527 0.0228177 0.00627027 0.000742219 -0.0338775 0.0334699 0.0290654 -0.0427045 0.0416071 0.012119 0.00115961
off -0.0123333 -0.036788 -0.0316886 -0.0243524 0.0186552 0.0408023 0.0083321 0.0308624 -0.0412406 -0.0352625 -0.00167098 0.00272536 -0.044356 -0.0479158 -0.0172698 -0.0405853 -0.045239 -0.0316134 -0.0088951 -0.00394537 -0.0472143 -0.0416392 0.0228838 0.0406932 -0.0428049 -0.0097618 -0.00194886 -0.0371528 0.0475599 0.043185 0.00974811 -0.0286618 2.74889e-05 -0.0102207 -0.0385112 -0.0192474 0.0239618 -0.0308047 0.00310389 0.0354276 0.0027568 0.0344758 0.00179169 -0.0450769 -0.0382847 0.00481597 0.0288534 0.00412552 -0.0118298 0.00814402 0.0276648 -0.0273582 0.0116793 0.0122253 -0.025157 0.0157551 -0.0370841 -0.0202757 -0.0299811 0.0489938 0.00472664 0.0110059 0.0445601 0.0452835 0.00257478 -0.0351725 0.0460926 -0.0344348 -0.0284381 -0.0127308 0.0488646 0.0320833 -0.0348959 -0.0324477 -0.0399008 0.00234718 0.0413838 0.0018736 -0.0112435 0.0475754 0.0254262 -0.0141811 0.0422052 -0.0402952 -0.0406942 -0.0198202 0.0404419 -0.0429383 -0.0104631 -0.0107446 0.0340764 0.00406897 -0.0230573 0.0356958 -0.0092141 0.00908764 0.0421767 0.0377971 -0.0181049 0.0437901
now -0.034562 0.0335609 0.0128834 0.00598775 0.00884639 -0.0479803 0.0289567 0.0458032 -0.00676624 -0.00161427 0.0306689 -0.0442743 -0.00652071 0.0300096 -0.0389404 -0.049385 0.0174063 0.0107614 0.0273785 -0.0356807 0.0313002 -0.0228035 -0.00464225 -0.0248548 -0.0354102 0.0496311 -0.026395 -0.0431244 -0.0482951 0.0489378 0.0448461 -0.0328424 -0.0381333 0.00230163 -0.00392563 0.046483 -0.0386703 -0.0306523 -0.00704259 -0.0342979 0.0229993 -0.0369793 -0.040834 0.0377788 -0.00888268 -0.0174277 0.0273164 0.020676 0.0154328 -0.00953475 -0.0392327 0.00179521 -0.0110358 -0.0442161 -0.0472781 0.0127385 -0.0355072 -0.0471605 0.0145952 0.0116803 0.0113205 -0.0421626 0.0221521 -0.0205335 0.0154299 0.0285776 -0.0126396 -0.0277741 0.00302708 0.0472743 -0.0297372 -0.0390727 -0.0190939 0.0447304 0.0135997 0.0127388 -0.048121 0.0454031 0.0204358 0.0214104 -0.0411808 -0.00627097 -0.0313572 -0.0404979 -0.0360044 0.0230438 0.0159779 0.00800519 -0.0330173 0.0462083 -0.0159246 0.0461537 0.0468912 -0.0412895 0.0108644 -0.0242924 0.013723 0.00758638 0.0318655 0.0417767
go -0.0133331 0.0239084 -0.0384211 -0.0245927 -0.00309019 0.0132005 -0.0225701 0.0291561 0.0439003 0.0254104 -0.0388629 0.0203868 -0.0433772 -0.0496644 0.00613046 -0.0226548 0.0298844 -0.0246835 -0.0240925 -0.00355019 -0.0289997 0.0309321 0.0316113 0.0337217 0.019399 0.0199012 -0.00528927 -0.00340929 0.030915 0.0490135 -0.0218034 -0.0148023 0.032162 -0.00944744 0.00148485 -0.00613313 0.045564 0.0190637 -0.0435166 0.0250818 -0.0453228 0.046025 0.0187041 -0.044716 -0.00919745 0.0270751 0.00583968 -0.0164777 -0.0123374 -0.0273492 -0.0306482 0.0447636 -0.0260898 -0.00613166 -0.038002 -0.0193444 0.0312915 -0.0154474 0.0341356 0.00478244 0.0482646 0.036586 -0.0438278 0.0273912 -0.0368264 -0.0400485 0.0245991 0.0267074 0.0162165 0.00318021 -0.000938952 0.0145264 0.0162551 0.0466498 -0.010963 -0.0368363 0.015574 0.0416065 0.0176725 0.0106515 -0.00526935 0.0195869 0.0178112 -0.0307054 -0.0448797 -0.0133094 0.0156826 -0.0185032 -0.00919459 -0.0159283 0.0168137 -0.000769533 0.0140988 0.0241103 -0.00697964 -0.00181972 0.0281205 0.00841955 -0.0167831 0.0160036
say 0.0395184 0.0322467 -0.0346021 0.048536 0.0202221 0.00940599 -0.00131601 -0.0292957 -0.00493645 0.0179441 0.00946705 0.0481131 0.0192526 -0.0387624 0.0207467 -0.00464687 -0.0323502 0.0211149 0.00444478 -0.0125696 0.0298694 -0.0449812 -0.0040566 0.0207126 -0.0286929 -0.0497902 0.0240874 -0.0396826 0.0223801 -0.0138535 0.0139681 -0.0289477 0.0412704 0.0291155 0.049911 -0.0369675 0.0030674 0.0465855 0.0014887 0.0374397 0.0233638 -0.0465471 -0.00533172 0.000245355 -0.0144879 0.00502794 -0.0069254 -0.0289987 0.00474759 0.0359388 -0.011808 -0.0214943 -0.0108493 0.0304676 0.0353042 0.0272853 -0.0348257 -0.0371196 0.0382858 -0.0237532 -0.00559467 -0.0287582 -0.0397446 0.0023963 -0.00275623 -0.0360736 0.0489154 -0.0107572 -0.00355247 0.0295651 -0.0432181 -0.0231927 -0.0281033 0.0493891 -0.0185275 0.0381358 -0.0105861 0.0419623 -0.0415132 0.0275083 -0.0247846 -0.00175464 -0.048669 -0.0241552 0.00946133 0.0144413 -0.0148319 0.0466213 0.0331532 -0.0403991 -0.0184751 -0.025406 0.0466266 0.00297732 0.0489803 0.0223501 0.0268957 -0.0295958 0.0297858 0.00288557
have -0.0395954 -0.00851816 0.0387745 -0.0200176 -0.028025 -0.0462844 -0.0423323 -0.00989234 -0.000169016 -0.00862938 0.027501 0.0301985 -0.0368758 -0.0337 -0.00107964 -0.00551882 -0.016077 0.0243926 -0.0178825 -0.0106177 -0.00142082 0.0279573 0.00370572 0.0462206 -0.047381 -0.0373315 0.0010908 -0.00106126 0.0240601 0.0294807 0.0330609 0.0351897 0.0396406 0.0134173 0.0275153 -0.041506 0.0467344 0.00514636 0.0464532 0.0486513 -0.00338293 -0.0130476 0.0376111 -0.0202634 0.0238173 0.0200327 -0.027352 -0.0423494 -0.0303586 -0.00414782 -0.0431013 0.0303903 0.0372317 -0.0372732 0.0392957 0.0384722 0.0176767 -0.0235934 0.0436986 -0.0260525 -0.00991088 0.0321668 0.0117806 -0.0144417 -0.0146966 -0.0457725 0.00739098 0.034949 -0.00413365 -0.0409278 -0.04605 0.0294535 -0.0442239 -0.0309366 0.0374398 -0.049618 -0.00195441 -0.0323971 0.0278788 -0.0127804 0.00761516 0.0326826 -0.0237158 -0.0152224 0.0441606 -0.0483441 0.0324518 -0.0174099 0.0356126 0.0245429 0.0454038 0.00169539 -0.0209705 0.0173283 -0.0497578 0.0172125 -0.030308 0.0143355 0.0168136 -0.0315019
which 0.010443 -0.0242846 0.0355957 0.032181 -0.0408458 -0.0235963 0.00478543 0.0110387 0.0487531 0.0484296 0.0406613 -0.0471421 0.0349322 0.0226636 0.0104319 -0.0141972 -0.0231072 -0.0171504 0.00938728 0.029225 0.0228147 0.047932 0.0332453 -0.00814803 -0.0471154 -0.0344886 -0.0321025 0.029318 0.034187 0.0299168 0.0384898 -0.0052456 0.00459368 0.0224237 -0.0172139 0.0153068 0.0370298 0.0144901 -0.00936699 -0.0133656 0.0305463 0.0401984 -0.00473912 0.0389948 0.0122047 0.0200498 0.0267878 0.00281963 -0.00090041 0.00765777 0.0108445 -0.0458019 -0.0237164 -0.0410038 -0.0353216 -0.0346396 0.021751 0.0232437 -0.0170575 -0.0417728 0.0495668 0.0261942 -0.0216092 -0.0173506 0.0224551 -0.0271991 0.0214267 -0.0446579 -0.0166953 0.0078393 -0.0145872 0.0207943 -0.0110403 -0.0104017 -0.021458 0.0482 -0.0334033 0.00106685 0.0403146 -0.00598506 -0.00358216 0.0145263 -0.0237807 0.0164595 -0.0352011 -0.0170544 -0.00330535 0.0491325 0.0432867 0.0279576 -0.0145189 -0.0287004 0.01008 0.0281253 -0.0290292 -0.0392912 -0.0361633 0.0177565 0.0183702 -0.010214
come -0.0325897 -0.00441691 0.0154561 0.0244138 0.032652 -0.00830394 -0.026313 0.0116213 -0.0161238 -0.0350896 -0.0259566 -0.00813209 -0.00909386 0.0183099 -0.0102341 -0.0262998 0.0137443 0.0236376 -0.0468206 -0.0149889 0.0239017 -0.0248868 0.0473409 0.0242893 -0.0136908 -0.0043056 0.0265673 0.00602883 0.0187993 0.0335971 0.00559236 0.0144854 -0.0284519 -0.0254435 0.0258702 0.0337859 0.0104016 -0.0249766 0.0432721 -0.026494 0.0175405 -0.0172449 0.015102 -0.0330569 0.0144478 0.0484052 0.0245363 -0.0329356 -0.0147372 0.0447781 0.0220294 -0.0402295 0.015505 -0.00763711 -0.0476149 -0.033682 -0.0237479 -0.02435 -0.0142422 0.0428869 -0.0299286 0.0316497 0.0138425 0.0165675 -0.0348064 -0.0125609 0.0264851 -0.0227315 0.0247854 0.012014 -0.0249505 0.0194581 0.018395 -0.000370633 0.0110449 -0.00995352 -0.00540732 0.0264703 -0.035996 -0.0106929 0.0195508 -0.00239239 -0.0296046 0.00717383 -0.0159576 0.0289414 0.0335273 -0.0489744 -0.0312771 0.0195343 -0.00222201 0.00467644 -0.0317792 0.0277257 0.00802092 0.0396973 -0.0319556 -0.0031082 0.0253437 -0.0140548
dinah -0.0414611 0.0451458 0.0481251 0.0161427 -0.00739203 -0.039565 0.0200033 0.0374218 0.0352781 -0.0418099 -0.0317955 -0.0134714 0.0157238 0.0272858 -0.0197821 -0.048638 0.00698834 -0.0180758 0.025309 0.02677 -0.0169775 0.0178753 -0.0329255 0.0276314 -0.0497893 0.0434841 0.0150454 -0.0499929 0.0367219 -0.0277235 -0.0318171 -0.0306082 0.0246614 -0.0204968 -0.0376399 0.00775603 -0.0144674 -0.0294757 0.0344584 -0.0450093 0.0200394 -0.0369681 0.0395814 -0.0182652 0.0435697 -0.00952647 0.0307045 0.0375977 0.036446 -0.00706171 -0.0249324 -0.0161219 0.0456728 0.0102716 -0.0189827 0.036903 -0.0399569 -0.0134174 0.0410948 0.0310069 -0.0100238 -0.0130393 0.0331803 0.0295124 -0.0201719 0.00487579 0.00220378 0.0486732 0.017061 -0.0102763 -0.0206408 -0.0165747 -0.0321082 0.0178147 -0.0389819 0.0175093 -0.0362916 0.0234236 0.0424604 0.0221009 0.039779 -0.0154809 0.0293177 -0.0153154 -0.0463246 -0.0249642 -0.000434469 0.0062744 -0.00997638 -0.00843068 0.0423925 -0.017518 0.0263184 -0.018769 0.0395327 0.0169584 -0.038332 -0.0239471 -0.0436758 0.0377459
your 0.0249278 0.0464218 0.0348168 0.0442295 0.0222357 -0.0487751 0.0179365 -0.0358658 0.0494511 -0.00885903 0.0489 -0.0223595 0.0450891 0.0497613 0.0352674 0.0028671 -0.0331141 0.0264373 0.00812584 -0.0283495 0.0127558 0.00465352 -0.0245227 0.0238359 -0.00697356 0.00131545 0.0139231 -0.00841881 0.0251263 0.0120083 -0.0459958 0.00350953 0.00170626 -0.0297662 -0.00246144 0.0434854 -0.0169542 -0.0280788 0.021222 0.0484916 -0.0354886 0.00539799 0.00843775 -0.0287312 0.000320017 -0.0191108 0.0298132 -0.025714 -0.0300107 -0.0433974 -0.0363916 -0.0341767 0.0312411 0.0461648 -0.030893 -0.0411549 0.0116705 0.0197506 -0.00512732 -0.0303086 0.0366115 -0.00203401 0.0239034 -0.0112157 0.0202154 -0.0345909 -0.0325298 0.0471025 -0.0329204 -0.0198701 -0.0350072 0.00821424 0.0236309 0.0276431 0.00873287 -0.0343846 0.00728796 0.0322514 0.00446186 0.0486822 -0.00456766 -0.0398269 -0.021732 0.0309838 0.040678 -0.0156286 0.0141249 0.0223816 0.0243704 -0.0178731 0.0391184 0.00612723 0.0162213 0.0479892 0.0214368 -0.0137499 -0.0438371 -0.00969317 -0.0236478 -0.0156061
thing 0.0287795 -0.0184963 0.0442827 -0.0448922 0.00340753 0.0430184 -0.0418482 -0.0259104 -0.0131905 -0.00450807 -0.0303117 0.0394472 0.03226 -0.0185629 -0.0493115 0.0324299 -0.0211533 -0.0321769 -0.0232035 0.0385592 -0.0298937 -0.0479363 -0.0179691 -0.0101249 0.0412181 0.0256156 0.0233708 0.0206171 -0.00516308 -0.0239946 -0.00854298 -0.0404203 -0.04816 0.0151178 -0.0161443 -0.0134992 -0.0236655 0.0119625 -0.00843476 0.0265436 0.0257719 0.0347209 0.00640174 -0.0377351 -0.00736894 0.0480261 -0.0235433 -0.0159473 0.0179782 -0.0160035 -0.00600674 0.0191736 -0.00543571 0.032751 8.52346e-05 -0.040116 -0.0222036 0.0251388 0.013581 0.0439953 0.0476069 0.0360835 -0.0483618 -0.0108264 0.0178597 0.0329573 0.0128452 -0.00140967 -0.0451078 0.0436054 0.0250442 0.00220867 -0.0462824 -0.0481334 -0.0328883 -0.0177326 -0.00774598 0.0298752 -0.00562199 -0.025076 -0.00498595 0.0107857 0.00209393 0.0423435 0.0255005 0.0170401 0.0484077 -0.0179127 -0.0260498 -0.0282121 0.0204606 0.0292928 -0.0464054 0.00155296 0.00513577 -0.0196941 -0.00316513 -0.033533 0.0260299 -0.0290892
dodo 0.00407473 0.044211 0.0158396 0.00639974 0.0484231 -0.00852487 -0.0227119 0.0218715 0.0034521 -0.0441963 0.0256242 -0.0459994 0.0437351 0.0199763 0.0378888 0.0132304 -0.0457087 0.0112662 0.0393485 -0.0188217 -0.0214108 -0.0106788 0.0241425 0.0306829 -0.00204993 -0.0202211 -0.0323734 0.0111978 0.0450843 0.0429604 -0.00921935 -0.0218384 -0.021057 0.0246335 -0.0456652 -0.0277999 0.0101355 0.0365747 0.0136028 -0.02797 0.0328599 -0.0434091 -0.028437 -0.0226789 0.0249848 0.0302063 -0.0234792 -0.0470002 -0.0460333 0.0390037 0.0210666 0.0462459 0.00338067 0.0343333 -0.00107567 -0.0175942 0.00518135 -0.015564 -0.00142501 -0.0468708 -0.0253307 -0.0209353 0.0134796 0.0304328 -0.0193253 0.0107846 -0.0382719 0.00214375 0.0334991 0.00442574 -0.0206228 -0.035271 -0.0102649 0.00701802 -0.0192731 0.0127332 -0.0138735 -0.0328355 -0.00890062 -0.0387658 -0.00313089 0.0202121 -0.0119575 0.0285042 -0.00360231 0.0242382 -0.0372128 0.0268807 0.00780512 -0.0256178 -0.0283628 0.0357536 -0.00999621 0.017028 0.0351394 0.0232273 -0.0137883 0.00155616 -0.00575414 -0.0100634
much 0.0357141 0.0480109 -0.0201384 0.0374483 0.0388048 0.00632359 -0.023003 -0.0316096 0.0433989 0.0338887 -0.00710928 0.0357303 0.0139622 -0.0392515 0.0433056 0.0376581 -0.00112786 0.0402436 0.0342621 0.00607122 8.06674e-05 0.0180662 0.0216548 0.0316696 -0.0266225 0.0195557 -0.0187981 -0.0338849 -0.0270798 0.0166582 -0.015264 -0.00983994 -0.0478571 -0.018341 -0.0250565 0.0144822 0.0115654 -0.0298848 -0.0210437 -0.0396623 0.00555918 -0.00478588 0.0170861 -0.0495633 -0.0084947 -0.0151912 0.0372338 -0.00529226 -0.0427271 0.0465854 -0.00370524 -0.0348044 0.0256329 -0.032646 0.0233924 -0.0377373 -0.0212812 -0.0213276 0.00283699 0.0247629 0.0397719 -0.0362498 -0.0298175 -0.0479991 0.000180103 -0.000890173 0.0413716 -0.0224037 0.0125798 -0.0361779 0.0270325 -0.00400233 -0.019809 -0.0220752 -0.00851152 -0.00473445 -0.0351436 0.0157269 0.0255683 0.0122267 0.0440939 -0.0264256 -0.027304 0.0152924 -0.0208887 0.0313404 0.0387118 0.0254941 -0.0345226 0.0400841 -0.0112108 0.049831 0.0267113 -0.0207898 0.013563 0.0191996 -0.0498697 0.0442678 0.0407777 -0.00405707
shall -0.0302246 -0.0399422 -0.0227306 0.00645174 -0.0115021 0.0220762 -0.0166473 -0.0105415 0.0434042 -0.0182838 -0.0358465 -0.00686605 0.0375007 -0.0454615 0.0237695 -0.00998902 -0.00956857 0.0350395 0.0184258 -0.0189134 0.0339965 0.0146044 0.0256292 -0.0404292 -0.0106656 -0.0120423 0.0269125 0.0202887 -0.0102912 -0.0105244 -0.000158407 0.0128485 0.0248121 0.0359906 -0.0318142 -0.0346484 0.0286574 -0.0223384 0.00456177 0.0360781 -0.0488839 -0.0381027 -0.0137303 -0.0098982 0.0157864 -0.00054257 -0.0441425 -0.0201353 -0.0495526 0.000811029 -0.00175672 0.00667084 -0.00353445 -0.0403123 0.0435127 0.0484742 0.00535306 -0.0155164 -0.0444328 0.0214472 -0.0145008 0.0279467 0.0173757 -0.0363043 -0.0219818 -0.0130092 0.0168137 0.0488377 0.0107103 0.0161776 -0.00341432 -0.0250802 0.0398762 -0.0037506 -0.0425565 -0.0481835 -0.0128554 -0.0121402 0.0475585 0.0121691 -0.00350456 -0.0218025 0.0224102 -0.0388656 -0.0159057 -0.0118699 0.021248 0.038895 -0.0337655 -0.0305423 0.0279845 -0.0380101 -0.0192397 -0.00427679 -0.0387005 -0.0313132 0.0278897 0.0332328 0.003431 -0.0196965
things -0.0487951 -0.0303205 0.00692773 -0.0409303 -0.0434054 -0.00742017 0.0388028 0.0117286 -0.0365413 -0.00404854 -0.0405101 -0.0420987 -0.0142588 0.00415307 0.0352926 -0.0152952 0.0239127 0.0412205 0.0159447 0.016795 -0.0344397 0.0118327 -0.0394005 0.00835587 0.048237 -0.03609 0.0277119 -0.0106746 0.000463344 0.00174636 -0.00268952 -0.0146553 0.0278186 0.0237492 0.00274193 -0.00562669 -0.0321699 0.020028 0.0146877 -0.0169714 0.00796491 0.0109484 0.0345938 0.0201309 0.0048777 0.0196357 0.0448281 -0.00654137 -0.0172491 -0.0446739 0.027172 -0.00281646 -0.0403353 -0.0358529 -0.0202857 8.16695e-05 -0.016273 -0.0373738 0.0312704 0.003036 0.0170582 -0.0360893 -0.00638364 -0.0287746 0.0284456 0.0330726 -0.0270191 -0.00884699 -0.0477634 0.0476369 -0.022308 -0.0284418 0.0397916 -0.0351019 -0.00156994 -0.0106893 0.00134575 0.0359622 0.0238235 -0.0412754 0.049102 0.0273944 -0.010763 0.0284011 -0.00144563 -0.048264 0.00757203 -0.0104637 -0.00956954 -0.00846672 0.00337164 0.0270169 0.0102658 0.0497464 -0.0378292 -0.0265792 0.0186636 -0.0169908 -0.049967 0.0490059
