1182 100
the 0.02585 -0.067523 0.0921283 -0.107042 -0.152377 0.177909 -0.113154 -0.157924 0.0418742 -0.434633 -0.138978 0.0430074 -0.0969709 -0.155329 -0.0234853 0.196738 -0.129371 0.0120503 0.0840573 -0.196331 -0.135568 0.0983282 0.0512673 0.194166 -0.167561 0.191379 0.0808529 0.0577979 -0.19449 -0.0311708 -0.223577 -0.0177321 -0.0164256 0.101362 0.154486 -0.142077 0.152352 -0.0699545 -0.114879 -0.0480953 -0.119584 -0.0164938 0.0283432 0.108978 -0.35844 0.024502 -0.0135993 0.0652209 0.10348 -0.0111306 0.181589 -0.208173 0.0791738 0.216197 0.0240555 0.0909668 -0.132376 0.249586 0.0317161 -0.00818196 0.055108 0.0565438 -0.0382569 0.0224234 -0.085867 0.0592614 -0.277969 0.0412356 0.0493068 -0.185036 -0.123384 -0.0492845 -0.168512 0.0878405 -0.00541799 -0.0657456 -0.0546659 -0.0506813 0.0623908 -0.0396045 -0.121276 0.104172 0.000724593 0.0518424 -0.00351792 0.0191751 -0.118292 0.0586288 0.0669903 -0.038108 0.0719737 -0.0501732 0.167925 -0.00865589 -0.129165 0.0605732 0.0517116 0.106806 0.00360868 -0.196017
and -0.0185095 0.0381817 -0.0238885 -0.0430645 0.0280189 -0.0372256 0.228162 -0.0261735 0.05981 0.0316656 -0.00691248 0.040943 -0.0645322 -0.0823974 -0.0137521 0.00988752 -0.0785869 -0.0115301 0.14535 0.0511802 0.0344913 -0.0641441 0.00877981 0.00952653 0.0226886 -0.162719 0.0534701 0.100997 -0.0668852 0.21117 0.0422532 0.0831228 0.0771514 0.0291852 -0.0305393 0.0130695 -0.124807 0.150886 -0.0342497 -0.0444317 -0.0892675 -0.0662661 0.191441 0.10059 -0.0592416 0.178109 0.0459527 -0.0309399 0.0657159 -0.129243 0.15208 0.0744881 0.106772 -0.0523839 0.131613 0.0886875 0.146181 -0.00560334 -0.112307 0.0288057 0.0800639 -0.0382986 0.0486966 0.124382 -0.0866072 -0.0297015 -0.00178584 -0.0832145 -0.073398 0.0164137 0.0215508 -0.0561074 -0.0976869 0.0127051 -0.0568248 -0.0436352 0.0502317 -0.052677 -0.00705757 0.0297371 -0.0985301 -0.0610213 -0.121163 0.0378075 0.17724 0.058708 -0.0151669 0.0611804 -0.118193 -0.198336 0.087573 0.112955 0.0233376 0.0712729 -0.0578826 0.018303 0.0295623 0.0335493 -0.0335834 0.0136583
to 0.0515477 0.00283099 0.0920841 -0.229822 -0.0361598 -0.0289975 0.10685 -0.0706524 -0.0984331 -0.285285 -0.133434 0.0925226 -0.248556 -0.0293267 0.0987014 -0.0464771 0.0367494 -0.0568144 0.134367 0.079948 0.0851706 -0.143758 0.184024 -0.00036531 0.0911366 0.0258398 0.242968 0.20236 -0.00247557 0.115211 -0.0352984 0.0201291 0.0506757 0.0939406 -0.0977157 -0.145067 0.115282 0.0322827 -0.155041 -0.192736 -0.00246146 0.0725896 0.134511 0.176683 -0.0488713 0.144007 0.0641354 -0.00874385 0.0643313 -0.0780732 0.0473128 0.0262642 -0.0328308 -0.00892693 -0.0208961 -0.0835383 -0.0329276 0.105768 -0.0776238 -0.0729238 -0.0547092 0.0930594 -0.0968135 -0.0319894 -0.0296599 -0.00315204 0.0427736 0.00939605 -0.0523029 -0.0798501 -0.0515752 0.0614237 -0.0252053 -0.0333864 -0.0868864 -0.0303219 0.109061 -0.110192 -0.0991858 -0.24761 -0.0880793 0.0494954 -0.132885 0.0640923 0.15001 -0.0442913 -0.105877 -0.0424751 -0.255205 -0.21676 0.00657284 0.0906897 -0.0188671 -0.0780384 0.0693779 0.0423238 0.0657744 0.0950847 0.0474445 -0.0145654
she 0.090326 0.0295074 0.221993 -0.244379 -0.0920941 0.0291852 -0.140625 -0.0286448 0.00692863 -0.139704 -0.0811332 -0.0658348 -0.0820947 0.148978 0.0535011 -0.0856141 0.101371 -0.0415297 0.199255 -0.0600487 0.031266 -0.0150399 0.184956 -0.063082 0.0821273 0.0444995 0.276565 -0.0130646 0.00624349 0.121088 -0.0082242 -0.0628446 -0.0122085 0.283007 -0.28387 0.0531707 0.0470834 0.0817761 -0.05746 -0.0568783 -0.0876162 0.0639435 -0.00574574 0.00527995 -0.348074 0.323544 0.0320372 -0.142606 0.0454964 -0.154649 0.188545 0.0491101 0.072473 0.123511 0.0366479 0.0132285 0.0180353 0.102317 -0.0478456 -0.00945339 -0.0726495 0.165614 -0.0212127 -0.00143053 -0.264445 0.00517753 -0.127271 -0.0788677 -0.00670962 -0.0468489 -0.0619735 0.0404481 -0.13223 0.0163331 0.0516622 -0.0941857 -0.0672707 -0.0678675 0.134125 -0.0780597 0.0772913 0.00251876 -0.0330745 0.187324 0.0379541 -0.00679392 -0.0918838 -0.0389125 -0.0129855 -0.0742189 0.0891365 -0.10684 0.0955211 -0.11978 -0.247959 0.0732628 0.0782143 0.131821 0.178967 -0.108683
a 0.121908 -0.0208287 0.0444895 -0.0867956 -0.0693271 -0.0829053 -0.0713627 -0.159778 -0.0340586 -0.186232 -0.0314417 0.0467029 0.0709314 -0.012982 0.142522 0.119123 -0.0800938 -0.0928016 0.0930378 -0.116516 -0.0390703 0.097273 0.203409 0.0949539 0.0262382 -0.000648024 0.130001 0.00607953 0.0036334 0.0140447 -0.213565 0.0223594 0.0507164 -0.00288724 -0.068954 -0.111047 0.120439 0.0858023 0.040385 -0.0903871 -0.170827 -0.11643 -0.0304294 -0.011413 -0.260576 0.124304 -0.00382733 0.130915 0.144944 -0.11861 0.208091 -0.0223038 -0.0574015 -0.0563598 0.0357494 0.132315 0.0596152 0.214678 -0.0293339 0.0602306 0.177166 -0.0909543 0.00258399 0.0947053 -0.111618 0.066149 -0.214205 -0.112604 0.0656694 -0.0958883 -0.1209 -0.107988 -0.0946204 -0.0528094 -0.0993841 -0.0465744 -0.107286 0.0470004 0.0765067 -0.0107497 -0.0100829 0.09521 0.0120174 -0.0147056 0.00443443 -0.0303908 0.047034 -0.0609104 0.0665332 -0.0733197 -0.0806975 0.118082 0.161273 0.0174278 -0.116812 -0.00128923 0.081984 -0.105749 -0.0167989 -0.14744
i 0.116591 -0.0353554 0.194619 -0.126809 -0.0623192 -0.0688134 -0.0599855 -0.18568 -0.110799 0.0100051 -0.159978 -0.140584 -0.210462 -0.11805 -0.0656253 -0.0542985 0.193479 -0.0590012 0.111097 -0.0770875 0.133386 -0.0487922 0.123033 0.122977 -0.14045 -0.137467 0.371035 0.161858 -0.151473 0.0447031 -0.0398538 0.0394126 -0.0748556 0.324736 -0.232449 -0.200257 -0.0333099 -0.07288 -0.186117 -0.0778158 -0.284312 -0.110473 0.232566 0.0887253 0.0591311 -0.0545746 0.0214411 0.0514017 0.28431 -0.0543392 0.0125614 -0.12925 0.151133 0.0446127 -0.102349 -0.174728 0.0252513 -0.0531742 -0.0618763 -0.00060565 0.12717 0.0732886 -0.0274204 -0.079494 -0.0961617 4.70688e-05 0.0667741 -0.0609488 -0.105537 -0.0923637 -0.284487 0.062706 0.073596 -0.125095 -0.113094 -0.0032462 -0.0208195 -0.17882 -0.0445018 -0.132491 -0.0675627 -0.0389164 -0.160751 -0.0397393 0.165995 0.0224015 0.102213 -0.0747885 -0.249043 -0.0858753 0.160625 0.165029 0.156175 0.0910785 -0.0845759 0.238446 0.113499 0.212514 -0.0922563 -0.0502338
it 0.136056 0.0813615 0.131126 -0.0573384 -0.148223 -0.0507477 0.0704779 -0.0677919 -0.0898756 -0.0691613 -0.0364164 -0.12916 -0.167985 0.0466472 -0.0070603 0.0756159 0.0884452 -0.0975834 0.0472004 -0.12502 -0.149732 -0.0949656 0.070311 -0.0296924 -0.0822225 0.0182816 0.225101 -0.0211543 -0.00665166 0.100875 -0.0961789 0.0365972 -0.0271557 0.216003 -0.153786 -0.0918082 0.106888 0.030334 -0.0743298 -0.132955 -0.1222 0.114666 0.00374556 0.00406795 -0.120731 0.128497 0.0368224 0.0139911 0.0682522 -0.0763163 0.113005 -0.0854134 0.100359 -0.0283325 -0.0325999 -0.0268029 0.00689518 0.0600349 -0.000256017 0.0534742 -0.00614664 0.21522 0.00355686 -0.0752983 -0.200384 -0.10365 -0.100471 -0.0520492 0.0133482 -0.102495 -0.0833484 -0.0198667 -0.0381168 -0.0423606 -0.0383871 -0.005525 -0.0567951 -0.110235 0.0788428 0.00626408 -0.0766499 0.0572003 -0.0262797 0.192403 -0.00824607 0.0156072 -0.000891732 0.0141926 -0.12499 -0.0740209 0.122774 0.0700183 0.1504 -0.0887234 -0.114229 0.163702 -0.00532833 0.146649 0.110376 -0.0114837
of 0.0360112 0.0767897 -0.0267731 -0.0778482 -0.093127 -0.113485 0.00635587 -0.159264 0.0701379 0.0169583 -0.158111 0.119008 0.0372022 0.0537269 0.111188 0.109515 -0.139042 -0.0548489 0.00621748 0.0860927 -0.0158699 -0.0170572 -0.0836473 0.0380273 -0.122066 -0.0164067 0.0115535 0.06662 -0.192417 0.17139 0.0189843 0.196687 -0.0326187 -0.0576423 0.071795 -0.160505 0.103474 -0.0116815 0.0064084 -0.0592682 0.0085012 -0.132254 0.157493 -0.0124128 0.0411285 -0.0551051 -0.104788 0.0540051 0.0168361 0.0356631 -0.0313634 0.121725 0.00479579 -0.100953 0.0769655 -0.0401922 0.0581783 -0.0163049 -0.106851 -0.00700956 -0.115138 -0.0924642 -0.0702329 0.128929 0.000555385 -0.037138 -0.0897483 -0.00151849 0.0731102 -0.147972 -0.150825 -0.0916457 0.0300446 0.143711 -0.0588695 -0.0372287 -0.055283 0.0815698 -0.0844407 -0.156343 -0.0269 -0.0882898 0.0389362 0.117871 0.145499 0.109137 -0.0981608 0.00523809 -0.170751 0.0696948 0.0813485 -0.00491648 -0.0789484 -0.0603564 -0.0457871 -0.125922 0.0407142 0.105632 -0.0867646 -0.0428189
was 0.115831 0.132014 0.00941937 -0.0258496 -0.0940146 -0.0670359 0.184818 0.0542348 0.137832 0.0220756 0.0845232 0.0184083 -0.066972 0.00600628 -0.0162705 0.118938 -0.157937 -0.0898999 -0.000166777 0.0664693 -0.0548194 -0.111037 0.137096 0.068201 -0.0149147 -0.157367 -0.0421212 0.182507 -0.0917427 0.0215961 -0.0161149 0.0311565 -0.010739 -0.0254018 -0.0837589 -0.0315023 -0.0673048 0.0445833 -0.113686 -0.0934958 -0.0284768 0.00636249 0.0236417 0.117956 -0.126203 0.149811 -0.138117 -0.00845411 0.138692 -0.145082 -0.0183963 0.100271 0.100128 0.0199224 0.154879 0.122264 0.0579022 0.0266439 -0.103867 -0.0818537 -0.0600843 -0.0972664 -0.0110346 -0.0111175 -0.00432636 -0.121716 0.0651106 -0.0698561 -0.0763561 0.011519 -0.0922119 0.0157986 -0.0484176 -0.0250039 0.0358308 0.0434812 0.0111683 0.0218911 0.104367 -0.0106745 0.036204 -0.0731336 -0.0342973 0.0224995 0.0958423 -0.022004 -0.0712857 0.0963067 0.0250037 0.00151311 0.106594 -0.0255739 -0.0430433 -0.106741 -0.0911004 -0.0282046 0.0151069 -0.0118949 -0.116909 -0.0888791
in 0.0503209 0.0870541 0.0111452 0.055104 0.0188144 -0.110781 0.0560462 -0.0425389 0.0827177 0.0560725 0.0157999 0.0648456 -0.0919538 -0.0392977 0.155401 0.0864822 0.020931 0.0011994 0.0782591 0.114398 0.0417438 -0.163646 -0.0443646 0.0258579 0.0260477 -0.117129 0.0549625 0.0575899 0.00209483 0.148012 0.072154 0.156362 0.0625169 0.0967711 0.0687005 -0.01968 0.0502675 0.110313 -0.0800005 0.0240819 0.0534715 -0.0846875 0.091053 -0.0478025 -0.0301519 0.0334153 -0.0926157 0.0235483 0.0998093 0.0664575 0.028033 0.157297 0.0812211 -0.0779627 0.173654 0.0285125 -0.04123 0.0959688 0.0228754 0.0914159 -0.0891306 -0.0944998 -0.0904851 0.177402 0.0565618 -0.0211876 0.0317649 -0.0174949 0.142747 -0.122191 -0.0322574 -0.128674 0.0179027 0.116032 -0.063917 -0.0617643 0.0212387 0.0469461 0.0501518 -0.171768 -0.0481883 -0.135099 -0.0755949 -0.01516 0.159079 0.0814385 -0.038426 0.0864624 -0.00796293 0.00410149 -0.0243761 0.0670924 -0.0230424 -0.0808037 0.00943809 -0.0852286 0.0485346 -0.0245623 -0.00165818 0.0055284
alice 0.037068 -0.00116742 0.189715 -0.0462598 -0.122957 -0.00600626 -0.0634329 -0.127878 0.0563812 -0.08864 -0.0453813 -0.0732711 -0.134945 -0.0978949 0.0793608 -0.0879574 0.0425456 0.0097606 0.186669 0.0251625 -0.0879602 -0.0742631 0.0864385 0.0462932 0.0141976 0.0341462 0.0574377 -0.0389874 -0.0284736 0.143022 -0.0753132 -0.0836761 0.0441 0.142397 0.000886047 -0.0624958 0.0511385 0.00287703 0.0152426 -0.0327531 -0.0658124 0.0648421 -0.0072961 0.0160656 -0.204553 0.0532874 -0.0553818 -0.0334815 0.143006 -0.0602683 0.0770255 0.0206153 0.10017 0.0346678 -0.0633111 0.0115498 -0.0379322 -0.0149417 -0.0373074 0.0826171 -0.0857439 -0.0143092 -0.0949047 0.0244031 -0.0655183 0.0637388 -0.140049 -0.00393725 0.0578658 -0.103314 0.0199778 -0.014985 -0.027861 0.100713 -0.0620492 0.0155991 -0.095407 -0.0860362 0.0273212 -0.0746028 -0.0339596 0.0593355 -0.0981614 0.0570561 -0.0312348 0.0548315 -0.0116727 -0.0823343 -0.0749473 -0.0795126 0.118068 -0.0255675 0.110996 -0.127243 -0.151043 0.0979081 0.0821305 0.102988 0.00788069 -0.0719936
you 0.0687257 -0.0918638 0.158308 -0.0480422 -0.109607 -0.0503779 0.0203665 -0.114469 -0.0985563 -0.162841 -0.076466 -0.0150314 -0.0774262 -0.1691 0.0152634 0.0623137 0.103375 -0.088522 0.110227 0.00824784 -0.128945 0.0535042 0.124256 0.158787 0.0133894 -0.0191369 0.153399 0.0429786 -0.0277235 0.103963 -0.0898291 0.0911687 0.0385184 0.156246 -0.13508 -0.0870563 0.114113 -0.0245956 -0.0163987 -0.117033 -0.157598 -0.106729 0.0806761 0.0771281 -0.0978117 0.0217591 0.0389372 0.089223 0.148497 0.00810522 0.0869303 -0.0301688 0.0397805 -0.050626 0.0230871 -0.0160787 0.0556701 0.0665133 -8.89439e-05 0.0551863 0.127927 -0.0355709 -0.0224813 0.0315508 -0.0349137 -0.0870082 0.0148621 -0.00651613 0.0234396 -0.101018 -0.0671471 0.0211622 0.0546144 -0.0864569 -0.0467213 0.0455809 0.050253 -0.150769 0.0569214 -0.0431813 -0.0219506 -0.0470567 -0.141511 -0.0215485 0.149713 -0.0225797 -0.0603073 0.0473507 -0.0662533 -0.053319 0.143075 0.0718494 0.0435077 -0.0164588 -0.124418 0.07348 0.0238041 0.141959 0.0673561 -0.0237
that 0.106619 0.117852 0.0613196 -0.0133878 0.000605693 -0.131884 -0.0423028 -0.0075691 -0.0353797 -0.105056 -0.0697394 0.00309941 0.0506404 0.00269789 -0.0258597 0.0125911 -0.0253115 -0.0870903 -0.00689297 0.0889551 -0.149027 -0.101108 0.0286265 0.0259566 0.0604018 -0.0877624 -0.0428181 -0.0480353 -0.00976744 -0.00656304 -0.00757618 0.0499783 0.00608878 0.108417 -0.0955038 0.0255389 0.02596 0.159218 -0.0162474 -0.154525 -0.160025 -0.0920042 -0.0264414 0.0420602 -0.0360909 0.0941518 -0.085697 0.00829291 0.0858274 -0.106697 0.0667341 0.0798634 0.114232 0.0235158 0.0561381 0.0300556 0.130053 0.12636 0.0170031 0.0697375 -0.0508223 0.0414897 -0.0964116 -0.0326131 -0.0949465 -0.0351515 -0.0643977 -0.112736 -0.0202623 -0.00131361 0.0324983 -0.0238944 -0.0659519 0.037865 0.0306281 -0.00925659 -0.0521076 0.017362 0.0341311 -0.0235676 0.0126635 0.0280754 -0.0108407 0.0528762 0.117932 -0.013456 -0.107095 -0.0169963 -0.0288018 0.0188149 0.0125786 0.0295968 0.106183 -0.0598579 -0.0518079 0.0548045 0.0298264 0.00439371 -0.0872018 -0.076289
her -0.0279026 0.0115028 0.0969213 -0.0776723 -0.00915468 -0.0623796 0.149317 -0.0196147 0.0320811 -0.00789262 -0.0437167 0.0014521 -0.00606617 -0.103299 0.0658592 0.1655 0.0320426 -0.0299515 0.0294586 0.0373702 -0.0708778 -0.004058 0.0489832 0.0845532 -0.0511595 -0.0403369 -0.0272092 -0.0129271 0.0614964 0.0925942 -0.18738 0.0344413 0.0123651 0.00229982 -0.0218893 -0.0159356 0.100835 -0.0179715 -0.0609543 -0.0514576 -0.0840454 0.0234982 -0.00936776 0.00730196 -0.173305 0.0917679 -0.115145 0.099995 0.117185 -0.134523 0.079064 0.0395079 0.0769572 -0.112245 0.0781163 0.182774 0.00988916 0.0816937 0.014441 0.0579041 -0.118443 -0.0629874 -0.0215111 0.0752496 -0.0717075 -0.076109 -0.130612 -0.0517105 0.102266 -0.00704152 -0.0271672 0.00178864 -0.0283453 -0.0212186 -0.0314857 -0.0969074 -0.139436 -0.116501 0.00463042 -0.0493514 0.00620471 -0.0225381 0.0212222 0.0931652 0.0269842 0.0459467 -0.0162115 0.123614 0.047503 -0.0487951 -0.0193533 0.0105444 0.0401516 -0.0629441 -0.0671985 -0.0802222 0.050389 -0.0511737 -0.0870788 -0.104055
as 0.107965 0.0263381 0.0695738 -0.0466697 -0.0296004 -0.165071 0.00163554 -0.0680688 -0.0774875 0.0304287 0.0349033 0.0115806 -0.0279365 0.0548256 -0.0149204 0.115724 -0.133104 -0.0141961 -0.0297004 0.0904953 -0.0462643 -0.153082 0.0511785 0.00979959 0.00639668 -0.0118974 -0.0245992 0.047325 0.069782 -0.0205655 -0.113686 -0.0296876 0.134703 0.0793195 -0.0591745 0.0661173 -0.0393868 0.0603757 -0.151592 0.00218695 0.0245274 -0.054421 -0.0227441 0.0145752 -0.00620734 0.111937 -0.0951013 0.116552 0.0819051 -0.0609574 0.0610015 0.101971 0.0391391 -0.0831318 0.046146 0.00435552 0.0335852 0.0169886 -0.0753535 -0.0305342 0.107031 0.128349 -0.086256 0.0188229 -0.0711204 -0.0103692 0.111184 -0.0437745 -0.031166 -0.0393949 -0.0185264 -0.0692439 -0.12217 0.0465727 0.0595361 0.00165062 -0.131587 0.0278831 0.0519404 -0.0724836 0.0675822 0.0133896 -0.183559 0.189076 0.0754645 0.0917621 0.0325933 0.101787 0.00824954 -0.0896318 -0.00710695 -0.0659866 0.0219056 -0.134591 -0.162692 0.05087 0.0760548 0.140396 0.0351437 0.0418305
said 0.0281959 0.0692866 0.0249652 -0.0415907 0.00586633 -0.0291638 0.0492821 -0.0962017 0.0625047 -0.0486204 -0.043099 0.15126 -0.0384747 -0.138944 0.0816846 -0.0075587 -0.109732 -0.0424476 0.10909 0.0501654 -0.0648795 -0.0575765 -0.0332323 0.121767 0.0351382 -0.0146815 -0.0174367 0.115395 0.00208829 -0.0767452 -0.063447 0.00998139 0.0719869 -0.0226984 0.0183274 -0.0884118 -0.00579352 -0.000971872 -0.130627 -0.00919551 0.0347173 -0.0271954 0.05985 -0.00847685 0.0225693 0.0104504 -0.124889 0.0455799 -0.0206718 0.00886109 -0.0282231 0.133605 0.0245716 -0.147027 0.0198267 0.0207823 0.0921314 0.0445753 -0.063278 0.047679 -0.0660149 -0.106626 -0.00684542 -0.010556 -0.0192186 -0.109701 0.00701926 -0.0317787 0.121112 0.0468494 0.0206388 -0.00237876 -0.0161898 0.0817067 -0.12603 -0.042288 -0.0400057 -0.0393491 0.121155 -0.0172674 0.0132087 -0.00665568 -0.0348073 0.0240233 0.0510551 0.155056 0.0121025 0.0730325 -0.0719654 0.0333497 -0.00673993 0.141493 -0.050416 -0.0353587 0.0136274 -0.100341 -0.0109394 0.0935012 0.0129379 0.0123829
had 0.0115529 0.0500894 -0.0327877 -0.12937 0.000870182 -0.0738333 0.109697 -0.0829502 0.0429759 0.0480001 -0.0240569 0.0179364 -0.0730351 -0.0837569 0.031223 -0.0454836 -0.0921784 -0.120119 -0.00499234 0.109839 -0.0244313 -0.146913 -0.0119625 -0.0018927 0.0979619 -0.0759317 -0.026421 0.113253 0.0462535 -0.0742721 -0.00156106 -0.051682 0.026336 0.000828235 -0.0434446 0.0413003 -0.0491742 0.0049354 -0.0490913 -0.108493 -0.0274958 0.0170746 0.0113031 0.0621909 0.00533973 0.0169496 -0.0106884 -0.0375109 0.160491 -0.116736 0.110019 -0.0341293 0.0166906 -0.0306021 0.0739018 0.1236 0.110037 0.0450931 -0.0660597 0.0947802 0.0152494 0.0216959 -0.0900895 0.00270161 -0.0302835 -0.0956389 0.0525902 -0.154232 0.0116761 -0.0175488 0.0386393 -0.0464462 -0.0141433 0.0516213 -0.0317462 -0.0930516 -0.0550577 -0.0834214 0.119126 -0.113336 0.0217638 -0.0470252 -0.11813 0.105662 0.0382489 0.103773 -0.0415844 0.127378 -0.0614793 -0.0548312 -0.00440528 0.0347667 -0.0439035 -0.0269132 -0.00990978 -0.0294395 0.0750145 0.0601748 0.0475013 0.0106993
for 0.0310927 0.101484 0.0960672 -0.00700048 -0.018203 -0.0990749 0.0984062 0.00841457 0.0573385 0.0201565 0.00265457 0.0245646 -0.049262 -0.0762265 0.020242 0.0790275 -0.0287167 -0.0961208 0.0382803 0.043552 -0.0761928 -0.0715268 -0.0246844 -0.00252183 0.012946 -0.114386 0.062772 0.0656853 -0.0576775 0.0448226 -0.0362909 0.103346 0.0925303 0.0300644 0.0312036 0.00275683 -0.00651744 0.0883573 -0.116606 -0.126672 -0.0720338 -0.0673098 0.0466097 0.0482043 0.00404705 0.0951513 -0.00385249 0.110684 0.0349817 -0.0197812 0.0463976 0.0224335 0.03069 0.0100341 0.0545065 0.0333362 0.0722135 0.0275426 -0.0213871 0.017501 0.0488645 -0.0526101 -0.0717951 0.0790475 -0.103716 -0.0908449 -0.0277085 -0.0238886 0.0662813 -0.00667486 -0.00823382 0.0116217 -0.0759018 -0.044573 -0.10366 0.00176888 0.0128432 -0.0313939 0.0968351 -0.0788126 -0.0135705 -0.0508322 -0.084194 0.0513575 0.112444 0.0737966 -0.106872 0.0322983 -0.0797188 0.0441547 0.0808747 -0.0303887 0.0956684 0.00743129 -0.00578052 -0.0030629 0.0357143 0.0185802 -0.00244537 -0.0672617
but 0.0998921 0.0262892 0.0865869 -0.145149 -0.0167286 -0.0685276 -0.0191392 -0.103685 0.0300372 -0.0400948 -0.0890552 -0.0284329 -0.0527419 -0.0384833 -0.0101759 0.0706033 -0.00560146 -0.0984558 -0.00718845 0.0790418 0.0197355 -0.0205284 -0.0169038 0.0827713 0.0181048 -0.0334262 -0.00223057 0.0555544 0.00561165 0.0764011 -0.0630512 0.116277 0.0242021 -0.0124607 -0.0253059 -0.003514 0.0188727 0.0885331 -0.128907 -0.0868755 -0.0815595 -0.00680075 0.140595 0.143747 0.0217117 0.0165535 -0.043476 0.0703095 0.0675317 -0.0865082 0.0547639 0.0751007 0.0151792 -0.0333444 0.0183599 0.00733172 0.0981173 -0.0020631 -0.0145105 0.0612338 0.0619484 -0.0711755 -0.0721176 0.0220934 -0.0808011 -0.0257982 0.0407783 -0.106793 0.0408359 0.00769264 -0.0826907 -0.0763358 -0.0333974 0.0166217 -0.0725721 -0.0518677 0.0302267 0.011775 0.0036787 0.00689064 -0.00967733 -0.0293423 -0.0702224 0.0107007 0.0128515 -0.00765743 -0.0329675 -0.0369431 -0.144679 -0.00770734 0.11948 0.0515031 -0.0151932 -0.0304184 0.0375931 -0.0243651 0.108268 0.143035 -0.086846 -0.0788285
be 0.0747934 -0.0248446 0.180881 -0.0533858 -0.102047 0.0216856 0.0726245 -0.0399288 -0.0518548 0.0500093 -0.055568 -0.0545477 -0.118762 -0.0391796 0.0160684 0.00714166 0.0380632 -0.0544798 -0.0108924 0.0369466 -0.148049 -0.0906958 -0.0681806 -0.00908602 -0.0649369 -0.129373 0.0594257 0.00576271 0.000493472 0.0452326 0.0352347 0.0286088 0.0369267 0.0955166 0.0131783 -0.00946415 0.0831127 0.060521 0.0509384 -0.0762783 -0.0711082 -0.130419 0.0967559 -0.0176752 0.0175714 -0.023413 0.00388327 0.0962646 0.0528343 -0.0552236 0.0122913 -0.0471016 0.0378732 0.0244915 -0.0751462 -0.00575036 0.130438 0.0723409 -0.0607578 -0.00559158 0.00475691 0.00568808 -0.0574541 -0.0108868 -0.108587 -0.115254 -0.0325383 -0.152074 0.139175 -0.1014 -0.134156 -0.0473334 0.0451561 -0.0373589 0.0122073 -0.0155791 -0.0916368 -0.0294134 0.0527121 -0.0167432 -0.156136 -0.134451 -0.0697054 0.0770741 0.0670767 -0.0188534 -0.0427504 0.0693015 -0.0524432 -0.0593491 0.0924979 0.100173 -0.0255357 -0.0660458 -0.0695947 -0.0704278 0.0908079 0.0746183 -0.0888623 -0.0342821
on 0.0590942 0.0370594 -0.0271653 -0.0620394 -0.0492158 -0.108576 0.0382887 -0.0991882 -0.0169997 0.0771237 -0.104136 0.115992 -0.00215621 -0.089149 0.0836162 0.0526421 -0.0907055 -0.0280246 0.0289973 -0.024128 -0.0659353 0.00524543 -0.0652409 -0.00710432 0.0153755 -0.101728 0.0359948 0.000500529 -0.0651451 0.0927915 -0.0507458 0.0701941 0.0377475 0.0414647 -0.0762308 -0.0240409 0.0244372 0.105387 -0.118849 -0.0485683 -0.0253385 -0.089987 0.0192942 0.0498667 -0.0803437 0.080977 -0.0434351 0.110536 0.00188889 -0.000818138 0.0247126 0.0104415 0.0179187 -0.111091 0.0259385 0.10039 0.0402036 -0.0161182 -0.035192 0.0930755 -0.0977074 -0.0801821 -0.0588295 0.0191253 -0.0975723 -0.034257 0.0541483 -0.0229183 0.0478553 -0.0818651 0.0533054 -0.0275127 -0.0102876 0.0201653 -0.0272131 -0.115382 -0.11358 -0.0806149 -0.0111007 -0.0658006 0.013617 -0.0374165 -0.069874 0.116399 0.0339683 0.0178701 -0.102904 0.111861 0.0409934 -0.0554385 0.033844 0.128363 0.0211111 0.000892923 -0.0433508 -0.032791 0.0962184 -0.0166263 0.0182837 -0.0586113
all 0.0871314 0.0110739 -0.0160801 -0.0186263 -0.0170814 0.00113405 -0.0520486 -0.099557 -0.0133835 -0.0979544 -0.0469813 -0.0205894 -0.0611243 0.026566 0.0765401 0.0918808 -0.0497339 -0.0936994 0.121992 0.0287995 -0.0294064 -0.0474997 -0.0122723 0.0500597 0.0233935 0.0133387 0.00150086 0.0524569 0.00935113 0.0168791 -0.0783847 0.0458788 0.0970333 0.141435 -0.0136222 -0.0807514 0.00601345 0.102308 0.0067069 -0.0423034 -0.107309 -0.0730247 0.118592 0.0404934 0.0343615 0.032533 -0.0033168 0.0219817 -0.0140016 -0.0393073 -0.0134225 0.0309015 0.0781087 -0.0384468 0.0450117 0.0219286 0.0311371 -0.0206961 -0.047684 0.0651363 -0.0287364 -0.0293197 -0.0841267 0.0361885 -0.121902 -0.0561247 -0.0417983 -0.0597908 0.00313995 -0.129772 -0.14323 -0.0487427 -0.0882181 0.0532964 0.00661906 -0.0500291 0.0273188 -0.0968202 0.0890628 -0.0171047 -0.0989898 -0.08662 -0.0475303 0.0902839 0.00601405 0.0299089 -0.100948 0.0810474 -0.117925 0.00829043 0.0329046 0.0188676 -0.014668 -0.0581787 0.0179548 -0.0321442 0.0869556 0.0107513 -0.0485047 -0.0994762
with 0.103693 0.130497 -0.0303685 -0.02246 -0.0564584 -0.0598017 0.0558035 -0.0501459 0.133739 -0.0177342 -0.0326006 0.0921215 -0.0401191 -0.0556603 0.0598678 0.127274 -0.0941679 -0.111961 0.0146001 -0.00252863 -0.0674327 -0.113079 -0.078762 0.0361172 -0.0876562 -0.0872242 0.0595587 0.0532921 -0.0717661 0.0173922 0.0124125 0.113477 0.0919026 -0.0249651 -0.0512603 -0.0996161 0.0909506 -0.0158787 -0.0575902 -0.0210897 -0.0542101 -0.036934 0.0857426 0.0296158 0.0182321 0.0454924 -0.132995 0.0285931 0.0202504 0.0067108 -0.0558311 -0.0262616 0.100398 -0.128078 0.0851609 0.0219608 0.0845179 0.0135976 -0.0161898 0.124277 -0.0777518 -0.0918778 -0.00730757 0.0846358 -0.00561827 -0.0534448 0.064137 -0.0253538 0.077224 -0.0113707 -0.0980392 -0.0662145 0.00567554 0.109861 -0.04006 -0.00496426 -0.0726451 -0.100212 0.0870598 -0.0767977 -0.0246959 -0.0795768 -0.114276 0.0802789 0.0658527 0.0929004 0.00227521 0.0405942 -0.00895826 -0.011607 0.0350339 0.0401696 -0.0509908 -0.0426006 -0.00177808 -0.0429955 -0.00225162 0.0884873 -0.0285174 -0.0553545
little 0.0317204 0.105036 -0.0384161 -0.0105435 -0.00176384 0.00607029 0.023154 -0.0969979 0.0953758 -0.0936372 0.0359324 0.0186809 0.130499 -0.0122633 0.0243589 0.112323 0.0141465 -0.00929614 0.0736174 0.061838 -0.0025782 -0.0368564 -0.0426381 0.0944921 -0.0648605 0.0258981 0.00233417 0.0739135 -0.0604042 0.132318 0.0395791 0.11163 0.104971 0.000392729 0.0852885 -0.0513953 0.0514871 0.102937 0.075468 -0.028942 -0.00263381 -0.107796 0.0194964 -0.0296809 0.00703398 0.0313539 -0.0892296 0.13027 -0.0149018 0.0360441 0.125798 0.0471713 -0.0124192 -0.0465896 0.0427894 0.118706 0.0510369 0.102687 0.0140626 0.107405 -0.0380396 -0.0401323 -0.0324875 0.148606 0.0442828 -0.0834287 -0.102527 -0.0304337 0.0415759 -0.0694201 0.0108784 -0.0912277 0.0310352 0.0682229 -0.123304 -0.0443294 -0.0309617 -0.0678661 0.0618805 -0.167845 -0.0813949 -0.127918 0.0376787 0.00492889 0.0621395 0.060484 -0.130162 -0.00353879 0.0284905 -0.0151555 0.0370147 -0.0175073 0.0480477 -0.120768 -0.0714559 -0.0909381 -0.0332173 0.0402375 -0.113963 -0.0987048
mouse -0.000111786 0.0624183 0.00754842 0.0239579 -0.151945 -0.00693487 -0.0219499 -0.0199683 0.0933466 0.001766 -0.0737885 0.122603 0.059134 -0.113347 0.0879155 0.0746697 -0.021592 -0.034112 0.0590882 0.0240244 -0.0141027 0.0175406 -0.112306 -0.00568498 -0.127067 -0.0821675 0.0234652 -0.012988 -0.0596455 0.073047 -0.0568007 0.0879146 0.0399945 0.0258648 0.0551352 -0.123103 0.0120648 -0.0368717 0.00428034 -0.0710713 0.0248492 -0.031853 0.118432 0.0143479 -0.0132746 -0.0438175 -0.111544 -0.0262227 -3.98631e-05 0.00067578 -0.0113037 0.0486256 0.0273537 -0.013289 0.012644 -0.00740894 0.0223328 -0.0106509 -0.0670776 0.0329225 -0.0906838 -0.143636 -0.00371563 0.143304 -0.0407261 -0.0178355 -0.0386711 -0.0213363 0.0939099 -0.0359588 -0.0080659 -0.135207 -0.0185467 0.0723024 -0.0973957 0.00535995 0.0366269 0.00025059 0.0651144 -0.110979 -0.0837747 -0.120807 -0.0709186 0.0395205 0.0356006 0.117869 -0.0162405 0.0140249 -0.149316 0.0287108 0.118836 0.0873467 -0.0551836 -0.0187365 -0.0127833 -0.0273276 0.0188113 -0.0217907 -0.0881884 -0.0750502
down 0.047768 0.0552486 0.00381314 -0.0206056 -0.0683992 -0.0257836 0.131302 0.0171436 0.00711326 0.0205984 0.0112706 -0.0291898 0.030054 -0.0788195 0.0068412 0.017028 -0.0964696 -0.0116009 0.000583599 -0.00489148 -0.0311993 -0.0538807 -0.00995867 -0.0293222 0.0645482 0.0117105 0.11012 0.0483351 -0.0953069 0.0364461 -0.031747 0.0243448 0.0866898 0.0530318 -0.0524963 -0.0145676 -0.0176734 0.0915675 -0.0911009 -0.0914317 -0.0342168 0.00951205 0.0237389 0.117959 -0.0547405 0.0303582 -0.0500839 0.0231003 0.0316717 -0.141453 0.0082882 0.00126827 0.12214 -0.102645 0.0761486 0.0402563 0.0366307 0.0792604 -0.00997132 -0.0219082 0.00733943 -0.09569 -0.0176958 0.0998409 -0.0756074 -0.0693205 0.0311908 -0.106367 0.0333865 -0.0812502 -0.103604 -0.0709576 -0.00617704 0.0147446 -0.0836038 -0.124589 -0.0234537 -0.114173 0.082236 0.0209699 0.022433 0.0201567 -0.102239 0.102728 0.0267757 0.0334653 -0.055567 -0.0341025 -0.029882 -0.104042 0.0406935 0.0931983 0.0150055 -0.085383 -0.0792304 0.0257744 -0.00199763 0.0666253 -0.0540855 -0.00372758
very 0.0165534 0.00710882 0.100191 -0.106709 -0.0606758 -0.0741786 0.0361276 -0.0474536 0.00534736 -0.0501839 -0.112407 0.0474893 -0.0245144 0.0182481 -0.00867823 -0.015554 -0.0354405 -0.124498 0.0533937 -0.0311753 -0.0550374 -0.0185995 0.0613291 0.105339 0.0438886 -0.0674844 -0.0239852 0.0137199 0.0188311 0.0219809 0.0104879 0.0973859 0.0175398 0.0226559 -0.0164429 -0.0545165 0.00392703 0.118764 -0.0215333 -0.0231744 -0.121428 -0.086199 -0.00476328 0.13198 -0.0907442 0.0569056 -0.0906018 0.0508807 0.129828 -0.110802 0.115031 0.0607224 0.0329122 -0.0548705 0.0994014 -0.00935387 0.131203 0.0930336 -0.0144653 -0.00390888 0.00820148 -0.0613768 -0.103874 0.0786734 -0.0528918 -0.098467 -0.0020576 -0.0559093 0.0949515 -0.0340122 0.0229095 -0.0447569 -0.030995 0.105689 -0.053209 -0.0441797 -0.0958696 -0.0878411 0.00414629 -0.0454342 -0.0808772 -0.0584386 -0.00856091 0.0651785 0.00620015 -0.0226144 -0.0689822 0.068342 -0.0103233 -0.0347255 0.0306933 -0.00250624 0.0712653 -0.0221552 -0.05827 -0.0441087 0.000315359 -0.010437 -0.00342561 -0.0929554
this 0.0670952 -0.0187061 0.0284275 -0.0274889 -0.0389692 -0.0519106 0.0494347 -0.0774804 -0.0436634 -0.0689809 -0.0794495 0.0835491 0.0580442 -0.0678936 -0.0131229 -0.0127023 0.00791952 -0.110401 -0.00504353 0.0750356 -0.0296958 -0.023043 -0.0236835 0.0692705 -0.0440425 -0.0254819 0.0485476 0.0906838 -0.0180206 -0.0483582 -0.0870141 -0.0105292 0.059477 -0.00693649 -0.0209562 -0.0536718 0.00388373 0.0416523 -0.0923338 -0.0599379 -0.0878885 -0.0271068 0.0327172 0.0188911 -0.057384 0.00646018 -0.0596903 0.115265 0.086857 -0.0658229 0.0283929 -0.0274558 0.0589961 -0.0534261 0.0589624 0.0714018 0.0881931 0.0904477 -0.0616739 0.0207298 0.0655625 0.0897259 -0.0798603 -0.00344186 -0.135072 0.0220724 -0.0309171 -0.0543854 0.0947944 0.0183231 -0.136909 -0.0903603 -0.00725833 0.0515249 -0.0127596 -0.115676 -0.105224 -0.0697659 0.124114 -0.0491044 -0.0192261 -0.0930095 -0.0137278 -0.00445607 0.0836033 0.110509 -0.0898917 0.0862129 0.00907 0.0227624 0.0987183 0.0412753 0.0845873 -0.107981 -0.0349393 -0.0206692 -0.00690227 0.0829822 0.000169603 -0.0273421
not 0.118578 0.0488197 0.052663 -0.100124 -0.039721 -0.0979261 -0.00975911 -0.0746435 0.0237502 -0.00768729 -0.0082594 0.0828237 -0.0476822 -0.0984485 -0.0496404 -0.0719007 -0.0637896 -0.110091 0.0273648 0.0328296 -0.127148 -0.00627879 -0.0252606 0.0454532 0.0937223 -0.0316368 0.00523626 0.115231 0.0247577 0.0882219 0.00590009 0.0668662 0.108896 0.0592868 -0.107848 -0.0710425 0.0038841 0.0790166 -0.0131141 -0.03403 -0.114088 -0.0113522 -0.0246526 -0.0091191 -0.0542976 0.0115472 -0.104218 0.0629304 0.050347 -0.0207589 0.0841856 0.090895 0.0838178 -0.0353478 0.0856223 0.0892849 0.10279 0.0234235 -0.00790573 0.0142457 -0.0423105 0.0422255 0.0306404 0.079414 -0.126854 0.00682321 -0.00263987 -0.0920134 0.110338 0.0453427 -0.00543741 -0.054229 -0.100044 0.0435711 -0.101567 -0.0788208 -0.0212481 -0.036727 0.0963539 -0.00416156 -0.101802 0.0258939 -0.0384746 0.0677645 0.0795125 -0.000115328 -0.0411444 -0.00192294 -0.0423464 -0.0291093 -0.0142192 0.10348 0.0743839 0.021424 0.0343438 -0.0557117 -0.00788947 0.0860581 -0.0327482 -0.0609996
so 0.0852479 0.0904175 0.014868 -0.102706 -0.00579256 -0.00916583 0.0241666 -0.0363953 -0.00897961 -0.0160412 -0.0400906 0.0917353 -0.0844708 -0.0332491 0.0496579 0.027259 -0.0951511 -0.0489287 0.0322423 0.0038653 -0.0637989 0.0134362 0.0965189 -0.0122624 0.028224 -0.0934529 -0.0415781 0.121981 0.0405294 0.0421287 -0.0796406 -0.0379473 0.116688 -0.0139975 -0.0873917 0.0243851 0.0625431 0.104217 -0.00569613 -0.0949551 -0.0938378 0.00648978 0.0729162 0.0159923 -0.00470902 0.103288 -0.0711181 0.00699178 -0.00583544 -0.0701522 0.0392505 0.0622516 0.0997816 -0.0503133 0.0764554 0.0131696 0.133526 0.0109684 0.00449601 -0.0127336 0.00933036 -0.0784075 -0.121054 0.0196944 -0.0924396 -0.0518011 -0.0524781 -0.121737 -0.0184415 0.00553108 0.0494457 0.0168018 -0.114797 0.0437921 -0.061826 -0.0536399 -0.0656748 -0.0677739 0.0190118 -0.0244117 0.0266002 -0.0340089 -0.01031 0.0589808 -0.0142139 0.0549237 -0.0180539 0.0454334 -0.0155868 -0.0861335 0.0448398 0.0100881 0.0688655 -0.0227251 -0.0419861 -0.00684796 0.0884336 0.127396 -0.00569743 -0.0137806
out 0.0710487 0.048428 -0.00190196 -0.0570597 -0.033852 -0.0310378 -0.00493402 0.00813697 0.0492185 0.00672903 -0.00494382 0.00751403 0.00437626 -0.00757241 0.0714927 0.051509 -0.103607 0.0132231 0.0847617 0.0722109 0.0141282 -0.0765686 -0.061377 0.00877374 -0.000143012 -0.0966058 0.0953353 0.0312388 -0.0326008 0.0715627 0.0200251 0.0854936 0.0760996 -0.00631898 0.0148571 -0.131164 0.0974502 0.0480185 -0.0543965 -0.0735124 0.0122849 -0.103133 -0.00719266 0.043149 -0.024199 0.0144778 0.00611507 0.082744 0.100095 0.0182517 0.0870686 -0.0522137 -0.027021 -0.0983872 -0.00982183 0.0675829 0.0806492 -0.0221007 -0.00642715 0.053093 0.0405688 -0.0669574 -0.0182573 0.0315588 0.00591192 -0.00861527 -0.0423746 -0.0120249 0.0690595 -0.107939 0.0187414 -0.0729964 -0.0587338 0.0601242 -0.0499293 -0.119516 -0.114721 -0.011107 0.0200555 -0.0141863 -0.00902358 0.0104178 -0.0105504 -0.0130922 0.0703232 0.0862806 -0.0216577 0.01638 -0.0119243 -0.050405 0.0897689 0.119648 0.0295213 -0.113021 -0.0172251 0.00414636 0.126825 -0.0399092 -0.0523283 -0.123547
if 0.0313668 0.0625386 0.113038 -0.125188 0.000383995 -0.00334939 -0.0592503 -0.0846978 -0.0820199 -0.0939661 -0.0740928 -0.0576587 -0.100498 -0.0631221 -0.00993244 -0.011765 0.0471144 0.0202411 -0.0427065 -0.0739304 -0.134781 0.0344598 0.0257843 0.0533164 0.0197788 -0.105772 -0.012512 0.130097 -0.00727933 -0.08112 0.0558851 0.00394761 0.0901845 0.042958 -0.143264 -0.0506263 0.0480763 0.0633474 -0.0895169 -0.027101 -0.0389389 -0.100074 0.0539061 0.138445 0.0425668 0.0371005 -0.0506163 0.000679847 0.118346 -0.0442034 0.0221408 0.0306933 0.120079 -0.0684852 0.00811008 0.0229075 0.110039 0.00382524 -0.0823968 0.051579 0.00396268 -0.0425735 -0.0157938 -0.0635705 -0.126176 -0.0101112 -0.0696211 -0.0285899 0.0567407 0.037672 -0.070848 0.0497767 -0.00134333 -0.0579612 -0.00787654 -0.0208404 -0.0488802 -0.113786 0.0575912 0.08465 -0.109922 -0.0970765 -0.132747 0.0919479 0.0863784 0.0225163 0.0452227 0.0652114 -0.0137763 -0.0903477 0.0655939 0.0286145 0.107226 -0.065925 -0.111885 0.032144 0.0603764 0.133405 0.0112419 0.0673226
is 0.0693198 0.100354 -0.0106845 0.0257856 -0.0412576 -0.0255821 0.0807526 0.0166813 0.102928 0.0210961 -0.0755032 -0.010014 0.051514 -0.0110763 0.0962911 0.0734035 -0.00619294 -0.00523618 0.0934455 0.0414489 -0.0550808 0.0178688 -0.0254961 0.0767685 -0.0134088 -0.0879026 -0.0406761 0.0108516 -0.0317173 0.0833188 0.0247233 -0.00326318 0.0831402 0.0899056 -0.0927155 -0.0612223 0.00124453 0.0174291 -0.0635738 -0.02277 -0.0811156 -0.0740828 0.116779 -0.0093831 -0.0314682 0.0505424 -0.0422064 0.106842 0.0969922 0.0294193 0.0317089 0.0813731 0.103451 -0.0857134 0.0676663 0.0900086 0.0923485 0.0226622 -0.0243905 0.0775526 0.0479168 -0.0763875 0.0045081 -0.0271684 -0.0978909 0.0192045 -0.0750088 0.0127905 0.096952 5.04442e-05 -0.10028 0.0132777 0.016574 -0.0202621 -0.114313 0.0118634 -0.0199383 -0.0596348 -0.00649708 -0.0330264 -0.0408172 -0.0952033 -0.0433827 0.0752573 0.108992 0.115613 -0.0860672 0.018622 -0.0345739 -0.0223654 0.0814493 -0.0104773 0.0262133 0.0077905 -0.0509343 -0.0645434 0.0771601 0.0602347 -0.110527 -0.0508158
at 0.0056315 -0.0166995 0.0444517 -0.0455717 -0.0359705 -0.0177092 0.0495027 0.00855032 0.063365 -0.0430194 -0.0340285 0.0137231 0.0168004 -0.0955248 0.019368 0.0658375 -0.0182927 -0.0615917 0.106148 -0.0151521 0.0578066 -0.0161848 -0.0439421 0.0480901 -0.00200451 -0.0296856 -0.00174969 0.0182049 -0.0461398 -0.0137591 -0.0556399 0.0162717 0.0073346 0.0518573 0.0549305 -0.0563732 -0.000469909 0.106028 -0.0195585 -0.0392884 -0.08411 -0.00588581 0.0133736 0.0977312 -0.0935441 0.0304362 -0.0380916 0.117688 0.0162231 -0.0500213 -0.00789624 0.107306 0.0530055 -0.0115439 0.109323 0.101542 0.0244427 0.0733341 -0.10365 0.0827053 -0.0663468 -0.0639986 -0.013114 0.00525017 -0.0640645 0.00668077 0.00461146 -0.0942268 0.00758934 -0.0584079 -0.0862592 -0.055869 -0.0414931 -0.0301634 -0.0407641 -0.0220341 -0.000242934 -0.0981904 0.111091 -0.0548391 -0.0733881 0.0262901 -0.0166029 0.107701 0.132883 0.0707989 -0.152011 0.0273475 -0.123208 -0.0114426 0.0912509 0.0414822 0.0466051 0.00303822 -0.0818564 0.00781185 0.0366433 -0.00939254 -0.0549734 -0.122344
t 0.120861 0.0916659 0.0502774 0.00246686 -0.0249705 -0.0112343 0.0641469 -0.115664 0.037879 -0.0359205 -0.063379 -0.0752156 0.00256522 -0.107404 0.0756998 -0.0594221 -0.0910847 -0.0310622 -0.011499 0.00604291 -0.0662528 0.0168246 0.0369636 0.0429841 -0.0311016 -0.0174189 -0.0462556 0.0620555 -0.0119447 -0.115555 0.022873 0.0651525 0.108565 0.00736052 -0.026654 -0.0994113 0.00980826 -0.0463599 -0.0558792 -0.128118 -0.100058 -0.143859 0.113202 0.0757905 0.0276663 -0.0277821 0.00213254 0.0645396 0.13455 0.0070355 0.0665514 0.0173574 0.100546 -0.120591 -0.0262488 -0.0323642 0.0851827 0.0471123 -0.139734 0.0267537 0.0713668 -0.0147893 -0.0247995 0.0695965 -0.0994586 -0.0455089 -0.0183858 -0.0894684 0.0151984 0.0216649 -0.017649 0.00806983 -0.0090821 -0.0281884 -0.116075 -0.0574099 -0.0658882 -0.0919238 0.0544436 0.0497551 -0.0999835 -0.131318 -0.125465 0.0494781 0.0902573 0.113897 -0.018402 0.0470767 -0.00818167 -0.134098 -0.00340481 0.0965829 0.131917 -0.0972548 -0.00312005 -0.0357526 0.1138 0.118705 -0.142764 0.0442401
s 0.000418657 0.0636429 0.0111993 -0.0222394 0.0155177 -0.123697 0.0740565 0.00283068 0.100781 -0.0720939 -0.000439854 -0.0274368 0.00144825 -0.0235834 0.0482096 -0.00158773 -0.128601 -0.0784906 -0.0155963 0.105457 -0.0961268 -0.0994685 -0.0181178 0.0323376 -0.0107241 -0.103427 -0.0486586 0.138247 0.0315265 -0.035688 -0.0928553 0.075084 0.0847429 0.0460466 0.0218293 0.0404902 0.045247 0.00456829 -0.00598573 -0.103377 0.00766304 -0.0171596 -0.0103244 0.0522433 0.046359 0.0817429 -0.11366 0.0418988 0.012431 -0.0831421 0.0343259 0.130099 0.00142758 -0.106766 0.0810328 0.0172075 0.0785852 0.0530122 -0.0162212 0.0634817 0.0158447 -0.0946875 -0.0377285 0.0232681 0.0117324 -0.0362989 -0.058689 -0.0820937 0.019267 0.00391424 0.0255923 -0.117393 -0.115723 0.011959 -0.0802707 0.0086024 -0.0944419 -0.0273066 0.0711221 -0.0422971 -0.0321283 -0.0176941 -0.0829404 0.0168323 0.0998944 0.0276193 -0.00538703 0.138015 -0.0166086 -0.0704043 0.0270739 0.0209117 0.0226969 -0.0237847 -0.108134 -0.0269609 0.0821146 0.0258675 -0.0910302 -0.0429941
ll 0.0447047 -0.00268601 0.0470916 -0.0407048 -0.0927265 -0.0111635 -0.0128331 0.0290536 0.0603157 -0.00461891 -0.0813718 -0.0776235 -0.0709559 -0.0526436 0.1115 -0.085819 -0.0202792 -0.0548542 -0.0429686 0.0156766 -0.129993 0.00745057 0.00461663 0.0108473 0.0898366 -0.128376 0.0972256 0.04468 -0.0100664 -0.0631167 -0.00810556 0.0890974 0.0780204 0.149825 -0.0275906 -0.0893296 0.0756141 -0.0248459 -0.0382449 -0.0501353 -0.164274 -0.0532967 0.131859 0.124263 0.0234208 -0.0217991 -0.0244427 0.0233796 0.0332399 -0.0731538 0.0117311 0.0169677 0.0506023 -0.0380041 -0.0213444 0.107069 0.129264 0.0976344 -0.0747039 0.0313197 0.0543279 0.0419742 -0.0471688 0.0290386 -0.0778986 0.0159334 -0.152807 -0.0515367 0.101166 0.058846 -0.0691499 -0.037481 -0.00937059 -0.0274741 0.0135642 -0.101078 0.0133611 -0.143407 0.0352791 0.00104648 -0.0450292 -0.0674899 -0.128396 -0.0210966 0.0972901 0.0796146 0.0380717 0.0976317 -0.0613158 -0.0193663 0.0462404 -0.0243744 0.136759 0.0107022 -0.0129564 -0.0376574 0.0541662 0.053085 -0.0921694 0.0295898
how 0.0875398 0.0519102 0.0994211 -0.0185799 -0.0952898 -0.0701555 0.0779235 -0.0377406 0.0808606 0.0604258 0.00289311 0.011319 -0.0774453 -0.0653575 0.034524 -0.0232404 0.0120775 -0.0150093 0.0114622 0.0298021 -0.0748608 -0.0252131 -0.0443897 0.00152268 0.070871 -0.0329488 -0.0162134 0.037895 -0.0174548 0.0142984 -0.0553991 0.0866909 0.059205 0.0446251 -0.0741842 0.00963052 0.0389137 0.0278378 -0.0453219 0.000132517 -0.0920632 -0.110956 -0.0201815 -0.0220639 -0.0398252 0.0163204 -0.115899 -0.00672822 -0.0320843 0.0266937 0.0329305 0.0191093 0.0241821 -0.038141 0.0163862 0.106611 0.146787 0.0974698 -0.0662223 -0.0179356 -0.0132302 -0.00140918 -0.124117 0.100438 -0.108146 -0.0400771 -0.0424897 -0.10939 0.043677 -0.0873309 -0.0538115 -0.0859565 0.00639639 -0.0369298 -0.0528767 -0.0126818 -0.0352212 0.00989129 0.0760482 0.007768 -0.120283 -0.129193 -0.0827716 0.0558864 -0.0227068 0.0875468 -0.0197804 0.0496773 -0.0859711 -0.0413387 0.119905 0.00461812 0.0981782 -0.103732 -0.109021 -0.0926333 0.12531 0.093066 -0.0790479 -0.0191615
they -0.00346117 -0.00937183 0.0192452 -0.142711 -0.0371121 -0.0426477 0.104632 0.0135091 0.0490557 -0.090306 0.0114298 -0.0256301 -0.130785 -0.140136 0.105053 -0.0212416 0.0540551 -0.0779913 0.00757605 -0.0446932 -0.0970139 0.0100536 -0.0273535 0.078202 0.0469438 -0.0844614 0.150829 0.0134129 -0.0738816 0.046093 -0.0302971 -0.0101245 0.0435698 0.0852942 -0.00233145 -0.0176163 0.0382771 0.0705336 -0.0198624 -0.0826271 -0.12382 -0.0578187 0.0776286 0.0992489 -0.0103952 0.141114 -0.0682616 -0.0494914 0.0545355 -0.116006 0.0958946 -0.0159068 0.11531 -0.104551 0.0338686 0.0902919 0.0447149 0.0369342 -0.0585681 0.000654494 0.0546742 -0.0195906 -0.066174 0.0260003 -0.0673625 -0.0143574 -0.0740989 -0.0760801 -0.0575338 0.00304462 -0.0252999 0.0345151 0.0206718 0.00944922 -0.0595045 -0.103938 0.00283144 -0.122197 0.0863995 0.00499803 -0.0774157 0.0408433 -0.00151268 0.106699 0.077632 0.00945786 -0.106678 0.0474121 -0.0765024 -0.142581 0.0822534 0.0956589 0.036001 -0.114073 -0.119247 0.0188781 0.00923888 0.11416 0.0304762 -0.00521962
about -0.0069226 0.0328758 0.0302688 -0.0906557 -0.00701958 -0.0871243 -0.0364435 -0.0300228 -0.02409 0.00911283 -0.00937113 0.0206584 0.0222563 -0.0876018 0.0873465 0.0870007 -0.05302 -0.010058 0.0374413 0.0493123 -0.0486256 -0.0767699 0.0242577 -0.0118364 0.0355035 -0.0476483 -0.0253338 0.111408 0.0264911 -0.0417114 -0.025277 0.0875469 0.108002 0.0186324 -0.0795487 -0.0623303 0.0466827 0.0880186 -0.0375586 0.0231606 -0.0747323 -0.0799664 0.0606336 0.108816 -0.0978146 0.0445217 0.0259967 0.106526 0.0186095 -0.0329685 0.038326 0.00404355 0.0282896 -0.0315103 0.0999152 0.0442426 0.0102627 0.000305948 -0.0424015 0.06456 -0.0466808 -0.0310238 -0.0219714 0.0623789 0.012069 -0.0791815 0.00130115 -0.00425038 0.0502993 -0.0506815 -0.0194128 -0.00759662 -0.0131655 0.0254915 0.0225638 -0.00289827 -0.108594 -0.104683 0.0960652 -0.0313522 0.00773771 0.00135262 -0.110822 0.100725 0.0788896 0.065966 -0.0937745 0.0516151 -0.091642 -0.103949 0.120528 -0.0290893 -0.0123675 -0.0883578 -0.0339737 -0.0672021 0.047611 0.0740964 -0.0635733 -0.072597
herself 0.0648443 0.042622 0.11375 -0.0326836 0.0240685 -0.00709767 -0.000738761 -0.0645723 0.00652544 -0.0915834 -0.0609841 0.103988 -0.0834299 -0.0989263 0.0775373 0.115361 -0.0339045 -0.0181887 0.0902575 0.112618 -0.0624602 -0.0486027 0.0110617 0.126757 -0.0507636 -0.0111617 -0.0637087 -0.059703 0.0396408 0.0803914 -0.00483714 0.0490478 -0.0258747 -0.0606487 0.0188587 0.0160387 -0.00525447 0.0912026 -0.0599966 0.0287054 -0.0323736 0.0182906 -0.0551028 0.0480007 -0.122259 -0.0383847 -0.0594346 0.121013 0.0313269 -0.0252493 0.0673292 -0.0186394 0.0669738 -0.067897 0.0205716 0.108126 0.0651724 -0.017754 -0.0856 0.0981297 0.0154004 0.0089558 0.0245527 -0.0363243 0.0346886 -0.0715234 -0.00680531 -0.0581684 0.0852359 -0.0178261 0.000825945 -0.0894194 -0.0506157 0.123352 -0.0182513 -0.0380278 -0.115417 -0.0758799 -0.0323326 0.039128 0.0288898 -0.0559397 -0.0602548 0.000598044 -0.0621749 0.00307726 0.022051 0.0669324 -0.0419714 -0.0768531 -0.0133515 0.101945 -0.0231477 -0.0641411 -0.105836 -0.0398455 0.00197518 0.057889 -0.0395513 -0.0056298
me 0.080017 0.0200063 0.0655698 -0.0815235 -0.00234367 0.0186161 0.00951908 -0.0856069 -0.0287617 -0.0177714 -0.0773938 -0.0329251 -0.0857992 -0.0658032 0.0356549 0.0101725 0.0405306 -0.081949 0.0039493 -0.00623972 -0.0331813 -0.0200013 -0.0293309 0.122456 -0.0611548 -0.113672 0.0739598 0.0951503 -0.0912154 -0.00635521 -0.0324015 0.119793 0.0276053 0.0644013 -0.0518416 -0.120841 0.0569489 0.0351951 -0.0603064 -0.135622 -0.0646858 -0.103047 0.113817 0.0567069 -0.0958481 0.104954 -0.0391071 0.00302864 0.0109966 -0.0219267 -0.00725408 -0.0100241 0.104515 -0.101619 0.0283139 0.0155835 0.0256644 -0.0202452 -0.078605 0.089049 -0.0350117 -0.0790064 -0.043725 0.0772836 -0.0347497 -0.0178785 0.0157673 -0.0402126 0.0445061 -0.119304 -0.117867 0.0011661 0.00152877 -0.0046267 -0.0252714 -0.123815 0.0158563 -0.0562864 0.0946056 -0.105518 -0.0368044 -0.0387183 -0.0391916 0.0235882 0.0374555 0.0109322 -0.0319723 0.114829 -0.00626047 0.0112436 0.0197648 -0.00436128 0.0901006 -0.10937 0.0236017 0.0216944 0.0969926 0.0270714 -0.0549536 -0.00627527
up 0.00264307 0.0486614 0.00317359 -0.0540353 0.000232426 -0.0466017 -0.0299703 -0.0605469 0.0359971 -0.0494018 -0.000513536 0.0836193 0.0176723 0.00687063 0.0505562 -0.0296941 -0.045457 -0.0280192 0.101764 0.0411259 -0.0120468 0.000621884 -0.0292542 0.0991707 -0.0596383 -0.0360515 0.0752978 0.0677424 -0.109702 0.0388063 -0.0240575 -0.023114 0.026109 0.0555499 -0.0856247 -0.0377281 0.0543104 0.059563 -0.0986189 -0.0638236 -0.0380488 -0.0527865 -0.0245423 0.0752654 0.024806 -0.0244634 0.00456755 0.0461654 0.0343524 -0.0185702 0.0872547 0.0632514 0.0273819 -0.0229424 0.0182544 0.0318531 0.0446572 0.0898975 -0.0282937 0.0940926 -0.102015 -0.03107 -0.104503 0.0437249 -0.0294621 -0.0373927 -0.0442006 -0.0107833 0.0505916 -0.110418 -0.0499632 -0.0206841 -0.0595524 0.00394876 -0.0836296 -0.13046 -0.0946076 -0.000699827 0.0447697 -0.0794198 -0.0656325 -0.00833786 -0.0303832 0.11679 0.000400508 0.0315038 -0.0359046 0.0650405 -0.0174966 -0.0193979 0.0193134 0.0715223 0.0536789 -0.0365496 -0.0876747 -0.101124 -0.00258741 0.0682632 -0.0377207 0.00433266
what 0.0677022 0.0349819 0.09473 0.00814477 -0.0296683 -0.0148526 -0.0514495 -0.0696103 -0.010134 -0.0573338 -0.109726 0.0218843 -0.0547319 -0.0271822 0.0996552 0.071064 -0.0489636 -0.0646507 0.033896 0.0240995 -0.0254118 -0.0273035 0.0647398 0.083547 0.05206 -0.0706909 0.0111112 0.0278678 -0.0887131 -0.0382838 -0.0753362 -0.00611275 0.0262882 0.1066 -0.0688562 -0.0774863 0.0637856 0.101725 0.0123292 -0.117991 -0.0198443 0.0211172 0.0761892 0.108333 -0.0254505 -0.0505464 0.0103699 0.00838531 -0.0311513 0.01245 -0.0201313 0.0399523 0.0613291 -0.0602355 0.086283 0.0326125 0.0174612 -0.0215297 -0.0221856 -0.0112178 -0.0156692 -0.106213 -0.0570002 0.0936572 0.0177227 -0.0551444 -0.103814 -0.123523 0.0954852 -0.0755012 -0.0104077 0.0184127 -0.089776 0.104015 -0.112107 -0.0744524 -0.0474026 -0.0348948 0.020789 -0.00919695 -0.0442688 -0.0228496 -0.109956 0.0534188 0.082911 0.0665164 -0.0278979 0.00894461 -0.11445 -0.0247356 0.0628193 -0.0270625 -0.00228247 -0.0592383 -0.0456418 -0.0215046 -0.00840633 0.0169222 0.0156459 0.0334082
way 0.0332631 0.0586328 0.00687606 -0.000772254 -0.0918875 -0.0405372 0.0322644 -0.00128376 0.123111 -0.0686299 -0.0876009 0.0844484 0.0136087 -0.0647013 0.0178513 0.128789 -0.104725 -0.103644 0.0394533 0.0528607 0.0730308 0.00545104 -0.0853764 0.0134401 -0.0688116 -0.0190385 0.0293908 0.069677 -0.0931077 0.0108764 -0.00453872 0.0878697 0.0411323 -0.0232355 0.00500417 -0.0865596 0.0445167 -0.0413284 -0.114515 0.0182105 0.00276178 -0.066769 0.0377963 0.0996758 -0.0692287 -0.0102626 -0.0246608 0.126631 -0.0385497 -0.0305562 0.0763249 0.0102022 0.106988 -0.0226279 0.000296785 0.00342844 0.0606707 -0.00354391 -0.0962962 0.00960054 -0.0590932 -0.0736407 -0.015208 0.126862 -0.0540211 0.0307128 -0.0486353 -0.0423525 0.08858 -0.127738 -0.0835613 -0.0320524 0.0198871 0.00533431 -0.0972622 -0.0144709 -0.0451217 0.0268725 -0.02085 -0.103056 -0.0777632 0.00487283 0.0257569 -0.0302613 0.0658549 -0.0200565 -0.0277758 -0.0174033 -0.122636 0.0351356 0.082552 0.0602453 -0.035583 -0.02563 0.0325227 -0.025606 -0.00699822 -0.0266445 -0.081185 -0.068501
when 0.0489667 0.00519883 -0.0169061 0.0180813 -0.0524403 0.0107074 0.106182 0.00881567 0.0788425 0.0354314 0.0289307 0.0229754 0.0528783 0.0139397 0.05445 -0.0421101 0.000441176 -0.0339115 0.0232496 0.0930427 -0.0768653 -0.0328224 -0.0338202 0.0530802 -0.0483316 -0.0326134 0.0522765 0.0837238 0.0155846 -0.0103418 0.0331677 0.0328898 0.10921 0.010799 -0.00283607 0.0131264 0.0752029 0.0716202 -0.0359203 -0.0176431 -0.0332459 0.00419745 0.0611745 0.0952851 0.00169614 0.0796578 -0.0910171 0.00600585 0.0913504 -0.101071 0.0687087 0.0411376 0.014904 -0.054393 0.0416891 0.0152083 0.117179 -0.0228383 -0.0117512 -0.0136339 0.0626053 0.0481968 -0.0778095 -0.0195078 -0.0900654 -0.0296209 0.0511167 -0.0955964 0.0776017 -0.00184744 -0.0766693 -0.0631323 -0.118345 -0.00317824 -0.0837268 -0.0258476 -0.0829859 -0.0797816 0.0186448 -0.106508 -0.0493374 -0.0616589 -0.108691 0.109357 0.0273811 0.0962523 -0.0830846 0.0806875 0.0330325 -0.037794 0.059957 0.0871128 0.0480295 -0.0762534 0.00676713 0.000699188 0.0949808 0.0134095 -0.0162722 0.0130764
like -0.00105711 -0.00933161 -0.00257616 -0.0703802 -0.118676 -0.0580759 -0.0210912 -0.0540319 -0.0175175 0.0288609 0.0112797 -0.00757388 -0.0498421 -0.096131 0.0944666 0.0765475 -0.0959172 -0.065353 0.0270298 -0.0038503 -0.000862292 -0.00747923 0.0392977 -0.00647201 -0.00178334 -0.0603604 0.0167522 0.0700082 -0.106633 0.0210674 -0.0518665 0.0441829 0.103422 -0.0126592 -0.0258517 -0.0130723 0.00650013 0.0360302 -0.00318695 -0.0491172 -0.0962475 -0.0307877 0.0321935 0.0602451 -0.0564415 0.0684572 0.0352175 0.00635908 0.0473674 -0.0662652 0.0538208 0.0211759 0.023521 -0.00574759 0.0728494 0.0494855 0.026982 0.00156802 -0.083309 -0.0112286 -0.0830221 -0.0416587 0.0138746 -0.00485864 -0.061381 -0.0947269 -0.10958 -0.106752 0.0123148 -0.0591122 -0.0168716 -0.104684 -0.0639988 0.0371697 -0.100226 -0.0595933 -0.0536541 -0.0665915 -0.00235583 -0.0773431 -0.0152085 0.0030385 -0.094643 0.099738 0.0537496 -0.0108403 -0.100822 0.0389145 -0.10621 -0.00215254 -0.0079715 0.0824617 -0.0109349 -0.0610202 -0.104261 -0.0020882 0.0990975 0.0761111 0.00740594 0.00425627
one 0.000826086 -0.00814675 0.0789259 -0.0149717 -0.14409 -0.00734493 0.0286652 0.0156245 0.0705301 -0.00159683 -0.0616989 -0.00624188 0.0536167 -0.0565059 0.046972 0.0353123 -0.0576722 -0.0605481 0.0918903 0.0887137 -0.0563063 -0.106857 0.0254758 0.102542 -0.0650859 -0.0787722 0.0809582 0.018341 -0.0226039 0.056988 -0.0606226 0.00335325 0.0195405 0.0789998 0.0582961 -0.122014 0.0362666 0.0832004 -0.0893289 -0.0799511 -0.00635637 -0.0710724 0.057418 0.0701696 -0.0203638 0.0633705 0.0234302 0.044829 -0.00443766 0.00798213 0.0373027 0.0519661 -0.0286335 -0.0104675 0.0417798 0.0672173 0.075716 0.0308564 -0.00288324 0.0819782 0.012469 -0.0694116 -0.0556877 0.0646814 0.00254371 -0.045367 -0.0158721 0.0104913 0.0219148 -0.0416338 -0.0936653 -0.064116 -0.107729 0.131413 -0.0611556 -0.0496852 -0.0406157 -0.107492 0.00926399 0.0159343 -0.124421 0.0347322 -0.0135819 -0.00400392 0.0937491 0.0327419 -0.0090341 0.0733363 0.0146875 -0.0137896 0.0339042 0.0225127 0.015483 -0.0846753 -0.0593011 0.0203846 0.0803558 -0.0205775 -0.0606838 -0.118257
do 0.0204652 -0.00105681 0.0722572 -0.0356263 -0.0256286 0.0158911 0.0778645 -0.0395437 -0.022727 -0.0628797 0.0111052 0.0661833 -0.108199 -0.096381 0.0709128 -0.0099843 -0.0941763 -0.0886038 0.0625109 0.0332446 -0.119493 -0.0547453 -0.0012363 0.0801497 -0.0726431 -0.0659833 0.0821745 0.0261603 -0.0404853 0.0265944 -0.124402 0.029471 0.0746782 -0.0283588 -0.0811972 -0.0469259 0.0694186 0.0759901 -0.0198493 -0.0210967 -0.0185174 -0.0389331 0.00105174 0.0186138 -0.0544978 -0.00980129 -0.0307696 0.0874646 -0.0111507 -0.0600662 0.00222573 -0.0052773 -0.0119264 -0.00244407 0.00979921 0.0218694 0.0333761 0.018383 0.0180069 0.11624 -0.0646263 0.000261716 0.0136586 -0.0235735 0.021668 -0.0767019 -0.0738529 -0.0176443 0.0253106 -0.0857249 -0.0287778 -0.0972937 0.0126336 0.0928437 -0.00733465 -0.118825 -0.0826541 -0.000214823 0.00191334 -0.0470966 -0.0810642 -0.0389981 -0.100217 0.0280399 -0.00727115 -0.0163347 -0.035248 0.0716915 0.00278974 -0.0705801 0.0342991 0.0824621 0.103404 -0.0548486 0.0177384 -0.0146438 0.0694651 0.0447534 -0.094941 -0.00680587
no 0.138488 0.0675692 0.0621112 0.0126842 -0.00363218 -0.0638613 0.0925105 -0.00758484 -0.00226301 -0.000892933 -0.0447942 0.0710599 -0.135326 -0.0485893 0.121781 0.00982486 -0.0585852 -0.0391919 0.0578714 0.0820979 -0.0732196 -0.0141714 0.0145104 0.089185 -0.0236874 -0.017963 0.10607 0.00579698 -0.0700052 -0.0606529 -0.107785 -0.0484612 0.0433371 0.00194285 -0.0973019 -0.0225695 0.0495185 0.0474016 -0.0920508 -0.0101955 -0.0634343 0.0023344 0.0205368 0.0803634 -0.0408876 0.0542955 -0.0051663 -0.00472563 0.0774882 -0.115443 0.0465095 -0.010667 0.0601994 0.00922504 -0.00160861 0.0681777 -0.01018 -0.0182474 -0.0636739 0.0890806 -0.0461336 0.0324039 0.0352989 -0.0460941 -0.0401016 -0.0661266 -0.051602 -0.0558856 0.0227067 -0.0356884 -0.00528032 -0.0862856 -0.0381983 0.0722018 -0.0148698 -0.115418 -0.015724 -0.0891498 -0.0184962 0.00349735 -0.0182611 -0.0841131 -0.0104254 0.0570126 -0.00320081 -0.00355853 -0.0353464 -0.0313341 -0.108515 -0.0209458 -0.00473861 0.123966 0.125558 0.00683498 -0.0581736 -0.0401733 0.0992259 0.0778628 -0.0888193 -0.127458
oh 0.00551791 0.028639 0.084433 -0.046943 -0.0922418 -0.0190654 0.072627 -0.126583 -0.0162385 -0.0763146 -0.0769902 -0.0388572 -0.0665255 -0.0250596 0.110121 0.0493152 -0.0156871 -0.0472982 0.0896465 -0.0368745 -0.108076 0.000379426 -0.0391955 -0.0124769 0.0403144 -0.119518 -0.0143438 0.0411308 -0.0607805 0.0150423 0.0152073 0.0372256 -0.00664016 0.109784 -0.0900426 -0.00345838 0.0664392 0.0591797 -0.0221104 -0.0563627 -0.0355642 -0.127573 0.13929 0.0139408 0.0533207 -0.00770414 -0.0986019 0.0119364 0.00500709 0.00457875 0.0754469 0.0735543 0.127831 -0.0507147 0.0117045 0.0136554 0.0787927 0.0473022 0.00615364 -0.0331759 0.0221774 -0.0460756 -0.0907115 0.0210176 -0.00428279 -0.0651853 -0.0995781 -0.0526278 0.0381413 -0.00225168 -0.094235 -0.0188075 0.0246957 -0.0332863 -0.0790328 -0.0158619 -0.0655984 -0.0636032 -0.00519851 -0.103048 -0.130931 -0.130323 -0.0562445 0.0254874 -0.00300029 0.0355436 -0.0896529 -0.00513037 -0.0699689 -0.121941 0.0876869 0.0173902 0.0348432 0.00644409 -0.127329 -0.0678164 0.12042 0.0776951 -0.104358 0.0370551
went -0.0306127 0.0748196 -0.00808553 0.017691 0.0505013 0.00617147 0.129189 -0.0681156 0.0259501 -0.0853863 0.0452201 0.0559185 0.00792339 -0.0586169 -0.0436583 0.0156001 -0.0896901 -0.0615284 0.0360247 0.0233655 0.0287686 -0.0857493 0.0602103 0.026257 0.090248 0.048549 -0.0104213 0.0779584 -0.0527675 0.0131818 -0.068885 0.0417435 0.0474521 0.100197 -0.0441653 -0.0608979 0.0961707 0.0482589 0.00259086 -0.000669362 -0.0597856 0.0580893 0.0453473 0.103659 -0.0271792 0.0312283 0.0145516 -0.00974461 0.120565 -0.0520101 0.0955828 0.0413524 0.0251893 -0.0533378 0.00461068 0.0114599 0.081556 0.0320791 0.0202874 -0.0307099 -0.019399 -0.0505337 0.0241674 0.0149006 -0.0694596 0.024181 0.058181 -0.0944602 0.0193822 0.0543314 0.0435024 -0.0654748 -0.0995912 -0.0549551 0.0124836 -0.0882507 0.0043125 0.0412665 0.0847596 -0.0136006 0.0135906 -0.000613558 0.00622215 0.0997237 -0.00299212 0.0875011 0.0383668 0.0501858 0.0465058 -0.0633948 0.0405166 -0.0130266 0.0492095 -0.0572156 -0.126688 -0.0360934 0.0321231 -0.00598752 -0.0802638 -0.0239554
thought 0.115703 0.017355 0.0389056 -0.0690282 -0.0903835 -0.0909087 0.0643865 -0.0358037 0.0566002 0.0454999 0.0351934 -0.0249487 -0.118875 0.0262766 0.00367512 0.029773 -0.0833236 -0.0437713 0.082127 0.107147 -0.0135811 -0.102967 0.0970853 -0.0151439 -0.0228728 -0.0299747 -0.012366 0.0420368 -0.0601352 0.023641 -0.0537337 -0.0251108 0.108467 -0.0183531 -0.0643789 -0.0863025 0.063123 0.0427573 -0.0308952 -0.0599986 -0.0681315 0.0500435 0.0874167 -0.00172412 -0.00791489 0.0221124 -0.0637586 -0.0493146 -0.0152276 -0.128784 0.0660997 0.104985 0.00790185 0.0323358 0.0857223 0.0192943 0.135858 -0.0447307 0.0126354 0.0596485 -0.0253211 -0.0946658 0.0287706 -0.0570173 -0.0493517 -0.0321629 0.0354566 -0.108926 0.0146186 0.0803111 -0.00525271 -0.0952141 0.00257682 0.0422788 0.0168959 -0.0306134 -0.0853926 -0.0902801 0.100977 -0.0720672 -0.0504708 -0.0809071 -0.0304997 -0.0156414 -0.0380346 0.0568034 -0.0543553 0.106928 0.00358851 -0.0510344 0.0445536 -0.019815 0.0232502 -0.0163714 -0.0256826 -0.0354253 0.00362157 0.070323 -0.0767181 -0.013491
again 0.0706965 0.0589424 -0.0138243 -0.0315344 -0.0486085 -0.0784115 0.0753781 0.00987845 0.0436736 0.0419558 0.00992031 0.0278909 -0.0746572 -0.0500456 0.0753938 -0.0254413 0.0129069 -0.0126379 -0.0416051 0.00739984 -0.0376792 -0.064451 0.0580603 0.0324301 -0.00476819 -0.0494331 0.0501005 0.0835256 -0.0159641 0.0132079 -0.0682754 0.096277 0.0787301 0.05326 -0.0939694 0.00283023 0.00235958 0.117125 -0.0423693 -0.0695154 -0.020352 0.0197927 0.0618448 0.0345331 -0.0346252 0.0610444 -0.0504346 0.0724569 0.102173 -0.0491814 0.0865745 0.0160415 0.107802 -0.0861474 -0.0315365 -0.0192088 0.0282148 0.0905173 -0.112401 0.0504324 -0.0120951 -0.0117027 0.0238679 0.062827 -0.096961 0.0295263 -0.0313635 -0.0261909 0.0345886 -0.00876182 -0.0398124 -0.0836093 -0.0625745 0.0632587 -0.0634118 -0.0415049 0.0251136 0.0303881 0.035287 -0.0317721 0.000223238 -0.092629 -0.0124408 0.0419415 0.0987995 0.0615612 0.0272373 0.0441007 -0.039505 -0.0151798 0.0686953 0.109135 0.0509679 -0.0994792 -0.0562367 -0.0508727 0.0999024 0.0885724 0.0348685 0.0199039
there 0.0572706 -0.0417792 0.0517398 0.0364682 -0.101114 -0.108522 0.0655042 -0.0210221 0.0263907 -0.118845 0.00981085 -0.0236227 0.0390633 -0.0583355 0.0806071 0.0691367 -0.0691952 -0.0704033 0.100619 0.0424861 -0.0773684 -0.00934764 -0.0363241 0.0704563 0.0505896 -0.0898975 0.0173474 -0.0384159 -0.0766427 0.0612372 -0.0193726 -0.0456819 0.00401755 0.0110678 -0.124139 -0.0246171 0.0296599 0.0550219 -0.0693992 -0.0353725 -0.119001 0.0240708 0.0419025 0.0954919 -0.013449 0.00871812 -0.0761752 0.00451558 -0.0323786 -0.111377 0.127571 0.0514281 0.014377 -0.0574129 0.0624787 -0.00472565 -0.000488682 0.00773896 0.0670137 0.105155 0.00612981 0.00470843 -0.0800572 0.0341679 -0.00391059 -0.0869208 -0.0607212 -0.091733 0.0318834 -0.102414 0.0226539 0.017394 -0.0988784 0.0983529 -0.0148342 -0.105208 -0.0885122 -0.124115 0.00410024 -0.0705592 -0.0433807 0.0287986 0.0381817 0.0177335 0.0146136 -0.00524318 0.0147925 0.0170795 -0.0607302 -0.0710591 0.0865435 0.0807136 0.101979 -0.0819094 -0.0448253 -0.0143806 0.104859 -0.00590028 0.0478368 -0.0023463
see 0.023179 0.0565992 0.0963496 -0.0431371 0.0307567 -0.0645422 0.0306914 -0.0886101 0.0257667 0.027327 -0.0143393 0.0803521 0.00855573 -0.109422 -0.0129378 0.0772133 -0.00673574 -0.0393317 -0.0229952 0.0803598 0.00557925 -0.00611119 0.0335408 0.0786635 -0.0675253 -0.0298834 -0.00790808 -0.0263088 0.0701996 0.0918089 0.0170017 0.0806 -0.0220603 0.105692 -0.0297719 -0.0481489 0.0425552 0.0692332 0.0100559 -0.045083 -0.0261593 -0.073626 0.024616 0.0239607 -0.0419111 -0.0250732 -0.0319761 -0.0121666 0.02337 -0.088135 -0.0180775 0.00204303 0.00375384 0.0125298 0.0305795 0.101465 0.0600317 -0.000470952 -0.0995902 0.056479 0.0646433 -0.0511591 -0.0971399 -0.0163103 -0.0575897 -0.0979085 -0.0139021 -0.0475958 0.00684812 0.0075455 -0.0595028 -0.0765057 0.0120351 -0.0663231 -0.0677484 -0.0764041 -0.0860428 -0.0671607 0.100006 -0.0542362 0.0266644 -0.0791945 -0.0722177 0.0898283 -0.00420412 0.0531925 -0.0686169 -0.000477924 0.00499309 0.0123769 0.0548158 -0.013294 -0.0274424 -0.00535919 -0.0041668 0.0349261 0.105366 0.0796522 0.00680265 -0.0623948
or 0.0596925 0.0846458 0.12109 -0.0581281 -0.0323366 -0.0119309 0.0016496 -0.0846097 0.0596628 -0.0238141 -0.0787751 0.0122382 -0.0889502 0.00687365 0.109764 0.0159327 -0.0920614 -0.0411832 0.0868924 0.0787376 0.00742749 0.0127348 -0.0621232 0.0632787 0.00256515 -0.0649674 0.0714 0.100184 0.0281534 0.0895681 -0.00413801 0.00765208 0.0153003 0.0220193 0.0185651 -0.07216 0.0514552 0.00604712 -0.00934583 -0.107881 -0.0598997 -0.0116406 0.0916984 0.091258 -0.094798 0.0914131 0.00519028 0.0814604 0.106348 0.0283682 0.0480385 0.0915488 0.0552418 -0.0539276 0.0259741 0.0395049 0.0812586 0.127975 0.00338793 0.119157 -0.104009 -0.0259609 -0.105712 0.0449425 0.0101356 -0.109675 -0.0126288 -0.11611 0.0883373 0.00338725 0.0190039 -0.0154708 -0.0250125 0.0945962 -0.0422886 0.0233776 -0.000951306 -0.0647059 0.0767158 -0.0755422 -0.0858742 -0.0892562 -0.0463685 -0.00862483 -0.0128608 -0.00479204 -0.0376374 0.0245866 -0.0257747 -0.0124854 -0.0103101 0.0619091 -0.00419623 -0.0870572 -0.0235583 0.00673936 0.0366416 -0.0167638 -0.0672556 -0.0786555
could -0.0153615 -0.0218877 0.0786899 -0.0985891 -0.0207875 0.00362062 0.0059687 -0.0751612 -0.038346 0.000986896 -0.0798622 -0.0328396 0.0228762 -0.0141373 -0.0627715 0.0275224 -0.0702954 -0.0938102 -0.0473714 0.0343296 -0.0291333 0.0445527 0.113799 0.0146973 0.0243655 0.0222512 -0.0165579 0.119279 0.0252457 -0.0290529 -0.0331765 0.040255 0.0726024 -0.0206601 -0.0210168 0.0194989 -0.0308369 0.0114726 -0.00713084 -0.0555145 -0.020565 0.0111625 0.0099121 0.106042 -0.0639625 0.113823 -0.0552513 0.0603959 0.0942513 -0.000151651 0.108208 0.0561445 0.0928142 -0.0592418 0.0391631 -0.0245061 0.0546714 0.0208017 -0.0262809 0.0490444 0.0605992 -0.0212641 -0.108313 0.0197342 -0.108829 -0.065328 0.0353917 -0.108119 0.0348449 -0.0419724 -0.0310364 -0.0223501 -0.0422864 -0.0836722 0.0269677 -0.0247137 -0.0910825 -0.0905343 0.0975188 0.00401096 -0.0265542 -0.0807508 -0.130621 0.108968 0.0426141 -0.0136964 0.053452 0.0663146 -0.0503878 -0.102634 0.0439272 0.0367329 0.106948 -0.0712303 -0.0591565 0.0370844 0.0828904 0.0588866 0.0506462 0.0730488
would 0.0559248 0.035005 0.00647592 -0.0783041 -0.0464155 0.0232538 0.0500095 0.0245864 0.0799798 -0.0927857 -0.0219081 0.0712792 -0.0798021 -0.0744251 0.0723085 0.0560933 -0.0726924 0.0165682 -0.0142625 0.0730402 -0.0112202 -0.091588 0.0809207 0.00183412 0.0460594 -0.102509 0.0852221 0.0918457 -0.046066 0.0786265 -0.0424645 0.0482484 0.094029 0.0345392 -0.0706274 0.0154684 0.0124176 0.0211258 -0.0338857 -0.0370221 -0.0941008 -0.0610048 -0.00234443 0.00485473 -0.0262727 0.0152378 0.0264234 -0.00876978 0.0954967 0.0280665 -0.0138599 -0.0277553 0.00596279 -0.0376753 0.0727052 -0.010051 0.0329788 0.108078 0.0182976 -0.0122685 0.0419732 -0.0867869 0.00391936 0.0198465 -0.109448 -0.0503665 -0.0904275 -0.0806818 0.0279028 0.015362 -0.0363689 -0.00503906 0.00710264 0.0218397 -0.0843235 -0.000495944 0.000656344 -0.0972885 0.00533923 -0.0596498 -0.0668442 0.0318826 -0.0446938 0.102744 0.0665462 0.0922661 -0.104175 -0.0258236 -0.0859405 -0.00761849 0.065084 0.0414659 -0.0148872 -0.0714184 0.00396523 -0.0253556 0.0214999 0.055071 -0.0160069 -0.0410761
think 0.0283018 0.0521004 0.0498753 -0.133611 -0.0972464 0.0562265 0.00611713 -0.00318291 -0.100699 -0.068627 -0.0782075 0.0182697 -0.0109163 -0.0698775 -0.00245655 -0.0390439 -0.0504349 -0.0924078 -0.0674874 -0.0451159 -0.0972663 -0.0646658 0.0974314 -0.00030596 0.00553887 -0.078364 0.0675719 0.0824766 -0.0119099 0.000934521 0.0259213 0.0209432 0.00734256 0.0704997 -0.101981 -0.0338269 0.0498332 0.0497413 -0.0335114 -0.0311492 -0.0827318 -0.00441271 0.0649078 0.00256893 -0.0644081 0.0649872 -0.0367574 -0.0250741 0.117481 0.00646376 0.0788153 -0.0226795 0.000703227 -0.0828184 0.048494 0.0178618 0.0500844 0.108931 -0.0595199 0.0191588 0.098126 -0.0379237 -0.00159965 0.0675071 0.000305964 -0.0324492 0.00852171 -0.0661515 0.0364185 0.0205962 -0.0532609 0.0324756 -0.0809487 -0.0782666 -0.0770244 -0.0777173 -0.00840702 -0.0625148 0.0709797 -0.0684898 -0.100923 0.0340994 -0.0770669 0.0570385 0.0124173 -0.00968683 -0.00517813 0.0136894 0.0319447 -0.091221 -0.0254427 0.0933884 -0.0186732 0.022862 0.0397904 -0.0147171 0.0655307 0.0274834 -0.0787868 0.0703486
them -0.0410572 0.0381634 0.013532 -0.0290684 -0.0145791 -0.0979709 0.0492967 -0.0955291 0.0755243 -0.0739482 -0.103464 -0.0493674 -0.0749274 -0.0470168 -0.0253556 0.106551 -0.0148492 -0.0305251 0.0748627 -0.0335905 -0.0810523 -0.00505873 0.0194725 0.0731413 0.0295957 -0.0887253 0.088308 0.00710932 -0.039989 -0.020955 -0.0566111 -0.0287331 0.110964 0.0670981 -0.0758831 -0.090121 0.0439366 0.0695026 -0.0412466 0.0299251 -0.0497926 -0.109677 0.018605 -0.0015126 -0.0788856 0.0832259 -0.0870662 -0.0264516 0.086301 -0.0295597 0.011294 -0.0198857 0.0281096 -0.0354522 0.042843 -0.0199624 -0.00402302 -0.00121389 -0.0578992 -0.00210993 0.0233507 0.0363143 0.0125649 0.0709782 -0.0547698 -0.0414362 0.00739832 -0.0952239 -0.0243766 -0.0091144 -0.0756351 -0.0679926 0.000218144 0.0885928 -0.0926058 0.0279109 -0.0857441 -0.024422 0.0778072 -0.0782894 -0.0562543 -0.0561303 0.00229987 0.0852753 -0.0162705 0.0231063 -0.0885817 0.0145888 -0.00363847 -0.058031 0.0695924 -0.00342729 0.069368 0.00159201 -0.052466 -0.0657181 0.0737621 0.0138575 -0.0163421 -0.0590451
know -0.0342211 0.0404666 0.0229205 -0.0819209 -0.0623348 -0.0568569 -0.0106036 -0.10434 -0.0886224 -0.00201104 0.00434348 -0.0795388 0.0063213 -0.051976 0.0904148 -0.0513755 -0.00250858 -0.0646657 -0.00295364 0.0341569 -0.0930836 0.00295395 -0.0475869 0.0749645 -0.059443 -0.0435568 0.090273 0.0678548 -0.0301556 0.0710201 -0.0403478 0.0355232 0.0508106 0.0297027 -0.0890966 -0.117715 0.0458015 -0.0561449 -0.10225 -0.058094 -0.00782494 -0.0488458 0.0665363 0.0685533 -0.0427901 -0.0167825 -0.0431379 0.053794 -0.0138139 -0.00794751 0.0917758 0.00537501 0.0810933 -0.00362206 0.0582999 -0.00257585 0.00616534 0.000130129 0.015879 0.0199712 0.0498272 0.031938 -0.0342133 0.0726196 0.0149243 -0.0385491 -0.0748428 -0.105561 0.0954614 -0.00049722 -0.00874994 -0.0513198 -0.039153 0.0796424 0.00399543 -0.0538407 -0.0564129 -0.0263741 -0.000147995 -0.0186135 -0.093506 -0.011928 -0.119187 -0.0256649 0.113128 0.0874431 -0.0203034 -0.0429706 -0.0141534 -0.0677332 0.074882 0.0668606 0.0314666 0.0339852 0.0225371 0.0768929 0.0652281 0.0259574 -0.103677 0.0395645
rabbit 0.0317575 0.0745264 0.0451135 0.0341479 -0.0962243 -0.0700511 0.0994193 -0.0845848 0.0819677 0.0243367 -0.0307059 -0.0241948 0.0302421 -0.0258932 0.0708049 0.0331481 -0.0108505 -0.0619213 -0.00904088 0.0759853 0.0101768 0.00853051 -0.105126 0.0788491 -0.0345938 -0.0524467 -0.0435861 0.0874013 -0.117882 -0.00311439 -0.016189 0.108542 0.0133324 0.00424959 0.0491671 -0.109931 -0.0107752 0.00487341 -0.0653123 -0.0825832 0.0229825 -0.0856728 0.0935858 0.0295525 0.0825442 0.0879471 -0.0681941 0.0196818 0.0240288 0.0432837 0.0237169 0.0916685 0.0342824 -0.102253 0.0786308 0.0539004 0.0321379 0.04166 -0.0972126 0.0957916 -0.0891855 -0.0716634 -0.101739 0.0720264 0.00571772 0.0174045 -0.0481871 -0.0645099 0.0108552 -0.046689 -0.11336 -0.0796735 -0.0912595 0.0845466 -0.0891905 -0.102651 -0.0230051 -0.057378 0.0490704 0.0160332 -0.0646244 -0.0650585 -0.0419007 -0.0150888 0.109015 -0.0272808 0.0239915 -0.0173367 -0.00668178 -0.0358088 0.0603861 0.0906757 -0.00806414 -0.0898544 -0.00374065 -0.0662797 0.072058 0.0251887 -0.00163285 -0.0307393
dear 0.0601893 -0.023644 0.0557841 -0.104602 -0.0723645 -0.0280667 0.103236 -0.0381895 -0.0254838 -0.0169098 -0.00837744 -0.0715103 -0.0872395 -0.079318 0.0716216 0.00709219 -0.0164842 -0.0493309 0.00619654 0.0796635 -0.037652 -0.0626219 0.0207169 0.113611 0.0240545 -0.0430426 0.0877817 0.133166 -0.0874575 -0.00604235 -0.0212444 0.00499447 0.107568 0.0504762 -0.0462915 -0.0456225 0.0795112 0.0507966 -0.0681244 -0.0110237 -0.112929 0.000849352 0.132259 -0.0193713 -0.0184868 0.0376899 0.0219123 -0.00381274 0.00691225 -0.0232985 0.0976351 0.0311239 0.0425133 -0.114211 0.0457941 0.0323337 0.024203 0.0963716 -0.0264655 -0.00935152 -0.0251048 -0.0954023 -0.00100315 0.0871978 -0.0957684 0.00957835 -0.0576642 -0.0122395 0.0246978 -0.0877935 -0.0266445 0.0191932 -0.0471714 -0.0194422 -0.0718902 -0.0519926 -0.0545723 -0.049402 -0.0193441 -0.0324733 -0.0914509 -0.0601565 -0.0850987 0.0270073 0.105834 0.042057 -0.0247697 0.0498524 -0.114524 -0.112036 0.113199 0.0514586 0.0105473 -0.0166471 -0.0729505 0.0290105 0.124335 0.0697693 -0.0740052 -0.0475021
were 0.0957646 0.0760877 -0.0124402 -0.0762048 -0.10458 0.0328799 0.0999856 -0.0051308 0.0977092 -0.0212701 -0.0116775 0.0168141 -0.076842 -0.0582568 0.0191795 0.0721727 0.0287033 -0.0345911 -0.0111551 0.0661841 -0.0827875 0.0317531 0.0470886 0.0159717 -0.0100455 0.012214 0.00992945 0.00265435 0.010779 0.102312 -0.00318909 0.0832319 0.0963001 0.122503 -0.0294646 -0.0978618 0.0876876 0.0554034 0.00023508 -0.0836167 -0.0641928 -0.0266427 0.0525959 0.0430591 -0.0314348 0.0347382 -0.0721983 0.0743066 0.100951 -0.0577824 -0.0105014 -0.00417586 0.0513151 0.0273136 -0.00988006 0.00459504 -0.015383 0.0410938 0.0314945 0.0668995 -0.00276233 -0.0125673 -0.0793236 0.0833363 -0.0392626 0.0297109 -0.0694937 -0.0912812 -0.0512125 -0.0197724 -0.0903885 -0.0263226 0.00435452 0.0247534 0.0226321 0.00954692 -0.00223503 -0.102863 0.0667465 -0.0637672 0.000486971 0.026949 -0.0371507 0.0297036 0.0425988 0.0983494 -0.0310566 -0.0267755 -0.0513584 -0.0618297 0.102188 -0.0197085 -0.0117495 -0.104241 0.0390732 -0.0372298 0.0885474 -0.00364917 0.00717491 -0.0225821
time 0.0145467 0.0763401 -0.0142816 -0.0408603 0.0199408 -0.0088809 0.0609485 -0.0312915 -0.0356444 0.00711913 -0.015956 0.102336 -0.0582607 -0.0207744 -0.0241885 0.0985949 -0.0349166 0.0242553 0.00348953 -0.0271714 -0.0562272 -0.0381847 0.0332618 0.0656655 0.0210536 -0.068808 -0.0274898 0.0737316 0.0333408 -0.0120183 -0.0637486 0.0961247 -0.0281843 -0.00639485 -0.054239 0.00818733 -0.0510964 0.0608042 0.0106757 -0.0433035 -0.0165694 -0.080755 0.0742418 0.0904772 0.0247745 0.0628444 -0.0139487 0.0461351 0.0414075 0.0223587 0.0251693 0.00355339 0.0580063 -0.00540495 0.0092687 0.0348771 0.0792038 0.0127148 -0.0747624 -0.0439458 0.0289692 0.0214813 0.0220041 0.0832719 0.0166307 -0.0369859 0.0414298 -0.0157585 0.090467 -0.0800337 -0.0714544 -0.0816631 -0.0828447 -0.00437298 -0.0140654 0.00836078 -0.100073 0.00573841 0.0947587 -0.0673267 0.056042 -0.0884086 -0.0486412 0.033975 0.00832631 -0.0274268 -0.0853251 0.0560129 0.0689106 -0.0145717 0.0922249 0.057224 0.00526883 0.0411691 -0.074739 -0.0633025 0.0799831 0.0740147 0.0113149 -0.031962
get 0.0445867 0.0210983 0.0543121 -0.0845378 -0.113428 -0.0644687 0.00342641 -0.0635579 0.041939 0.017273 -0.056108 0.0763547 -0.0096855 -0.0352882 0.0156439 0.0298217 0.0128248 0.00474933 0.0886468 0.03975 -0.113412 -0.0119909 0.0406035 0.117199 0.0281235 -0.0949265 -0.0342929 0.0123454 -0.0695089 0.0586811 -0.0155844 0.0105133 0.0182296 -0.00413392 -0.0045283 0.003251 0.0927278 0.0784615 -0.0403928 0.00499391 -0.0553468 -0.0626196 0.05533 -0.0294543 -0.0436416 0.0427758 -0.0638914 -0.0330972 0.0688438 -0.0277354 0.0891777 0.0347846 -0.00127068 -0.0920794 0.014952 0.0987882 0.00473697 -0.0268316 -0.0976892 0.0660055 -0.101247 0.0017261 0.00691643 0.0542566 -0.0435104 -0.0652355 -0.0015714 0.00502313 0.0847139 -0.110438 -0.000898171 0.00179914 -0.0192281 0.112945 -0.0747649 0.0115487 -0.0896898 0.00472298 0.0535192 -0.114206 -0.110914 -0.0105579 -0.0794923 0.0115044 -0.00672021 0.0935176 -0.0181559 0.09276 -0.0669457 -0.00394152 0.0307594 -0.0270689 -0.0191701 -0.0941238 -0.0544616 -0.100046 0.00790332 0.0909863 -0.0216699 -0.01885
here 0.0678058 0.0433014 0.0390202 -0.105029 -0.0378016 -0.0641116 -0.0247948 -0.0341787 -0.0324265 0.00950295 0.00530749 -0.0557215 0.0257357 -0.0841886 0.070072 -0.0319441 -0.0786251 -0.0461924 0.0382248 0.00130464 -0.0654722 -0.0812456 0.0349401 -0.0176132 -0.0156566 -0.0861377 0.0197025 -0.00675632 0.00965476 0.022317 0.0360291 -0.0263184 0.0928064 0.0798762 -0.00932267 -0.1031 0.0298333 -0.0260268 0.0122127 -0.10867 -0.0994879 -0.0552449 0.00638211 0.082807 -0.0289986 0.0971215 0.0136486 0.0775901 0.0645512 -0.0968708 0.0865367 0.0853419 0.0100747 0.0147041 0.0754979 -0.0243144 0.0515869 0.0551038 -0.0632834 -0.0260759 -0.081045 -0.0788914 0.00930025 -0.00954174 -0.0185914 0.00549577 0.0123887 -0.0332657 -0.0430995 -0.0671319 -0.0718805 -0.0152424 0.0191557 0.0954473 -0.0313166 -0.0158547 0.0236352 0.0122979 0.0251952 0.042199 -0.0675038 0.022707 0.0205268 0.0863173 0.0347715 0.0565931 -0.0341513 0.0668486 -0.0676895 -0.0111173 0.0879276 0.0743858 -0.0260616 -0.0847836 -0.0695214 -0.0678277 -0.0252905 -0.0172781 -0.024858 -0.0617297
must 0.014982 0.000364383 0.10705 0.0205152 -0.0824578 0.0370654 -0.0306747 0.0273119 0.0523162 -0.0186531 0.0121577 -0.0670582 -0.102877 -0.0153346 0.000438578 -0.036452 -0.0310997 0.0374671 -0.0543217 0.0757566 -0.00627603 -0.075007 -0.0575485 -0.0316394 -0.0369619 -0.013735 -0.0097252 0.00393957 -0.0173931 -0.00972732 -0.0744135 0.0513254 -0.0376244 0.0602571 0.0294877 -0.0362155 0.0152405 0.02928 -0.108572 -0.0296262 -0.0931467 -0.00452052 -0.00196869 0.0748513 -0.0213266 -0.00262809 0.00848101 0.0754515 0.0224201 0.0113932 -0.0282877 0.0214512 0.0748772 -0.0382525 0.0278323 -0.0486629 0.0618562 -0.0176891 -0.099435 -0.0255389 0.0820124 -0.00754437 0.0290539 0.0180242 -0.0940993 -0.0692706 0.028335 -0.108695 0.0237308 0.00772614 -0.104831 0.0421257 -0.0181106 0.0490022 -0.0340002 -0.0216591 -0.0343448 -0.0457001 0.0100692 -0.0789533 -0.00951922 0.0279605 -0.0616617 -0.0530141 0.116061 0.0122868 0.047115 0.070796 -0.0327729 -0.115756 0.0251306 -0.00644254 -0.00970051 0.0415728 -0.0706525 -0.0234543 0.0407515 0.011822 -0.0300737 -0.0137783
my 0.0465548 0.0212074 0.0526827 -0.0624065 -0.0675057 -0.0404047 0.0629813 -0.00285541 -0.00658945 -0.0642505 0.000750575 0.0454769 0.000772015 -0.0621706 0.0280055 0.048442 -0.101655 -0.089584 0.0208443 -0.0241969 0.0182039 0.0206465 -0.0735398 0.0836701 -0.0955559 0.00560324 -0.0021172 0.0988063 0.0160121 0.0675589 -0.00150943 0.0908049 0.0450785 0.100796 -0.082532 0.0191858 0.0929544 -0.00714543 0.00333298 -0.00551328 -0.114066 -0.0587682 0.0491718 0.102269 -0.102496 0.0724808 -0.0137135 0.0466722 0.097578 -0.0542205 0.0321773 0.0791774 -0.0119538 -0.102473 0.0427509 0.105547 0.108369 0.0938795 -0.0803169 0.0310777 -0.0315061 -0.0194717 -0.108564 0.0518059 -0.0674333 -0.0342768 -0.124837 0.00251931 0.0578516 -0.0453168 -0.11381 -0.024989 -0.0927196 -0.0227497 -0.00907519 0.00452287 -0.0670249 -0.00039859 -0.0221523 0.0115217 -0.0893337 -0.0282351 -0.0800481 0.0830012 0.0292421 0.0564296 -0.0646709 0.0623071 -0.0167147 -0.0382758 0.00282843 0.0769906 0.0139618 -0.077818 -0.0659739 -0.0496469 -0.0058607 0.05104 -0.079796 -0.0811324
by -0.00454289 0.0814067 0.0431943 0.00198447 -0.0110529 0.0404421 -0.00779346 -0.103497 0.0236162 -0.0048164 0.016073 0.0985081 -0.0528048 -0.0191102 0.0894992 0.0404603 -0.0440275 -0.0184415 0.0174999 0.0748341 0.00358564 -0.0568699 -0.0780565 -0.0112424 -0.0248439 -0.0269716 -0.00187828 0.0798741 0.0113229 0.065455 -0.0141299 -0.00957941 0.100462 0.0276058 -0.0355366 -0.0642154 0.0253912 -0.0283991 -0.00172442 -0.0863156 0.00891108 -0.0455825 -0.0102047 0.0771564 0.00237621 -0.00129374 0.0021671 0.0855084 0.0775712 -0.0439249 0.0330837 0.00385224 0.0260599 -0.0347525 -0.0248432 0.00432543 0.0109341 -0.0281041 -0.0325344 0.01049 -0.0879295 -0.100646 -0.0780868 0.0295683 -0.00222348 -0.0606646 -0.027112 -0.0447567 0.0537189 -0.0623658 -0.0771224 -0.0877206 0.0397393 0.00385785 -0.0242691 -0.107861 -0.0363039 -0.0661249 0.0594501 -0.000172946 -0.0347648 -0.0348403 -0.0742313 0.0278561 -0.0100045 0.0861942 -0.0254058 0.0992493 -0.0582029 0.0221241 -0.020402 -0.0171145 -0.0302359 -0.106172 -0.0135178 -0.0125101 0.0376101 -0.00475086 -0.0818856 -0.0972973
into -0.0252276 0.0722754 -0.0303819 -0.0722644 0.00411839 -0.0538118 0.0479633 -0.0462405 0.107819 -0.0580135 -0.11314 0.0464434 0.0522635 -0.0317818 0.101757 0.0617663 0.00517482 -0.0465563 0.0329772 0.00719168 0.0224366 0.0120534 -0.101813 -0.00972022 0.00472236 -0.0880971 0.0446295 -0.00207507 -0.0848517 -0.012115 0.0156162 0.0378458 0.00136624 -0.0191562 -0.0879639 -0.00975689 0.0635885 0.0203852 0.00158259 0.0030206 -0.0824154 -0.0981655 0.0644429 0.0933446 -0.0718061 0.0884792 -0.114738 0.0446418 -0.0431448 0.00664628 -0.0312075 0.00841061 -0.00534992 0.00953568 0.0634237 0.0524798 0.0462718 0.0146813 -0.11325 0.0218515 -0.0660642 -0.024308 -0.0703482 0.0170965 -0.101846 -0.0362367 -0.0357008 -0.114145 0.0054377 -0.0732239 -0.0577407 -0.000441461 -0.0500333 0.102632 -0.0500251 -0.085123 -0.0205 0.030904 0.0658582 -0.0369313 -0.0145801 -0.0641362 -0.0266342 0.104914 0.0836163 0.00298183 -0.0911803 0.0606782 -0.00842695 0.00458015 0.117132 0.000505084 -0.0262625 -0.0179793 0.00749761 -0.0566903 0.00591432 0.00282523 -0.0434963 -0.0639184
found -0.0404156 0.00532291 -0.00351932 -0.00251341 0.0417999 -0.103467 0.0135138 0.0330107 -0.0216338 -0.0214091 -0.00265206 0.0453944 -0.0532855 0.00882858 -0.0289465 0.0700999 -0.0511122 0.0119357 0.0686599 0.0582262 0.0300327 0.0266079 -0.0228247 -0.0574992 -0.0428297 0.0241573 -0.065387 0.0317671 0.0437838 0.0728316 -0.0487276 -0.0486825 0.0216991 0.0468566 -0.0397815 0.00489438 0.018299 0.10656 -0.0590346 0.0407246 -0.0891975 -0.00109688 -0.0607067 -0.00861839 -0.0461428 0.000302672 -0.0782886 -0.00511638 0.0859518 -0.0392249 -0.0282223 -0.0136098 0.0751098 0.0144062 -0.0262456 0.0951852 0.0521076 -0.012575 -0.0291175 0.067155 0.0361472 -0.0390346 -0.0578174 -0.0127665 0.0172872 0.0183533 -0.0212392 0.0262184 -0.0431661 0.0170304 -0.0109808 -0.029638 -0.0945534 0.0194354 -0.0582893 0.00766001 -0.00966211 0.0663832 0.0753562 -0.0402013 0.0243951 -0.0828987 0.0116509 0.0248662 0.050788 0.000440704 -0.0733661 0.0555408 0.0415221 0.0105517 0.0763595 0.0474758 -0.0312881 0.0337066 -0.0412862 -0.0161713 0.0507904 -0.028362 0.0572947 -0.0126543
such 0.00271176 0.122109 0.0627835 0.0221819 -0.0486142 -0.026555 -0.0123321 -0.0822154 0.124584 -0.0258408 0.0161835 0.0891189 -0.0528562 -0.069269 0.0192935 0.0182005 0.021968 0.00269347 0.0522025 0.0606488 0.0369431 -0.0569929 -0.0315351 -0.0336054 -0.0630966 -0.0754112 0.0841803 0.0391001 -0.0610855 -0.00957954 -0.0306563 0.0922306 0.124411 -0.0132105 -0.0768251 -0.0494989 0.00142897 0.0914721 -0.0747525 -0.0173472 -0.103752 -0.00107023 0.106167 -0.0272924 -0.064778 0.0234461 0.00490694 0.0464628 0.0500735 -0.0237049 0.115508 0.0979313 -0.00446555 -0.077074 0.0658811 0.0887545 0.0402235 0.0053792 -0.0440404 -0.00563809 0.0165012 -0.00336943 -0.0536303 0.0773801 0.0165905 -0.0140002 0.0208598 -0.0459479 0.0626338 -0.029309 -0.00959261 -0.0490701 -0.0782308 0.0187801 0.0207842 -0.060868 -0.0630445 -0.0124811 0.0249222 -0.109836 -0.0846835 -0.0603038 -0.0866114 0.0688104 0.0243847 0.0345778 -0.0254756 0.0507128 -0.0857163 -0.0372001 0.053277 0.00203283 -0.0345578 -0.00375137 -0.076029 -0.0137125 -0.0141115 0.0203831 0.0113305 0.0306562
began 0.0164496 -0.02805 0.092418 -0.053923 0.0250479 -0.0841127 0.0801705 0.0403161 0.0206048 -0.055843 -0.1012 0.0666613 -0.0687259 -0.0690506 0.0767152 0.0843663 -0.0742062 -0.03631 -0.0256828 0.0298703 -0.0293088 -0.0967262 -0.0093774 0.0369456 0.0226814 0.0184017 0.00133966 0.0268306 -0.0580876 -0.000387469 -0.0133967 0.0114666 0.108639 0.0244778 -0.0319862 -0.0738237 0.0363713 -0.0118573 -0.0283454 -0.0534836 -0.00700099 0.0356184 0.00614304 -0.0111996 0.00996251 0.00971312 -0.0600448 0.10036 0.0742441 -0.115922 0.0537698 0.0326849 0.077686 -0.113206 -0.00931624 0.00732742 0.0971402 0.0287658 -0.0185392 0.000401319 -0.00187719 0.00159883 -0.0906477 -0.0185038 -0.0283986 -0.0685599 -0.059035 0.0117797 -0.0185162 -0.0206894 0.00671266 -0.0937975 -0.0948345 0.0655121 -0.0309419 0.00768259 -0.0623346 0.00811251 0.0181711 -0.0431276 -0.0383149 -0.0887362 -0.0411454 0.0969603 0.054815 0.0710695 -0.00198022 0.0782478 0.0240659 -0.040016 -0.0265819 0.0915385 0.0427103 -0.0211148 -0.0179184 -0.0456971 0.0903573 0.0231046 -0.0425537 -0.0613878
soon -0.00960396 0.0801687 0.0379389 -0.0158016 -0.0293579 -0.0258245 0.0502453 0.0291117 0.0114355 0.0320723 0.0253586 0.0624357 -0.0216812 -0.0508689 0.011533 0.0698459 -0.000123912 -0.0141622 -0.0129635 0.0729487 0.015959 -0.00425867 0.0780868 0.0106877 -0.036988 -0.0723858 -0.0353576 0.00363738 0.0243903 0.0199806 -0.0858011 -0.0187971 0.0477376 0.0632715 0.00781938 -0.000305234 0.0576397 0.0446872 -0.100088 -0.0729376 0.0315521 -0.0825624 -0.000601569 0.00339692 0.0064412 0.066757 -0.0638428 0.0222263 0.0252136 0.00237532 0.0635671 0.105852 0.0825477 0.0207018 0.05566 0.0258232 0.0864333 0.0588684 -0.0705857 0.0599425 -0.0516429 -0.00231205 -0.0242846 0.0791493 -0.113432 -0.103316 -0.0379049 -0.0518806 -0.0128525 -0.0118165 -0.068923 -0.015115 -0.0833592 0.0709765 -0.0482232 -0.109299 -0.000916954 0.0282738 0.0309748 -0.0502432 -0.0207126 -0.0260615 -0.0284274 0.0686197 0.101438 0.0851638 0.0197227 0.0520948 -0.0223237 0.0298208 -0.0105934 0.0841076 0.0398258 -0.00800777 -0.103365 -0.0727998 0.0488221 0.00469705 -0.0365118 -0.0766269
m 0.0253346 0.0874529 0.00114927 -0.10551 -0.059458 0.00555677 0.0760409 0.0223735 -0.0429156 0.00623634 -0.0815201 -0.114985 -0.011774 -0.0185744 0.0616602 0.00205335 0.0155683 -0.0919668 -0.0657841 0.0046087 -0.0228816 0.000220809 0.0673 0.0980557 0.0390078 0.00959314 0.0653651 0.106672 -0.0424055 0.0151912 -0.0707713 0.086415 0.0635508 0.0394493 -0.0812167 -0.0558685 0.0329279 -0.0292077 -0.0301914 -0.0205226 -0.0239381 -0.0841005 0.00384017 0.058049 0.102798 -0.0846417 -0.021117 0.110239 0.115383 0.0018337 0.113413 0.069092 0.0504466 -0.0691732 -0.0714711 0.038377 0.0810685 0.0651902 -0.0675615 -0.0485443 0.0257938 0.0551773 -0.0424012 -0.0127849 -0.0498812 -0.0588216 -0.0646129 -0.019819 0.119987 -0.0184835 -0.0838142 0.00324874 -0.0445767 -0.0724871 0.00677359 -0.107941 -0.0963431 0.0189222 -0.0195286 -0.029722 -0.121402 -0.0853119 -0.0728109 -0.0614445 0.017034 0.0470341 0.0842765 0.0240684 -0.0330423 0.0180204 -0.0267537 -0.0329639 0.0759467 0.0101635 -0.0554275 0.0550963 0.111338 0.051567 -0.083367 0.0243014
quite 0.00203924 0.106572 0.0918128 0.0207349 -0.0576683 -0.0744214 0.0805852 -0.0731093 0.0174313 0.0446373 -0.0431465 0.019727 -0.0251935 0.0192235 -0.0291731 -0.00773495 -0.00835938 -0.076209 -0.0189506 0.0869807 -0.0769316 -0.0370945 -0.00122019 0.00571313 0.0648239 -0.0034762 0.0232547 -0.0404306 -0.0197622 -0.0331115 -0.0830557 0.0316661 0.100632 0.0305775 -0.0375866 0.0170418 0.0148126 0.0821537 0.0213353 -0.0755828 0.0207975 0.0287782 0.00721058 -0.0124194 0.00865788 0.0507194 -0.0467658 0.00667231 0.0103354 0.00244358 0.0537442 0.0697662 -0.0285942 -0.0620351 0.0395206 0.0169445 0.0168536 0.0828346 0.0078951 0.0859173 0.0252484 -0.0594338 -0.0796555 0.00533021 0.00598048 -0.060684 -0.000940595 -0.033076 0.0298608 -0.0336328 0.00845017 -0.0152764 0.0165056 -0.0200988 -0.0673314 0.0275501 0.0200272 0.029196 0.0526147 -0.098929 0.0289238 -0.0601822 -0.107647 -0.00859887 0.0360191 0.0813871 -0.0832785 -0.0170643 0.0330881 -0.0310093 0.0390226 0.0315405 0.0601522 -0.091789 0.0219177 -0.0969755 0.0706705 0.0408036 0.0437738 0.00879389
then 0.0221401 0.0772753 0.0301013 -0.0149134 -0.0621213 -0.0490043 0.00583857 -0.00129804 0.042278 -0.0531374 0.0146919 -0.0446635 -0.0712158 0.0364379 0.0487399 0.0615973 -0.0408637 -0.102583 0.0755283 0.0612648 -0.0559524 -0.0495724 -0.0320645 0.0373097 0.0495021 0.0128789 0.0174169 -0.0198541 -0.0776524 0.0381809 -0.0314141 0.0127163 0.10042 0.0599844 -0.0916134 -0.0592698 -0.0164754 0.0357208 -0.011364 0.0177503 -0.0974277 -0.0568936 0.0588385 0.0306255 0.00788907 0.0700391 -0.0872171 0.00547884 -0.00607181 0.0127188 0.0123418 0.0594537 0.104709 -0.0516952 -0.031451 -0.0240227 0.0752999 0.0474548 -0.000556222 -0.0364271 -0.0317498 0.0287742 -0.0841585 -0.0470671 0.00547198 -0.0221329 -0.0775242 -0.103738 0.015079 -0.0757568 -0.0693299 -0.0599467 0.0356985 0.026817 2.12937e-05 -0.00795679 0.00332692 0.00176345 -0.014024 -0.0800256 -0.0272044 -0.0782168 0.00223521 0.0491182 0.00539966 0.0105744 -0.0182996 0.0396773 -0.0452413 -0.0419876 0.0671167 0.0513441 0.04201 0.0167777 0.0225093 0.0232454 -0.000110235 -0.0241377 0.00471901 -0.035684
off -0.0273991 -0.0106164 0.0386984 -0.0322473 0.0129297 -0.090668 0.0603239 -0.0887446 -0.019433 0.0138568 0.005018 0.0392197 0.0160788 -0.0251749 -0.00728985 -0.0220209 -0.0209032 -0.0842279 0.0742606 0.0311421 -0.0362178 -0.0917319 -0.00393304 0.0726103 -0.0195712 -0.0556318 -0.0485802 0.0988007 -0.0113563 0.0597904 0.0138669 -0.0385562 0.0533569 0.0372942 -0.0193677 0.00948757 0.0494799 -0.0070222 0.0404563 -0.055202 -0.0291399 -0.0609468 0.0730437 0.0516833 -0.0450921 0.000947599 -0.0615055 0.0500708 0.0779535 -0.093475 -0.0116068 0.0240671 0.0360047 -0.0169249 0.05211 -0.0187448 0.0563904 0.0416127 -0.0640702 0.000490665 0.0247062 0.0356716 -0.0350648 0.0846054 -0.0655883 0.015712 0.00510155 0.00347603 0.0130105 -0.00217626 -0.0123816 -0.06262 -0.031357 0.0580335 -0.0842537 -0.0540824 -0.0521884 -0.0834648 0.0426424 -0.091038 -0.0648632 -0.038418 -0.0857478 0.041923 -0.0361618 0.0471496 -0.011833 0.0454698 0.0175625 -0.0393747 0.0543589 0.0663297 0.0695642 -0.0711372 -0.0102713 0.0241819 0.0367934 0.0555995 0.0325098 -0.040745
now 0.0290503 0.0389464 0.0292362 -0.0724842 -0.0654491 0.0217664 0.0158868 -0.0409918 0.0841128 0.0136406 -0.0359219 -0.0352951 -0.0703736 -0.0213241 -0.044088 0.0414581 0.0260964 -0.0425278 -0.0440024 0.0780129 -0.0155372 0.0101434 0.0399214 -0.0140618 0.0446602 -0.0383821 -0.0128255 -0.00481469 -0.0329131 -0.0554885 -0.0428365 0.0324007 0.0789748 0.0727679 -0.0545189 0.00172487 -0.0164585 6.43997e-05 -0.0569328 -0.0609199 0.0387186 0.0355648 0.0702289 -0.0248445 -0.0278108 0.000742081 -0.0559872 -0.0449103 0.0812975 0.0203799 -0.0309902 0.0597491 -0.0224032 -0.0713162 -0.00678653 0.0320938 0.0029867 -0.00127557 -0.0857158 0.00193927 0.0410575 0.0328602 0.0267267 0.0228243 -0.0956812 0.00240146 -0.028132 -0.0607591 0.075792 0.0119017 -0.0350908 0.00140574 -0.0177805 -0.0480454 -0.0285876 0.0122427 -0.0923162 0.00952807 -0.00790834 -0.000594282 -0.0236039 -0.097336 -0.0875029 0.0613407 0.0395576 0.0313132 -0.0733132 0.0156258 -0.0629951 0.0547051 0.017287 -0.01796 0.0707943 -0.0608586 -0.0535214 0.032083 -0.025928 0.0469387 0.0176866 -0.0418271
go 0.0462345 -0.0468493 0.0194753 -0.0905814 -0.108995 -0.0565898 -0.0464508 -0.0715792 0.0722076 -0.0219779 -0.0502694 0.051713 -0.0950596 0.0106801 0.0784697 0.0773546 -0.0899406 -0.0694933 0.0469786 0.0307919 -0.099333 -0.0865915 0.0302328 0.0427513 -0.0114751 -0.0590071 0.0200183 0.0275717 0.000965992 0.0120745 -0.0643604 0.0888986 0.0635019 -0.0270652 0.0182446 -0.0643089 0.0836264 0.053895 -0.0817654 -0.0535746 -0.0539711 -0.0602023 0.0487684 0.0323141 0.00462089 -0.0669763 -0.0963185 0.0432771 0.0500248 0.0044298 -0.034788 0.00644211 0.0868496 -0.0543917 -0.0479299 0.10169 -0.00900371 -0.0348688 -0.043576 0.0990384 -0.0607169 -0.0313326 -0.0533348 -0.0362273 -0.018426 -0.0318825 0.0338464 -0.0753299 0.00480009 -0.00305739 -0.0717169 -0.0883311 0.0226046 -0.0123041 0.0178762 0.0261279 -0.0706703 -0.0111896 -0.0142973 -0.0419445 -0.00728423 -0.00946342 -0.0614677 0.0391944 -0.00952574 0.0378171 -0.050695 -0.0297296 -0.035362 0.040459 0.116573 0.0532785 0.0890769 -0.0332121 -0.036742 0.0154783 -0.022594 0.0331448 -0.0644212 -0.0444818
say 0.0575482 0.0764336 0.058451 -0.0280479 0.0188843 -0.0708331 0.00584058 -0.0174576 0.0753641 -0.0798519 -0.00222856 0.0891593 -0.0888566 -0.0884434 -0.0240251 -0.0104095 -0.0179549 -0.0303255 0.0437805 0.0013846 0.0136969 -0.0872589 0.0293757 0.0935957 0.00559879 0.000281007 -0.0569082 0.0282472 0.0363437 0.0406851 -0.0189989 -0.024063 0.0584784 0.0675286 -0.0324058 -0.013925 0.0711379 0.085871 -0.00752981 -0.0214249 -0.0122173 -0.0937356 0.0311212 0.0896463 0.016048 -0.0495357 -0.0963869 0.0270416 0.0305201 -0.0287157 -0.030316 0.0840872 -0.00206596 -0.0282767 0.092787 -0.0210351 0.0259577 -0.0232528 -0.0332482 0.0416931 -0.0550787 -0.033796 -0.0543102 -0.0252254 0.012515 -0.0843751 -0.0301872 -0.104027 -0.0218794 -0.0548227 0.0344187 -0.0979936 0.0232292 0.0762212 -0.0109392 0.0234286 -0.0601845 -0.069977 -0.00524227 0.0191059 -0.0325532 -0.103482 -0.0221875 0.0669101 -0.0228638 0.0401527 -0.0306312 0.115351 -0.0483086 -0.0263414 0.108622 -0.00331935 0.0370151 -0.0668398 -0.0929151 -0.077989 0.0883165 0.0820372 -0.0457176 -0.0357941
have 0.0180741 0.0146412 0.0898295 -0.0759251 -0.107276 -0.0888518 -0.0122448 -0.00123953 -0.0469571 0.0179036 0.0138435 0.0239529 -0.0973873 -0.10598 0.0213088 0.0471131 -0.00167158 -0.113344 0.0368912 0.0557858 0.00392891 -0.0178277 -0.0655616 0.0491886 -0.02996 -0.064956 0.0673634 0.018413 -0.0610697 0.044222 -0.103011 0.065837 0.0493855 -0.0265416 0.00596055 -0.0103615 0.0775685 0.109839 0.00559811 0.0113488 -0.103436 -0.00459016 0.0650785 -0.0328513 0.00797149 -0.0404998 -0.0111431 0.0563914 0.115206 0.0345671 -0.0225253 0.0864348 0.0998528 -0.100121 0.00261122 0.0517409 0.0297496 0.0230748 -0.1076 0.0323807 -0.021446 -0.0739956 0.0264399 0.0298804 -0.0801926 0.0106238 0.035198 -0.0595916 0.046288 -0.00956252 -0.0972125 -0.0221481 0.0338282 -0.0100555 -0.0571785 -0.0571766 -0.0480892 -0.0202656 0.0117455 -0.102697 -0.0261329 -0.092339 -0.0704749 0.0184231 0.0517059 0.0934512 0.00737688 -0.00897349 -0.00243359 -0.0727445 0.069296 -0.0170465 0.0143848 -0.027591 -0.0119121 -0.0744774 0.0838828 0.0833685 -0.0984876 -0.0878467
which -0.00982452 0.00354103 -0.00389122 0.0351431 0.0195349 -0.0888117 0.0484372 -0.0373195 0.0357286 -0.064322 -0.00663846 0.097751 -0.00369081 -0.105253 -0.0213 -0.000418916 -0.0497144 -0.0841949 -0.00244288 0.0674087 -0.0448445 -0.00681474 0.0230037 -0.00234543 0.0051239 -0.104978 -0.0326395 0.00312067 0.0111161 0.0691371 -0.00604104 0.0930403 0.0898826 0.0585533 0.0412888 -0.0239608 0.0834212 0.0302654 -0.0534378 -0.0293771 -0.0605278 -0.103425 0.0373453 0.0163485 0.0234097 0.012512 -0.0270147 0.0712329 0.00393834 0.0286783 0.0305716 0.0595586 0.0542221 -0.0654076 0.0343075 -0.00124363 0.0804183 -0.00838775 -0.0227907 0.0198218 0.00823368 -0.0151474 -0.0165493 -0.00810847 -0.0519521 -0.0242981 0.0367602 -0.0904688 0.09732 0.00349448 -0.0795141 -0.0594361 0.0251351 0.00392455 -0.0689516 -0.0611502 -0.0183966 -0.00873512 0.0903213 0.032714 0.004743 -0.0785922 0.0411462 0.000708891 0.0535534 0.0737056 -0.0569363 0.070134 -0.000439687 0.0240432 0.0223832 0.0527597 -0.0185868 0.0194587 -0.077605 -0.0242147 -0.0256418 0.0307408 -0.06068 0.00618187
come 0.0607086 0.0356267 0.0576233 -0.0998381 -0.00295617 -0.019801 0.0327568 -0.0105367 0.0709819 -0.0965998 -0.0570316 -0.0363213 -0.0904679 -0.0555186 0.088455 0.0831374 0.0131508 -0.0410368 0.00246063 0.0310938 0.00451856 -0.00674003 0.0186348 0.107218 -0.0262666 -0.0684368 0.0564762 0.0462418 0.0251964 0.0584563 -0.0354234 -0.0275717 0.0208069 0.00824537 -0.087964 -0.0369112 0.0353269 -0.0118247 -0.0725034 -0.0754945 -0.0706603 -0.105839 0.0162219 0.0911522 -0.0226728 -0.0189189 0.0167207 0.0623106 0.0382091 0.0114443 0.0327463 0.0250226 -0.00186524 -0.0334531 -0.0269576 0.0117932 0.069556 -0.00856515 -0.00290572 0.0692578 0.0157182 -0.01407 -0.00535577 -0.0129378 -0.0274657 -0.0338273 -0.0332666 -0.0444657 -0.0126203 -0.0648913 0.000267766 0.0154327 -0.0343025 0.0182262 -0.0531 -0.034511 0.00157601 0.0288537 0.0141317 -0.01539 -0.0583351 0.0170334 -0.0755442 0.0809939 0.0395924 0.0231539 -0.0749757 0.0925884 -0.0790576 0.0320766 -0.00744711 0.0730788 -0.0148519 -0.0866845 0.0323498 -0.0738064 0.00261976 0.0236923 0.0253426 -0.0264101
dinah 0.0428324 0.0734701 -0.0133751 -0.0866339 -0.0117763 -0.000533143 0.0472042 -0.0299694 0.0326 0.00587141 -0.109142 -0.0213826 0.0257164 -0.0480429 0.101575 0.00261174 -0.0861172 -0.0843961 0.0414517 -0.0370395 -0.0167791 -0.020647 -0.0107822 -0.0228699 -0.0816622 -0.0696822 -0.0221065 0.0156038 -0.071198 0.0180597 -0.0553094 -0.0142329 0.0741306 -0.00620768 -0.105186 -0.0712946 -0.0238264 0.0411899 0.00720276 -0.0752316 -0.0496809 0.016992 0.0241542 -0.0197496 0.0357618 0.0337042 -0.0202372 0.0462571 0.103235 -0.0834043 -0.0163085 -0.0384356 0.0989987 -0.0301559 0.00979947 0.014986 0.0670172 0.0958585 -0.0179338 0.0382975 0.030802 0.00908307 -0.0967624 0.0202726 0.000102236 0.00173615 -0.0656433 0.0245804 -0.00140322 -0.00345212 -0.0327221 -0.0955642 0.0206001 0.054749 -0.0519395 0.0152414 0.0152584 -0.0214662 0.0340088 0.0297966 -0.0494019 0.0194083 -0.0203238 0.0268178 0.0857065 0.03145 -0.0417123 0.10003 -0.0618313 -0.0224701 0.00739484 -0.00398946 0.0842267 -0.078217 -0.0190989 0.0325579 0.0718674 0.0180806 0.0201298 -0.0789744
your -0.00771358 0.0955995 0.106774 -0.0711839 -0.0801734 -0.0150317 -0.053043 -0.0332963 0.068809 -0.0347635 -0.040944 0.0139216 -0.032437 -0.0496998 0.0960073 0.0174414 -0.0669334 -0.0793871 0.0672661 -0.00604379 -0.0701515 -0.091377 0.0134108 0.10801 0.0216841 -0.0968405 -0.00651717 0.0491386 2.13815e-05 -0.0294136 0.0129905 0.0187268 0.0809555 0.0468309 0.0274998 -0.0591359 0.110616 0.0497172 0.00170741 -0.00952906 -0.101044 -0.0562841 -0.0128666 0.101726 0.0316206 0.061527 -0.0602972 0.0771377 0.0471456 -0.0139158 0.113729 0.0644508 0.012626 0.0202598 0.0353126 0.0483154 -0.0136001 0.0420669 0.0206647 0.068107 -0.0230189 0.00110273 -0.0106592 0.0779291 -0.111773 -0.0187711 -0.0223001 0.0144336 0.104875 -0.000523631 -0.103692 0.0231504 -0.0877857 0.103934 -0.00221224 0.00880792 -0.082951 0.0037835 0.0546325 -0.048294 -0.0789083 0.0015515 0.00460563 0.0597778 0.00134948 0.086471 0.0303305 0.0763953 -0.0408327 -0.0939013 0.0389885 0.10958 0.118868 -0.0687328 -0.0700161 -0.0972216 0.0120222 0.0432252 -0.0199228 -0.0964685
thing 0.106903 -0.0164734 0.0378193 0.00765834 0.0120187 -0.070664 0.0278715 0.0093595 0.0176503 -0.000866203 -0.0533286 0.0467415 0.0299277 -0.0846845 0.10155 0.0834753 -0.0650702 -0.0164262 0.0553936 0.0145565 -0.0843581 -0.0599822 -0.0965581 -0.0270026 0.00662313 0.0210497 0.0488982 0.0656344 -0.02555 -0.00797621 0.0406518 0.0624583 -0.0263615 0.0219718 0.0286783 -0.000840724 0.0278596 0.0140173 0.00299663 -0.090517 -0.0628642 -0.068154 0.0166385 -0.0318671 -0.0403175 -0.0309466 0.00840993 -0.0300823 0.0636436 -0.0575373 -0.045798 0.0379265 0.0109533 0.0149586 0.0724641 0.0561988 0.0275188 0.0554905 -0.0745503 0.0759196 0.0135592 -0.0269764 -0.00922071 0.0424672 -0.0203415 -0.0644843 0.00708296 -0.0910215 0.0711089 -0.0709636 0.0412436 -0.0792041 0.0565955 0.0982077 -0.0286708 -0.0811196 -0.0443636 -0.0625386 -0.0292116 -0.021604 -0.0753077 0.0203206 -0.043327 0.0962947 -0.0247158 0.0832182 -0.0339476 0.0620665 -0.0693723 -0.0172172 0.0585096 0.0323076 0.046004 -0.0546515 -0.0327102 -0.048784 -0.0139206 0.00886573 -0.106474 0.0312348
dodo 0.0256424 0.0868222 0.0562604 -0.0790181 -0.0269915 -0.0171079 -0.0114535 -0.0234624 0.104766 -0.0609563 -0.0118647 -0.0113478 -0.0516279 -0.0150996 0.0742545 0.0220582 0.0271469 0.00869284 -0.0091131 0.0567974 0.0608625 -0.0314977 -0.00575238 -0.0489566 -0.0916493 -0.0109734 -0.0593346 0.00348031 -0.0743568 -0.00185719 0.0193042 -0.010976 0.00445981 -0.0283881 -0.0609774 -0.0101503 0.0104313 0.0552003 -0.0113948 0.0081381 0.00585277 -0.00786663 0.0730841 -0.00135863 0.0601351 0.0770522 0.0192312 0.0748225 -0.0333902 0.0299377 0.00117233 -0.00982515 0.0704686 -0.0134743 0.03172 -0.0520672 0.0369174 -0.0242453 -0.057542 0.0191161 -0.101728 -0.0198642 -0.100784 0.007107 0.0455319 -0.0910246 0.037052 -0.0142796 0.000339594 0.00995647 -0.109292 -0.0499522 0.00351099 0.0789295 -0.0956975 0.00587729 -0.0539685 0.00539564 -0.0239854 -0.0329725 -0.0493629 -0.00934103 -0.083203 0.0310951 -0.0170261 0.0482836 0.0258977 0.0552294 0.0196425 -0.0545952 0.102293 0.0688964 -0.0360025 -0.0191782 0.0181283 -0.0678228 0.104595 0.0625298 -0.0204923 -0.0747199
much 0.0401142 0.0552726 0.0632054 -0.0899979 -0.0514044 -0.0736961 -0.000230945 -0.00520579 0.0787774 -0.0706698 -0.0233277 0.0205661 0.0405244 0.0420987 -0.0204324 -0.00276316 0.0300815 0.00362116 0.0997613 0.0793036 0.00968378 -0.0297634 0.0726801 -0.0142527 0.0367025 -0.0223437 -0.0320094 -0.0441277 -0.0485027 0.0253622 0.0117155 0.0733396 0.0228722 -0.00179652 0.023759 -0.0245131 -0.0119383 0.0143628 -0.0872625 -0.0248421 -0.0485183 -0.00901013 0.0105442 0.00520537 -0.088905 0.0223409 0.0401319 0.0385728 0.0501418 -0.0450189 0.0534678 0.0174046 0.0179796 -0.0111133 0.0725037 -0.0219495 -0.0183845 0.0419475 -0.0349941 0.0411825 -0.00569759 0.0348625 0.0347061 0.0100863 -0.0520466 -0.0276818 -0.00513947 0.0340113 -0.0373028 -0.071275 0.0166102 -0.00335027 -0.0941936 0.0595214 -0.0264589 -0.0486742 -0.0594748 0.00144799 0.0743244 -0.0129934 -0.0939275 -0.038142 -0.0214816 0.0457086 -0.00727089 0.0243512 0.0257141 0.0827715 -0.0671003 -0.0165964 -0.0142263 0.0200185 0.0386689 -0.0375863 0.0340977 0.0339 -0.0284613 -0.000490278 0.0109603 -0.0354352
shall 0.0113136 0.00941528 0.0944106 -0.0768276 -0.0618532 0.081261 0.0651062 -0.0843811 -0.0410564 -0.000324753 -0.0462269 0.00841101 -0.00885419 -0.0857032 -0.0374647 -0.0378291 0.0692689 -0.0579031 -0.0147938 0.0242607 -0.0311608 -0.00801727 -0.0390006 0.0173862 0.00752249 -0.0130484 0.00549871 0.0990043 -0.0223922 -0.0348578 -0.0232249 0.0451747 -0.000249172 0.00238986 0.0152413 -0.0710685 0.0374268 0.0117489 0.0177549 -0.0167916 -0.101307 0.0215752 0.0327082 0.104463 0.0103443 0.0170939 -0.0167809 0.0581771 0.106302 0.0238556 0.00132557 0.0083071 0.0875156 0.0455574 0.00201932 0.0473543 0.0876461 0.0555476 -0.00259064 0.00337435 0.0581766 0.0775066 -0.0335552 -0.0245181 -0.00237327 0.049904 -0.0348893 -0.0418603 0.085171 0.04658 -0.0722892 0.0579531 0.0318897 -0.0485977 -0.0756947 -0.0215475 0.0323026 -0.0752091 -0.0157329 -0.0445557 -0.0439537 -0.0669468 -0.0346436 0.0693212 -0.00642261 0.0662626 0.0392936 0.0593151 -0.0438739 -0.101298 0.0743569 0.00475285 0.0308771 -0.0506179 0.0284598 0.0129398 0.0744253 0.0199089 -0.0832423 0.0637035
things -0.0245592 -0.0163119 0.0859256 -0.0830772 -0.0693328 -0.0747315 0.0255343 0.0298506 0.0743328 0.016991 -0.0742225 0.0768272 -0.033148 -0.0970087 0.0668387 0.0167212 0.0136041 -0.069921 -0.0326081 -0.0135248 0.00992886 0.0237836 -0.0653533 0.0669528 -0.00895544 -0.0757864 0.0548687 0.0517887 -0.00354787 0.0749067 0.0244978 0.00630925 -0.0118118 0.00380245 0.0156474 -0.0904827 0.0136028 0.0012605 -0.0375273 -0.0888779 -0.0318141 -0.0429318 0.00866481 0.0389473 0.042772 0.00894447 0.0263313 0.00914555 -0.0357249 -0.0662721 0.0980782 -0.0471577 -0.0260987 0.017492 0.070057 0.0139658 0.0660964 0.0159054 -0.00758733 0.08419 0.000334958 -0.0658768 -0.0537617 0.0342101 -0.0698439 -0.0435467 -0.0824079 -0.0699562 0.0852836 0.0252194 -0.0637445 -0.0470902 -0.0323054 0.0204982 0.000414829 0.00189146 -0.000843906 -0.008104 0.0280384 -0.0742244 -0.09433 -0.09118 -0.050836 -0.0100414 -0.0236157 0.000596436 0.0317215 0.0336229 -0.0439995 -0.0153225 0.0952509 0.00537599 -0.00164835 -0.0904788 0.0379146 0.039829 0.0899916 0.00509343 -0.0473264 0.0206912
long 0.0764204 0.0473637 0.0153037 -0.00151619 -0.0821673 -0.0567563 0.067421 -0.0144349 0.108199 -0.0326001 -0.0487313 -0.017383 -0.0201004 -0.0694456 0.0487006 0.0372709 0.00462049 0.0399235 0.0611264 0.0982039 -0.0558477 -0.0293356 -0.0256771 0.0410325 -0.0116555 0.0325456 0.067831 0.0891982 -0.0634149 0.0474416 -0.0388329 0.00683999 0.0133753 0.0836904 -0.0641266 0.0285263 -0.0272062 0.0276564 0.0401599 -0.013774 -0.0170828 0.0335672 0.0213836 -0.000421098 -0.0859128 -0.0281937 -0.00234473 -0.0139595 0.0257517 -0.0624229 0.0865443 0.034587 0.00196978 -0.0236816 0.0538715 0.00496658 0.0750601 0.0211897 -0.0674102 -0.00915306 -0.00481582 -0.104013 -0.0776355 0.0097596 -0.0085081 -0.00324012 -0.00736005 -0.0902937 0.0159971 0.00883909 0.0159338 -0.104963 0.0333935 0.0834764 -0.06633 -0.0103641 -0.0183809 -0.0285972 0.0361348 -0.0948391 -0.020807 -0.052014 0.0137004 0.0584594 0.0127779 -0.0175774 0.0131921 0.0932559 -0.0749374 -0.0510417 0.0665272 -0.0429066 0.00282602 -0.0592521 -0.0651619 0.0307708 0.0465542 0.022309 0.00587476 0.0358315
door 0.0910351 0.0656168 -0.040238 0.0118042 -0.00329108 -0.0894207 0.0256828 -0.0206707 0.0290732 0.023853 0.000441059 0.0770674 0.060427 -0.0347155 0.0520959 0.107525 -0.0532425 0.0158039 0.104852 -0.0212346 0.072182 -0.0136007 -0.075609 -0.0521609 -0.0214812 -0.0649166 0.0336908 -0.0200695 -0.09964 0.0509438 -0.036065 -0.0173095 -0.0201369 -0.060915 -0.0503469 -0.0878973 -0.00282328 -0.0202423 -0.0465913 -0.0464123 0.00502592 -0.0245221 -0.0280616 0.1097 -0.0283338 0.0475666 -0.10868 -0.0245615 -0.0127766 -0.027536 -0.0384259 0.00811322 0.0500697 -0.0385727 0.0552674 -0.0331708 0.0830074 0.037157 -0.00374622 0.0867847 0.00654842 -0.00193161 -0.0627425 0.0167468 -0.0305574 0.0289826 0.0302418 -0.0315666 -0.0211737 -0.0126788 -0.0425359 -0.0553503 -0.00122749 0.0537335 -0.0677994 -0.0509275 0.0445463 0.0146117 -0.0235268 0.0146348 0.0329588 -0.0812649 -0.0580119 -0.0124534 0.0616214 0.0534519 -0.0337441 0.0742795 0.0242979 -0.0237261 0.00563277 0.0904177 -0.0616329 -0.0405529 0.0533146 -0.0206994 0.057915 -0.0241901 -0.00185939 -0.0240789
