1182 100
the -0.00145359 0.00133955 -0.0429697 0.00613672 -0.0442966 0.00882519 -0.0375189 -0.0171111 -0.0291442 -0.0402662 -0.0436749 -0.0181614 -0.0491153 -0.0450284 -0.0170993 0.00879005 -0.0349353 0.0473729 -0.0421695 -0.00778814 -0.0162503 -0.0357419 -0.0430013 -0.00771796 -0.03179 -0.0314124 0.034169 0.0052424 -0.00137795 0.0311211 -0.0317247 0.0137655 -0.0060607 -0.0116695 0.00826772 -0.0435375 0.00442744 0.0418654 -0.0111908 -0.0168471 0.0369081 0.0188286 -0.0339318 -0.0399784 0.0127516 0.0409457 -0.0127855 0.00915798 -0.0464327 0.0118506 0.00172287 -0.0166595 -0.0258775 -0.0299165 0.0494469 0.0207176 0.0474991 0.0185424 -0.0403823 0.00696912 0.0436859 -0.0143209 0.0255776 0.0170523 0.0280014 0.00394926 -0.0475097 -0.0338232 -0.00120741 0.015935 -0.0396452 0.00766809 0.00088929 -0.0231289 0.0197744 0.0370619 0.0319844 0.0408246 0.0081081 -0.0210149 -0.0113139 -0.0206529 -0.0355585 0.00459679 0.0317881 -0.0404289 -0.0266504 -0.0151649 -0.00348945 -0.0219344 0.0012954 0.0244516 0.0469718 0.0468894 0.000312902 -0.0224651 0.0395811 0.0254818 -0.0339205 -0.0217792
and 0.019246 -0.0203939 0.00333817 0.0275782 0.0246761 0.0423764 0.0226575 -0.0376512 -0.044003 -0.0136162 -0.0111681 0.0234684 -0.0214913 0.0295677 0.0426152 0.0202684 -0.0244911 0.0171105 -0.0301816 -0.0356246 -0.0452412 0.0428065 -0.0310032 0.0434595 0.0213458 0.0152825 -0.0147315 0.026879 -0.0376403 0.0102604 0.00828303 -0.0373311 0.0305173 -0.0161958 -0.0276375 0.0305691 0.00138997 -0.0470255 -0.0270267 -0.02058 0.0435642 0.0301442 -0.0383607 0.000627756 -0.00233569 0.0261562 -0.00702029 0.0146336 0.0021106 0.00959873 -0.0228699 -0.0140667 -0.0192674 -0.0119094 0.046613 -0.0445471 -0.00360463 0.00184681 0.0139786 0.00554918 0.00544769 0.0152992 -0.00503935 0.046758 -0.0438677 0.0258959 0.0357342 0.0025749 0.00437751 -0.0346226 0.00376739 -0.0104429 0.0272016 0.00387939 0.00283512 -0.0231572 -0.0417219 0.0207557 -0.0485379 -0.0376671 -0.00332543 0.00575012 -0.0227491 0.0133948 0.0347426 0.0305949 -0.0129365 -0.0192039 0.0241961 -0.000355422 0.0414081 0.0144131 0.0166547 -0.00560065 0.00130408 0.0114525 0.00128908 -0.0439356 0.0337062 0.041661
to 0.0433263 0.0304007 0.0437908 0.0050542 -0.0451863 -0.0453377 -0.0471812 -0.0337729 -0.0109949 -0.0449773 -0.00635127 -0.0254253 -0.00513363 0.0246861 0.0212255 0.0140439 0.0289237 -0.0379281 0.0465624 0.013032 0.0066679 0.036819 -0.0452771 -0.0156085 0.0322557 0.0235016 0.0300095 0.0124854 -0.0171301 0.00352895 -0.0262515 -0.0345718 0.0189776 -0.0107753 0.0324579 0.0470125 -0.0445235 -0.0301961 0.0386662 -0.00100338 0.00496072 -0.0387528 0.0354702 0.0118323 0.012154 0.00456595 -0.0267667 -0.0320526 0.0187756 0.0427948 -0.0187235 0.000895143 -0.0290956 -0.0201585 0.0387802 -0.0440833 0.0310228 0.0328404 -0.014817 0.0499256 -0.0153776 0.00650471 -0.0303479 7.60704e-06 -0.0256668 -0.00862823 -0.0289379 -0.0204369 -0.0362309 0.0220356 -0.0301208 0.0239677 0.0447533 0.0337239 -0.0189128 0.0170607 -0.0246352 -0.0205159 -0.0277039 -0.0434192 -0.0175018 -0.037577 0.0227963 0.0399432 -0.0468158 0.0159967 -0.00547408 -0.0424013 0.0327575 -0.015925 0.0467684 -0.0351719 0.0165363 -0.0354074 0.0352742 -0.0421722 -0.0212678 0.0479891 -0.0380566 -0.0170776
she 0.0489078 0.0336373 0.0391403 0.0202794 0.0101186 -0.0190268 0.0366203 0.0389512 0.0302307 0.0448717 -0.0155437 0.00311919 -0.0288569 0.0289814 0.028674 0.0296659 -0.0275186 0.0423839 -0.00103462 -0.0445413 0.0293405 0.0438527 -0.0461426 -0.0183779 0.0432265 0.0269906 0.0476846 0.0036477 0.00690168 0.0105646 -0.0178318 -0.0161892 0.046639 0.00471599 -0.000169408 0.0343994 0.0201072 -0.0202008 -0.0249891 0.0169389 -0.0420673 0.022394 -0.0363606 0.00672175 -0.0279352 0.0471821 0.0464723 -0.0205272 -0.00679282 -0.0113975 0.0153829 -0.0445344 0.0440135 0.0231269 -0.0466059 0.0185963 -0.0151666 -0.0197602 -0.0470865 0.0308859 0.0278377 -0.00673171 0.0409271 -0.0275065 -0.0303425 0.0432751 -0.0413978 -0.0233426 -0.0392057 -0.0339648 -0.00105796 0.0343443 -0.0395856 0.0261803 -0.00961088 -0.00499283 0.00381827 0.0179488 0.0473508 0.00282816 0.0223648 0.0355193 0.0473928 0.029847 0.00702342 0.0244031 0.0266993 -0.0273824 0.0426275 0.0413389 -0.048915 0.0253957 -0.00337602 -0.0334462 0.00438665 0.0468616 0.0480048 -0.0140429 0.0393353 -0.0190897
a -0.00824306 -0.0407599 -0.124351 -0.0382663 0.0579426 0.193059 -0.152442 0.155372 0.241742 -0.0235969 0.324699 0.205475 -0.126233 0.021572 0.11529 0.106982 -0.0325195 -0.0238728 -0.000422091 -0.0677092 0.126137 0.177876 -0.147798 0.193412 0.11606 0.0783966 0.0582208 0.0590003 0.318346 0.00559325 -0.0634496 0.0248511 -0.139758 -0.0105882 -0.0874823 0.155328 -0.167707 -0.0994507 -2.37465 0.47718 0.00467663 -0.139343 -0.0237071 -0.225985 -0.048436 -0.0589903 0.100049 -0.23136 0.337444 -0.0577164 0.0669835 -0.0623159 0.166814 0.100653 0.0856012 -0.109907 0.0480003 0.124198 -0.118595 0.0673232 0.0575051 0.0644939 0.00316377 -0.194406 -0.0685729 0.0745296 0.117589 -0.139302 -0.00729729 0.0643975 -0.193602 0.0559035 -0.00910971 0.0656196 0.0748634 -0.016466 -0.211537 0.0107563 -0.0654785 0.118696 0.0472441 -0.563601 -0.18919 -0.0240839 0.110484 0.134618 0.242571 0.074855 -0.135819 -0.0205489 -0.054825 -0.1198 -0.134554 -0.0484368 -0.266901 0.0289841 0.116441 -0.075677 -0.0713393 -0.0669796
i 0.0360001 0.00239522 0.0440241 -0.0466265 -0.0239097 -0.0345776 0.0197625 0.0193194 0.0485744 -0.048171 0.0318144 0.0245831 0.0312979 -0.020177 -0.00471234 -0.0381224 0.0166451 0.0190861 0.00631224 0.00446559 0.00952723 -0.0280319 -0.0164399 0.0203926 -0.0433353 0.0239196 0.00860643 -0.00926497 0.0192705 0.00816623 0.0351304 -0.0342788 -0.00160163 0.040183 -0.0120335 0.0332095 -0.047614 0.0392405 0.0109355 0.00554631 0.0240224 -0.0376712 0.0402457 -0.0293773 -0.0153407 0.0237752 0.0401458 0.0135981 -0.0201085 -0.042945 0.0125391 -0.0296837 0.0200647 -0.000117719 0.037207 0.0361235 -0.0274854 -0.0391856 -0.0260321 -0.0013574 0.0168234 -0.0384338 -0.0254797 0.0392165 -0.0406926 -0.00539238 -0.00257418 -0.0384909 0.00946704 0.0446672 0.0286139 0.00211867 0.0338947 -0.0492825 -0.00828446 0.0386243 0.020413 0.00320821 0.0385126 0.0468762 -0.0356739 -0.0485905 -0.0159211 -0.00968974 0.0266757 0.0478521 0.0404443 -0.0232451 -0.0453443 0.022224 0.026087 -0.0237863 0.0433897 -0.0386299 0.0356271 0.0378422 0.041872 0.0142892 0.0205437 0.0384255
it 0.00620671 -0.0288142 0.000211418 0.0425001 0.0075819 0.0156311 -0.0242606 0.00677311 0.0483568 0.0145195 -0.0481751 0.0252849 -0.0236641 -0.0272359 0.00214087 0.0117686 -0.0318511 -0.0433245 -0.0150274 -0.0188749 -0.0249127 0.0400764 0.0414369 0.0481505 0.038668 -0.0166581 -0.0120041 0.0378521 0.0099429 0.0177379 -0.038478 0.0169287 0.0490647 0.0113923 0.0106346 -0.017133 -0.0386111 -0.0235679 0.0451565 0.0188957 0.0376724 -0.0319149 0.0393683 0.0351542 0.0178902 -0.0259062 -0.0398179 0.0406922 -0.013325 -0.0374495 0.0266395 0.0300806 0.0113325 0.00538688 0.0291746 -0.0358908 0.0133983 0.0257677 -0.0123696 0.0381123 -0.0400576 -0.0262406 0.00440595 -0.0354288 -0.0303797 0.0188905 0.0293534 -0.040709 0.0162636 0.0494857 0.0468632 -0.0109385 -0.0253145 0.0184665 0.00988268 0.0492208 -0.0143119 -0.0153093 -0.0339115 0.0255589 0.0208838 -0.0369667 0.0376173 -0.00665445 -0.00969056 -0.0462323 -0.022164 -0.000834905 0.0229316 0.0415089 -0.0268058 0.00779266 -0.0357277 0.00886125 0.0101215 0.0152914 -0.0379187 0.00781001 0.00997128 -0.0146515
of 0.0209691 -0.0267836 -0.0295391 -0.0427106 -0.0162602 -0.0136961 0.0288748 0.0479775 0.0460614 -0.018395 0.0333886 0.0342911 -0.0290864 0.0471324 -0.0426911 0.0122898 0.0373704 -0.0397558 0.0492709 -0.0287407 -0.0293039 -0.00993794 0.0352193 0.0050909 -0.0132873 0.00058068 0.0381002 0.025712 0.0148848 0.00370197 -0.0238292 0.00783827 0.0275464 -0.0301932 -0.0421935 0.0218264 -0.0120691 -0.0453463 0.0113099 -0.0285913 -0.00828367 -0.0467084 -0.0139784 -0.00682987 -0.0315872 -0.0493524 -0.0132076 0.0238268 -0.0366138 -0.0305013 0.00196799 0.00808483 -0.00282924 0.0366954 0.0487414 -0.0479735 0.0376138 -0.0158829 0.00309248 -4.05535e-05 -0.00011722 0.00085815 -0.0262961 -0.0276181 0.0168304 -0.0350785 0.031952 0.00510741 0.0479236 -0.0185793 0.0293054 -0.0294752 -0.0408388 -0.0166302 -0.0319352 0.0323861 0.0418588 -0.0078155 0.0498869 0.0415328 0.0380349 -0.0499498 -0.0116518 -0.033156 0.0428078 -0.0460249 0.0338785 0.0260701 -0.0207469 -0.00928491 0.0304644 -0.00779847 -0.00710633 -0.0239303 -0.0395378 0.0258981 -0.000184812 -0.0437144 0.00446736 -0.0358572
was 0.0114855 0.0479618 -0.0402808 0.009055 -0.00723051 -0.00199796 -0.00885231 0.0280104 -0.00979718 0.0441815 0.0201712 0.00250655 0.00614498 -0.0363308 0.037264 -0.0188133 0.0165642 -0.0452668 0.030869 -0.0329833 -0.00738858 0.0239058 0.00724401 -0.0344747 -0.00177594 0.0238838 -0.0132479 0.00247152 -0.00823111 0.0411036 -0.0122259 0.0234034 -0.0204843 -0.0355433 0.0251322 0.0281251 0.0218709 -0.0266369 0.00513012 0.033487 -0.013844 0.0236659 0.0432716 0.0434933 0.0337827 0.041824 0.0192875 0.0299798 -0.00758432 -0.0315685 0.0118275 0.0287297 -0.0290549 0.0311474 -0.0157627 0.0219586 0.0285217 -0.0305485 -0.022173 0.0125307 -0.00332205 0.000853717 0.00564773 0.0359432 0.00759732 -0.0212091 -0.0428043 0.0406219 -0.0110713 -0.0184206 -0.0400347 -0.034946 0.0026806 0.0144905 -0.0279455 0.0483513 -0.0183594 0.0353332 0.028947 0.031311 -0.0430549 0.0436733 0.00820879 -0.0337035 -0.000441752 0.0476516 -0.0234265 -0.0355209 -0.0100091 0.0250083 0.0212104 -0.00224899 0.0105393 -0.0331366 -0.0265946 -0.0372514 0.0114801 0.0484053 -0.0251953 0.0143031
in 0.026484 0.000417244 0.0268052 -0.0413974 0.0166759 -0.0192894 -0.00794958 0.0170213 -0.000176571 -0.00933956 0.0193773 0.0394404 0.0273874 -0.0490575 0.0122224 0.039146 0.0478848 0.03068 0.0382338 -0.0396809 -0.00949629 -0.0200944 0.037809 -0.0391281 -0.0489233 -0.0368818 -0.0377918 0.00663345 0.0470053 -0.0335821 0.0472988 0.00330578 -0.00350448 -0.0260377 -0.00602819 -0.0267863 0.0275542 0.00346269 0.0166406 -0.00289633 -0.00122291 -0.0327874 0.00820012 0.049196 0.0190776 0.0344008 0.0491017 -0.0239355 0.0092666 0.012562 0.0199427 0.0100656 0.0251054 0.000406347 0.0193962 0.0140337 0.0297366 0.0293312 -0.0337434 0.0322154 -0.0323536 0.0462741 0.0342963 -0.0139654 0.00467258 0.0398773 -0.0309233 -0.0235437 0.00868005 0.00952191 -0.047267 -0.0248542 -0.0415071 -0.03776 -0.038669 -0.0274927 -0.0351603 0.04974 0.0321681 -0.0370652 0.0239939 -0.0177144 -0.0429101 0.0278199 0.00344368 -0.00464392 -0.0296343 -0.013973 0.0197386 -0.0202592 0.00389646 0.0324235 0.0282969 -0.0367933 -0.0475825 0.0224156 -0.0071337 -0.0233817 -0.0224509 -0.00357301
alice 0.0458085 -0.0270162 -0.0335307 -0.0093751 -0.00284463 0.0324229 0.0299876 0.00779833 -0.0166735 -0.0257002 -0.0258449 -0.0236699 0.0148868 -0.017257 -0.0375043 -0.0255783 0.0120585 0.0123575 -0.0465821 -0.0404046 0.00235796 0.00508422 0.0182274 -0.00830377 -0.0093841 -0.021097 -0.00448881 -0.0236463 0.00716694 -0.00101089 -0.0305763 0.00473181 -0.0222519 0.0218784 -0.0163771 -0.000816323 -0.0418221 0.0130191 0.0315815 -0.00431868 0.0137669 0.0279026 -0.0329734 -0.00536059 -0.0177794 0.0230328 -0.0435834 0.0160284 -0.039644 -0.0139891 0.0294589 -0.0291586 0.0128432 -0.0392653 0.00842842 -0.00418296 0.0474727 0.0351522 -0.0427082 -0.016554 -0.00321924 0.0235385 0.0303413 -0.0358451 0.014571 -0.026976 -0.014771 0.029448 -0.0264571 0.0183121 -0.0312438 -0.0202277 0.0282061 -0.00186265 0.0115781 -0.00717546 0.0391139 0.0392415 -0.03308 0.00653084 -0.00792146 0.0269254 0.0210041 0.0286623 0.0242625 -0.0478731 0.0203904 -0.0188016 -0.0284152 -0.0384322 -0.041547 0.00149696 0.00756962 0.0476165 -0.00247911 -0.0376747 0.0397205 0.0034201 0.031438 -0.00476591
you -0.0467403 -0.0339181 -0.0193484 -0.0047776 0.0329798 0.0199272 0.022303 0.00271981 0.00143584 -0.022927 0.00506327 -0.0372089 0.0173778 0.0436029 0.0437064 0.00567436 -0.00345562 -0.0162317 0.0140947 -0.0191832 0.0444425 -0.00795655 -0.00978084 0.0399981 -0.0158621 -0.0197206 0.0278815 0.0204677 -0.0366369 -0.00179608 0.000573494 0.021836 -0.0166131 0.0252403 -0.0135805 -0.00933301 0.00649931 -0.00362121 -0.033744 -0.00346594 0.0429382 0.0123147 0.00640576 0.0343975 0.0229031 -0.0040523 0.0116012 0.0343809 -0.0135326 -0.0313447 0.0262746 -0.0498885 0.0201388 -0.0455638 -0.0369155 0.0471281 -0.00589295 -0.0310333 0.0157638 0.029702 0.0471989 0.0269785 0.0403345 -0.029178 0.0329597 0.0399571 0.0450235 -0.0460227 0.0288019 -0.0119034 -0.0293554 0.0246811 0.0341164 -0.0110745 -0.00651008 0.0298623 0.0192644 -0.0200489 -0.0212014 0.0325345 0.0220042 0.0368 0.00090928 -0.000799797 -0.0131743 0.0237437 -0.042642 0.0276892 0.0225182 0.00495671 -0.0456574 0.00652371 -0.0219199 0.0121024 0.0356461 -0.0497335 -0.0339058 0.0345278 -0.0405288 0.0300555
that 0.00657586 0.00203202 -0.00466943 -0.0428313 -0.0380231 -0.0262429 0.0277064 -0.00463004 0.0328674 0.0374546 -0.0187259 0.0318233 0.0154642 -0.0243452 0.0228331 0.0100803 -0.0344746 -0.0389688 0.0352022 0.0401763 0.0210495 0.0287944 -0.0318918 0.0481859 0.00455749 -0.010884 0.020208 0.0171181 -0.000560571 -0.0453479 0.0124316 0.0245165 0.0423992 0.0348102 -0.0263383 -0.0317009 0.0407293 -0.0203901 0.0438588 0.0368458 0.0149542 -0.0231652 -0.0428479 0.0325791 -0.0342373 0.0373903 -0.0136003 -0.0147633 0.0157195 -0.0122566 0.0459806 -0.0139422 -0.0214869 0.0267414 0.0119087 -0.0344529 -0.00485135 0.0243841 0.0161691 -0.0277288 -0.0132995 -0.0428151 0.0388818 0.0151886 0.00604024 0.0118682 0.00522856 0.031153 0.0453005 -0.00288762 -0.0204053 -0.00597917 0.00621103 0.00384873 0.0170731 0.00611605 0.0440001 0.0328529 -0.00511413 -0.0220438 7.55303e-05 0.00348042 -0.0316483 -0.00760818 0.0246315 -0.0435423 0.0153545 -0.0290946 -0.0279013 0.0338038 0.0316038 -0.0343854 -0.0471926 0.00212999 0.00820331 -0.0358859 -0.0285879 0.0446539 -0.00167997 0.00546306
her 0.00371142 0.023212 -0.0170697 -0.00708415 0.0316563 0.0209844 -0.0345553 0.0424753 0.0477261 0.0276868 0.0324284 0.0340375 0.0038581 0.0355427 -0.0495227 -0.0431306 -0.0273235 -0.027905 -0.0203734 -0.00786415 0.0196084 0.0103458 0.0257426 0.00228707 -0.0166344 0.0381223 -0.0405768 0.0137648 -0.0123972 0.00493859 0.0123766 -0.0454437 0.0254372 -0.0358628 -0.0155509 -0.0312191 0.016612 -0.00558219 0.00827528 -0.0151189 -0.00215704 -0.0264367 -0.0191191 0.0136325 -0.044094 -0.0346923 -0.00692651 -0.0052894 0.0388985 -0.0409633 0.0355685 0.0260873 0.0270452 -0.00856943 0.0449189 0.00299654 -0.00697647 0.0201694 -0.0358629 0.0350082 0.0472598 -0.0458603 -0.00196349 -0.0408788 0.0454753 0.0334203 0.0197251 -0.0467415 0.00624043 0.0196007 0.0468073 -0.0280048 0.0374974 -0.0272333 -0.0323587 0.0471588 -0.0397211 0.0188164 -0.0438039 0.0448303 -0.0408678 0.000588786 -0.00873464 -0.0115796 0.0325638 0.0182488 -0.0478135 0.0311731 0.0168487 0.0415873 -0.00685151 -0.00130592 0.00756801 0.0466225 0.0370931 -0.0266112 -0.0373795 -0.00319109 -0.00431667 -0.00138309
as -0.0401109 -0.0404683 -0.0273801 -0.0250401 -0.0284905 0.00745411 -0.0347864 0.0256316 -0.00754102 0.0164321 -0.0493902 0.00393531 0.0445677 -0.0305895 -0.0162541 -0.0343652 -0.0417809 -0.0404675 0.0477342 0.0109833 -0.0207604 -0.047811 -0.0363763 0.0422613 -0.0254958 -0.00643063 -0.0383271 0.0360005 0.0358166 -0.0381979 0.0286321 0.0332251 0.00843972 -0.0228917 -0.042071 -0.0111435 0.00343515 -0.0438387 0.0470626 -0.0385558 -0.0386941 -0.0270535 0.0328094 0.0470575 0.0360626 -0.00331707 -0.0164816 -0.00323454 -0.029404 0.0422819 0.0371255 -0.00651544 -0.0466867 0.0123615 0.0201124 -0.0295462 -0.0163918 -0.00935717 -0.0399208 -0.0122135 -0.0199907 0.00339625 0.0125075 -0.0413065 0.0119226 -0.0203124 -0.048551 -0.0330075 0.0390665 -0.0212493 -0.0188814 0.0473685 -0.0407839 0.0232194 0.0285849 -0.0268239 0.0133897 -0.0155794 -0.0383407 0.0286642 -0.00199727 -0.0236795 -0.00522444 0.0180771 0.0381274 -0.00527043 0.0128844 -0.0427442 -0.013747 0.0133242 0.046749 0.0192907 -0.0456703 0.03265 -0.0294118 -0.0301842 0.000113953 0.0196498 0.0103802 0.00296994
said 0.0248379 0.0305535 0.00129112 -0.0326761 -0.0105602 0.0256399 0.0231434 0.00971621 -0.0174929 -0.0160586 0.0101353 0.0382906 0.0480949 0.00232899 0.000509702 0.0244489 -0.00513482 -0.0289579 -0.0483274 -0.00887996 -0.0419595 0.027005 -0.0496445 0.0350048 -0.0311252 0.0185499 0.0160098 -0.0481842 0.047676 0.0273889 0.0316152 -0.0318043 -0.0358047 0.00121058 -0.0231684 0.0328277 -0.00513333 0.00772002 -0.013118 0.0281485 0.0157104 -0.0151485 -0.0133512 -0.0251564 0.0448384 -0.0243755 0.00160369 -0.0164999 0.0340062 0.00849643 0.0364125 0.00375919 0.0408966 -0.0381691 -0.0374063 0.00827509 0.0427703 0.0453589 0.0135878 -0.0320316 0.0179002 -0.0443214 -0.0331391 -0.00180827 0.00458158 0.038718 0.0454077 -0.00757442 0.0145285 0.00945051 0.0294766 -0.03694 -0.0198214 2.33278e-05 0.0416966 -0.00175843 0.0464885 -0.0388483 -0.0127431 -0.026269 -0.0185259 -0.0361186 0.0173596 0.0420867 -0.00308304 -0.0170499 0.0044984 -0.0246008 0.0460084 -0.02166 0.00516055 -0.0121948 -0.0445209 0.00584959 -0.0356432 -0.0313718 0.00424149 -0.00597938 0.0409027 -0.0325362
had 0.0057668 0.0144594 -0.00390784 0.0160023 0.0430203 0.0360221 0.0481056 -0.00205642 0.0081683 0.0308413 0.0286853 0.0354933 -0.0182219 0.0141061 0.0192303 -0.036084 0.032608 -0.0157794 0.00898426 -0.0444633 -0.0243048 -0.0367819 -0.0203477 0.028241 0.0260757 -0.0384784 -0.0248694 -0.049979 0.0469756 0.0388879 -0.00150663 0.00916597 -0.00758181 0.00786617 -0.0244339 -0.00284766 -0.00240046 -0.0239802 -0.0345085 0.0334159 0.0170002 0.0206367 -0.0368934 0.0408312 0.0128438 -0.0234058 0.0417669 -0.00692187 0.0353644 -0.0125205 -0.0490937 -0.0236038 -0.0498557 -0.0455785 0.0203351 -0.00810304 0.0404874 0.00986493 0.00729593 0.0205315 -0.023042 -0.0397548 0.0197084 0.00163201 0.0186734 -0.0426578 0.0160245 -0.0144585 -0.0215804 0.0464194 0.0229399 -0.0101276 0.0373073 -0.0334983 -0.0141784 -0.0208079 -0.00281873 -0.010843 -0.00606375 0.000659563 -0.00263067 -0.00493526 0.0479374 0.0320176 0.0377919 -0.0140115 -0.0142441 -0.037667 -0.0274854 0.01705 0.0220852 -0.011798 0.0470335 0.0331965 -0.0121161 0.049131 -0.0236302 -0.0102422 -0.0188529 0.00399335
for -0.0215179 0.0497593 0.0327813 -0.00582523 0.0396835 0.0142178 -0.015079 -0.0261835 -0.00499904 -0.026075 -0.00561319 0.0319747 0.027278 0.0101042 -0.0157469 0.00175234 0.0399501 -0.0258734 0.0192452 0.0111442 0.0323702 0.00490465 0.0160831 0.0446359 0.0201436 0.00298281 0.0161286 0.0473505 0.0196863 -0.0287189 -0.0340712 -0.0379232 -0.0190244 -0.0474643 -0.0308769 0.0169207 0.00325644 0.0266421 -0.0437592 -0.0271508 0.0117794 0.0349606 0.0160096 0.00904385 0.022457 -0.0427722 -0.0450101 -0.00704491 -0.0182092 -0.0129618 0.0231986 0.0264535 -0.00795381 0.0110792 -0.010619 0.0237896 -0.00427647 0.039574 0.0471763 -0.0226959 0.0056433 0.0330154 -0.0307063 0.00667498 0.0408211 0.0486269 -0.0177369 0.0403077 0.0313833 -0.0388717 -0.0163959 -0.0480142 -0.00521492 -0.0381322 -0.0172452 -0.045832 0.00936078 0.0143618 -0.00608753 0.0021639 -0.0400365 -0.0261093 0.0306308 0.0357262 0.00906372 -0.0426055 -0.0470338 -0.042859 -0.0329657 -0.0429912 0.0399551 -0.0217693 -0.02349 -0.0491574 -0.0420351 0.0414037 0.00288887 -0.00392281 -0.0127881 -0.0145034
but -0.0176056 0.0315124 -0.0142485 0.0115528 -0.0190077 0.011784 0.020213 -0.00947118 -0.0484484 -0.0249379 0.00364526 -0.0441475 0.0309767 -0.0409946 0.00580789 -0.0246234 -0.0391532 -0.0267446 0.0145597 -0.0464475 -0.0433323 -0.0171253 0.0127776 -0.0173399 0.00379618 -0.00602553 -0.00418875 0.0282449 -0.0384385 -0.0109988 0.0227868 -0.0283726 0.0493145 -0.0111719 0.00939897 0.0229811 0.00774207 0.0441278 0.0233177 -0.0470906 -0.0275402 0.00116055 -0.00454347 0.031876 -0.0321978 0.0483437 -0.0241101 0.000244547 0.0480056 -0.000847258 -0.0267174 -0.0232676 -0.0282306 0.00754411 0.0157869 0.0057204 -0.00668281 0.0345815 -0.0024724 -0.0372773 -0.0475079 -0.0260635 -0.0340627 0.00717815 -0.0337096 0.0292377 0.0350917 0.0227793 -0.0419465 0.0422533 0.0431005 -0.0444171 -0.0280873 -0.0226588 0.0123802 -0.0220833 -0.0425632 -0.0146777 0.0332159 0.0342244 0.00818803 0.0283448 -0.035795 0.0465293 0.0208611 0.0407611 0.0161206 -0.0116213 -0.0244566 -0.00878848 -0.00606958 -0.0142746 0.0314859 -0.0479481 -0.0465548 0.0474649 -0.0301002 0.00771857 -0.0306626 0.0409624
be 0.00891675 -0.0327443 -0.0102352 -0.0203592 -0.0329076 -0.0353187 -0.0288647 -0.0135211 -0.0274722 -0.0426082 -0.0340722 0.0128063 -0.0265394 0.0385299 -0.00767355 0.0323484 -0.00259806 0.0328426 0.0386321 0.0333974 -0.0278395 0.020999 0.0241492 0.0399254 0.0247148 0.00823507 0.018659 0.00193881 0.0293637 0.0301715 0.0468084 0.00128134 -0.00189924 0.0230816 -0.0492883 0.0354425 -0.00747991 -0.0491673 -0.014459 -0.044389 0.00878055 0.0326318 -0.0498733 -0.0432543 0.018036 0.0331839 0.00377239 0.00598921 0.037553 -0.0471286 0.0495912 -0.0164694 -0.0159607 0.0238006 0.0014982 -0.00873781 0.0244929 0.0152889 -0.0200338 0.0431679 -0.0425093 -0.0150674 -0.0433492 0.0104762 -0.0396236 0.00258343 0.000951756 -0.0360475 0.0376547 -0.0357188 0.0362458 0.0322898 0.0402078 0.0294608 0.0333091 -0.0180492 0.0297711 0.0324563 0.0255231 0.0274853 0.00761934 0.00765781 -0.0169879 0.0282621 0.0112856 0.0298798 -0.00422551 0.000764538 0.0257368 -0.024064 -0.0163249 -0.0280856 -0.0212553 -0.0376689 0.00736243 -0.00418882 0.0371795 0.00991975 0.0274723 0.0153996
on -0.000468671 -0.00301389 0.000763558 0.0329514 0.0227668 0.0110411 0.0155668 -0.0328225 -0.0192714 -0.00916042 -0.0047006 0.0217416 0.0493703 -0.0303806 -0.0467187 -0.0437765 0.0140307 0.0333806 -0.0405006 -0.0315526 -0.0445811 -0.035879 0.03479 0.0127304 -0.0494358 0.00565833 -0.0440183 -0.0360221 -0.0467274 0.0265342 0.0129711 0.00252544 0.00574589 0.028343 -0.0194912 -0.0227451 -0.0272661 -0.0212231 0.0369954 -0.0284841 -0.0435341 -0.0285365 -0.00444918 -0.0296069 -0.0217101 -0.029479 0.0124116 -0.0427473 -0.00225613 0.0199963 -0.0321691 -0.0188825 -0.0201601 0.0337914 -0.00490355 -0.0281137 0.0493943 0.0251033 0.0100582 -0.0301879 0.00619312 -0.0337387 -0.00705863 -0.04563 0.0153758 0.0395132 -0.0217924 -0.0170808 -0.0268198 0.0443786 0.0388105 0.0341592 0.018641 -0.00887561 -0.0459365 0.014501 0.0415919 0.0308927 0.0162522 0.037999 -0.0455315 -0.00425538 0.00787519 0.0323108 -0.0253826 0.0385749 -0.0345021 0.0403007 0.0123783 0.0415842 0.0411659 -0.0109372 -0.00209485 -0.0243144 -0.047007 0.00810999 0.0193629 0.0349217 0.0320993 -0.00376141
all 0.0471731 0.00706077 0.00647254 -0.0127755 -0.0063494 0.0345561 -0.00191096 0.0200046 0.00112724 0.0469811 -0.00556313 0.0303993 0.0173077 0.0495987 -0.0126028 0.0480707 0.0498708 -0.0138082 0.00577914 -0.0430656 0.0138804 0.0163229 0.0293477 -0.0220399 0.0333033 0.0159153 -0.0184941 -0.0415485 0.0495799 -0.00336701 0.00585573 0.00114564 -0.0192945 0.0323976 -0.00620173 0.022156 0.00239079 0.0456017 0.0135387 0.034873 0.0167056 -0.0294043 0.0220865 0.0280461 -0.032652 -0.0253575 0.0206105 0.00809547 -0.0478462 0.0435305 -0.00531077 -0.0138953 -0.0246702 -0.0296516 0.0319172 0.0293104 -0.00865204 0.0387131 -0.00863824 0.028965 -0.0331649 0.0288818 -0.0254659 -0.0162709 0.0360601 0.0274761 0.031776 0.0423235 -0.0412353 -0.0369792 -0.0098999 0.0260731 0.009144 -0.0363206 0.0285513 0.0471544 0.022481 0.0144459 -0.00233901 -0.0471689 0.0280766 -0.00362252 0.0339316 0.0375628 -0.024673 0.00798429 0.0300594 0.0397544 -0.0468133 -0.0420168 0.0274338 0.0140603 0.0345758 -0.0095439 0.0365164 0.0276603 -0.0201793 -0.00878095 0.00729374 0.0320474
with 0.0125365 -0.0334507 -0.0144005 -0.00761095 -0.0489144 -0.0344276 -0.0204317 0.032933 0.0472174 -0.0446783 -0.02553 0.021733 -0.0126998 -0.0172302 -0.0261134 -0.00847827 0.0131575 -0.0438245 -0.0485524 0.00246309 -0.029068 -0.00554153 0.0232916 0.00606513 -0.0393701 0.0195759 -0.00338786 0.0443836 0.0469216 -0.000588633 -0.000270963 0.0403684 -0.0476864 -0.0454667 -0.00837401 0.0405023 -0.0464777 -0.0273266 -0.0343421 0.00659914 0.00843694 -0.020464 0.0429075 0.012304 0.00262802 0.0108407 -0.0353849 -0.0162951 0.0120683 -0.0139178 -0.0318368 0.00515957 -0.0351688 -0.0131396 -0.0182765 0.0492947 -0.0345776 -0.023384 0.00921265 0.0284765 -0.0369541 -0.0112077 -0.0352973 -0.0393458 -0.0108485 -0.00953322 -0.00308194 0.0331747 -0.0373769 0.0145529 -0.00892334 0.0125606 0.0133519 -0.0183545 0.0305008 0.0127936 0.0146786 0.0060369 0.0130079 -0.0409496 0.000497092 -0.0134765 0.032553 0.035295 0.00669904 0.0367982 0.0068463 -0.0137279 -0.0169427 0.0310494 -0.0445693 -0.00811078 0.022166 0.0332206 0.0345479 0.0139833 0.00444943 0.0273782 -0.0145289 0.0118646
little -0.0300234 -0.000631619 0.0322842 0.0462481 -0.0147254 -0.0296391 0.0149109 0.0294901 -0.0102713 0.0225729 -0.046158 -0.0211137 -0.0128963 -0.00941356 0.00944183 0.0435161 0.0231871 -0.0438933 0.045175 -0.0125074 -0.0353133 0.0302514 0.0375504 -0.00119175 -0.0308025 -0.00546405 -0.0205798 0.025469 -0.00870521 0.000730287 0.0492407 -0.0240086 0.0356004 0.0178802 -0.0161872 0.0215852 0.0206068 -0.0476353 0.0321806 0.0479954 -0.00993048 -0.00546414 0.0427954 -0.044123 -0.0426624 -0.030813 0.0355412 -0.0373837 -0.0476885 -0.0305065 -0.019526 -0.00577823 0.0193905 -0.00857652 0.0405872 0.0180692 0.0012858 -0.00567365 0.00985391 0.0152467 0.0017599 0.00381954 0.010253 0.0479734 0.0161926 0.0456696 0.0103377 0.0458198 0.0361179 -0.0419655 -0.0129152 -0.00452062 -0.0185326 -0.0272863 0.029337 0.0485514 0.0355402 0.00806778 -0.00202745 0.00531852 -0.0288555 -0.0431885 -0.0147387 -0.0451274 0.0479186 0.0344165 -0.0134243 -0.0307612 0.00866688 0.0482121 0.0442931 -0.0390806 -0.0269075 -0.0183656 -0.0290383 -0.041193 -0.0498374 0.0367608 -0.00467415 0.0459536
mouse 0.0205698 0.0246669 0.036039 -0.00637286 0.013306 -0.0195683 -0.00826718 0.00933272 0.0336583 -0.0213096 0.0112902 -0.0282466 0.0246688 -0.0276078 0.0268068 0.0393986 0.028037 -0.00668621 -0.0490288 -0.0190956 -0.0260647 -0.0250485 0.0408425 -0.0303232 0.00913875 -0.0459326 -0.00773932 0.0272509 0.0405269 -0.0115755 -0.0458973 0.0357555 0.0365041 -0.00530084 0.0421506 -0.00836002 0.0333481 0.0484197 0.0179161 0.0142747 -0.00858972 -0.0479687 -0.0246555 -0.0235444 0.0148535 -0.0310286 0.0300284 -0.00721023 0.0343109 0.0230786 -0.0157902 0.00772303 0.0478688 0.0439318 0.0493586 0.000846125 -0.0114591 -0.00363033 0.0315892 0.000889778 -0.013824 -0.0419157 0.0113327 0.0397817 0.0447962 0.0143006 0.0261344 -0.0267032 0.0222735 -0.0451917 -0.018654 -0.0082963 -0.0354217 -0.0366629 0.0348604 -0.0350391 -0.0177867 -0.0296838 0.0471571 0.015432 0.0223537 0.0464406 -0.0301219 -0.00339919 0.0167773 -0.023867 0.000845075 -0.0130287 0.0251024 0.00951904 0.0351343 -0.0355968 0.0119921 -0.028171 -0.00272729 -0.0263126 0.00871761 -0.0200597 0.0278761 -0.0423142
down 0.00853574 0.0401202 -0.018238 0.0171775 -0.0418128 0.00473857 -0.0151571 -0.0188514 0.0282213 0.0296556 -0.0438656 -0.0408325 0.00304853 -0.0302651 0.0135387 -0.0483691 0.02452 0.0213076 0.047146 0.0489847 -0.0479139 -0.012069 -0.0348353 -0.0424477 -0.023212 -0.0383026 -0.00796336 0.0131151 -0.0164766 0.000591647 0.00709736 9.54978e-05 -0.0219688 -0.0253614 -0.0392246 0.0464724 -0.00421274 -0.0175841 0.0162414 -0.0137183 -0.0432138 0.0410449 0.0246225 0.00564846 -0.00167153 0.0171132 -0.0100374 0.00876736 0.0156924 -0.0121422 -0.023981 -0.0365984 0.03025 -0.0456445 -0.00676887 0.012045 -0.0340667 0.0279087 0.0383223 -0.00301331 -0.0437856 0.00785457 0.0410889 0.0447943 -0.00267621 0.0140081 0.00971628 -0.0133828 -0.021662 -0.0111187 -0.0336205 -0.0489156 0.0456977 -0.0162035 -0.0407345 0.0299304 -0.0374688 -0.0484764 -0.0207307 -0.0030679 0.0180493 -0.0285764 0.0402901 0.00654093 0.00731113 0.0101243 0.0465556 0.0390587 -0.0284334 0.0263846 0.0187051 -0.0128907 -0.0423955 0.0339544 0.00440335 -0.0454055 -0.00683949 -0.0440398 -0.0159736 -0.0331778
very 0.0259227 0.0274502 0.0313869 -0.000205029 -0.0479671 0.0268101 -0.0246346 0.00716727 -0.0277123 0.0126624 -0.031471 -0.0398722 0.030355 0.0392429 -0.0128424 -0.00460118 0.0438002 0.0457286 0.0371554 -0.0226429 -0.014053 0.00958361 -0.0421729 0.00496905 0.0233989 -0.0271707 -0.0046289 0.0276476 -0.0105772 -0.0294342 0.0189213 -0.0154734 0.0132919 0.0393921 0.00917489 0.044634 0.0322273 -0.0344379 0.00939608 0.00643136 -0.0231848 -0.022572 0.0294815 -0.0276421 -0.00494289 -0.0254194 0.0133445 0.0224217 0.0303417 0.0358515 -0.00203689 -0.0064991 -0.00252503 0.0443691 0.0321148 0.0478869 0.0416255 0.022513 0.00366919 -0.00313759 -0.0380309 0.0476621 -0.0170255 -0.031219 0.0474395 -0.0296854 0.0289101 0.0072142 0.00851833 -0.0481938 -0.000174236 0.0215248 -0.0248232 0.0417517 0.0115445 0.039363 -0.0411208 -0.00946764 -0.0175714 0.0285974 -0.0435473 -0.0356565 -0.0314142 0.0391415 0.0174933 -0.0417714 0.0116611 0.0432085 0.038598 0.0258767 0.0459598 0.0449302 0.033314 -0.0436729 -0.0101667 0.0276394 -0.0293653 0.0282511 0.00264684 -0.0305025
this -0.0273908 -0.00554013 -0.0303023 0.0126679 0.0269562 -0.0440886 0.0127101 0.0325508 -0.0426871 -0.0135506 0.0351216 0.0146111 0.00878823 0.00793289 -0.0333194 0.0341728 0.0256706 -0.0435078 0.04646 0.0276176 -0.0412915 0.0339542 -0.0349408 -0.0140149 -0.016319 0.00736551 0.0341684 0.029182 0.0298722 0.000125505 -0.00332539 -0.0396787 -0.0341651 -0.0438555 -0.0332785 0.0470029 0.0459867 0.0176747 -0.0341179 -0.0444265 0.0378413 0.0193377 -0.00621554 0.0448122 -0.0355058 -0.00976946 -0.0326187 -0.0212885 -0.0163709 0.00567653 -0.0330531 -0.0201183 -0.00734355 0.0384021 0.0453602 -0.015492 0.02797 0.0474775 0.0326342 -0.0166655 -0.0196093 -0.0353791 0.00104779 -0.0460332 0.0367218 -0.0377891 -0.00141342 -0.00169078 -0.0438397 -0.0179511 -0.0417119 0.00190785 -0.04405 -0.012814 0.0238503 -0.00612928 0.0227438 -0.00193547 -0.0410841 0.00594311 0.0461578 0.0471646 -0.0197594 -0.0121564 -0.0468103 0.0227142 0.0133861 0.0289559 -0.0249422 -0.00452612 0.0380712 0.00274523 -0.0487088 -0.0143143 0.0232269 -0.0436928 -0.042293 -0.00301615 0.0371466 0.0190859
not 0.0132066 0.0453854 -0.0485438 0.00198792 -0.0282805 0.0220222 0.0407956 0.0372751 0.00769388 -0.00941924 -0.0428123 0.00356029 -0.0444037 0.0410106 -0.0364163 0.00418453 0.0227388 0.00600315 -0.0450818 0.0399535 0.0411635 -0.0205845 0.0324153 -0.0148041 0.0342808 -0.0432486 0.00206707 0.0186535 -0.0183216 -0.0371698 0.0083393 0.01844 0.0180937 0.0203919 0.0138504 0.0250176 -0.0373443 0.010118 0.0290164 -0.00909675 0.0109971 0.0186367 -0.038408 0.0417717 -0.0170646 -0.00779485 0.0471442 -0.00182689 0.0479342 0.0418201 0.0117931 -0.0493845 -0.0204731 0.0240177 0.0048789 0.00179752 -0.0418866 -0.0145617 0.0467303 0.00384367 0.0321456 -0.0345338 -0.0030201 0.0450745 0.0153264 -0.0274911 -0.0140853 0.00790706 -0.0327085 -0.0488751 -0.0222116 -0.0236013 0.0193816 0.0453807 0.0104904 -0.0138306 0.00533573 0.0219111 -0.00405337 0.0263375 0.00413101 -0.0177245 0.0043701 -0.0373644 -0.0295985 -0.0498065 -0.0480455 -0.0128642 -0.0430403 0.0149455 0.00106814 0.0154834 -0.034679 -0.0161467 0.0101219 -0.0297722 -0.0415511 -0.00349168 0.00186968 0.0321345
so 0.00693898 0.0185135 -0.0139608 0.0485943 -0.00330725 0.00530863 0.0267461 0.0249117 -0.00892367 -0.0474386 -0.0376821 0.0032729 0.0254216 -0.046116 -0.00461725 0.0144067 -0.000630964 -0.0258188 0.0053741 0.0292446 -0.0218231 -0.0044979 0.034481 0.0433177 0.0221218 -0.0205987 0.036067 0.0253409 0.0179448 0.0458217 0.0202256 -0.00754901 0.0401686 -0.0186256 0.0121758 -0.0185592 0.0394851 -0.0387475 -0.0339284 0.0132589 -0.014962 -0.0460906 -0.0473066 0.0205406 -0.0124094 0.0476446 0.0276738 0.0154239 -0.00829071 0.0401849 0.0219114 -0.0231231 -0.021042 -0.0451573 -0.0449675 0.037207 0.0349188 -0.0250375 -0.0396835 -0.0101097 -0.0471911 -0.0484906 -0.0419564 0.0300373 0.0323832 0.0434753 0.0141348 0.00310613 0.0373901 -0.00571867 0.0416252 -0.0212456 -0.0269705 0.0198023 0.022887 -0.0304517 0.00343789 0.0367773 -0.0414594 -0.0245863 0.00285456 -0.0423342 0.0230559 -0.0192659 0.0499612 0.022374 0.000894438 0.0183917 -0.0115874 0.0225096 0.000211168 -0.0419846 -0.0400196 -0.00447527 -0.00248536 -0.0179743 0.025414 -0.0137989 0.0434143 0.0166789
out -0.00761597 0.0267228 0.0305496 -0.00266159 0.0312385 -0.0250385 -0.0486766 -0.0300142 -0.0304871 -0.0390152 0.0407087 -0.0152419 0.00126175 -0.00311568 0.00518686 -0.0193792 0.0229365 0.0346813 -0.0470302 -0.00689654 -0.038232 -0.0341085 -0.000345826 -0.0379936 -0.0228914 0.0180013 0.0159458 0.0153371 0.0353438 -0.0257366 0.0440982 -0.0264956 -0.0291147 0.0178798 -0.0396296 0.0121214 -0.0251209 -0.00224773 -0.0307832 0.0054026 0.00389682 -0.0104911 -0.0211145 0.0173543 0.0453618 -0.0207241 -0.00614321 -0.0457288 0.0101374 0.0384019 -0.0491211 0.0213722 -0.0299642 -0.0142365 0.0318046 -0.0117661 -0.0158891 -0.00065615 -0.0471719 -0.00318885 -0.0025881 -0.00177129 -0.0326743 -0.00158421 -0.0195114 -0.0390493 -0.000814319 0.0498171 -0.0405406 0.00346565 0.0276033 0.0469141 -0.0201988 0.000807237 -0.0202797 0.00420525 0.0322442 0.0149674 -0.0218988 -0.0127411 0.0128905 -0.0172347 0.0441927 0.0140032 -0.0381437 -0.0448869 0.0385189 0.0487542 0.0300467 0.0351209 0.0288522 0.0435106 0.00360189 0.020601 -0.0371879 -0.0193729 0.0294664 -0.00529033 -0.00704076 0.0277545
if -0.0460747 -0.00139177 -0.027307 -0.0132013 0.0107548 0.0385827 0.0271449 0.0111223 -0.0161643 -0.0236724 0.0331764 -0.0157748 -0.0145437 0.0356185 0.0421357 0.0104634 -0.0359279 0.0264205 -0.036877 0.0219828 0.0320731 0.0476172 0.0345137 0.0177708 0.0125443 -0.0498206 0.0212779 0.0360542 -0.0143272 0.0329198 -0.030778 0.0364411 -0.00162695 -0.0279425 -0.0226738 0.044074 0.0485735 0.0156497 -0.037663 0.0367386 -0.0424533 0.0417632 0.0110221 0.0426019 -0.0384521 0.0316334 -0.00952084 -0.0345731 0.0198791 0.0341453 0.00392809 0.0449675 0.00328096 0.035378 -0.00432286 0.0345014 0.0304784 0.00988974 -0.0292205 0.0136355 -0.0242781 0.036582 0.0339408 -0.00168912 0.0110499 0.0385794 -0.0480334 -0.0218884 -0.00547353 -0.0475114 0.0316142 -0.0272883 -0.0473701 -0.00381887 -0.0379551 -0.00516453 -0.0472317 -0.0212114 0.0218831 0.049957 -0.0224836 0.0063356 -0.030725 0.0404275 -0.0306275 0.0484967 -0.0204683 0.0268062 -0.0165324 0.00386925 -0.00179361 0.0354509 0.0205395 0.0412196 -0.0217816 -0.0191717 -0.0325992 -0.0453355 0.0374753 0.0139021
is 0.031681 0.0468179 -0.0266751 0.00689493 -0.0406428 -0.0258281 0.048623 -0.00252803 -0.0339129 0.028127 0.0403939 -0.0185144 -0.0240123 0.0479862 0.0142296 -0.000666596 0.0235907 -0.0249216 -0.0424833 0.0066529 -0.00886637 0.0123811 0.0157767 -0.0213712 0.0401122 -0.0163925 0.000928413 -0.0293827 -0.0311566 0.0105405 0.0398287 0.0108983 0.0389748 -0.00470614 0.0365894 -0.0489439 0.0231164 -0.0238241 -0.0369602 -0.0265871 0.0366208 -0.000742294 -0.0395807 -0.0323993 0.0163694 0.0271957 -0.00946916 -0.0358049 0.00726189 -0.011803 0.0480555 0.0194895 -0.0113559 -0.000612676 0.0172296 -0.0382255 0.0170934 0.0409606 -0.0462444 -0.00824432 -0.0301745 0.0260717 -0.018366 -0.0413438 0.0463587 -0.0153608 0.00468384 -0.0491131 0.0283493 0.0413243 -0.0405987 -0.0314001 0.000453077 0.0450607 -0.0234696 -0.000612356 -0.00984577 -0.0428071 0.032266 -0.00762331 0.0488946 -0.0186904 -0.00483385 -0.0208951 -0.0464057 -0.0230808 0.0391908 0.00364318 -0.0059626 -0.00796616 0.0473693 -0.0124425 0.00485424 -0.036686 0.0161057 0.00205114 -0.0290004 0.0499555 0.0272216 0.00240437
at 0.0220505 0.00277183 -0.00183554 0.0255615 -0.0179544 0.0473173 0.00728254 -0.0189547 -0.0379956 0.0347503 -0.0351377 -0.0316317 0.00936081 -0.0440696 0.0406135 0.0195868 -0.007604 -0.0400595 -0.0275376 -0.0215205 0.043518 -0.0101255 -0.0124862 0.00601463 -0.0258632 0.0345336 -0.0098204 0.0129329 0.00415635 -0.0231571 -0.00388699 -0.00259411 -0.0119117 0.0181447 -0.0288562 -0.00935993 0.0247939 0.01565 -0.0202007 0.0223384 -0.0347847 0.00114893 0.046076 0.0218216 -0.0290172 -0.00339751 0.0385793 0.0469236 -0.0325572 0.0056637 -0.0249892 0.00273049 0.0409246 0.00641542 0.0407755 0.00723171 0.0390951 -0.0096526 0.000956833 -0.00870099 -0.0202416 0.0231984 -0.0374711 -0.0026313 -0.0376875 -0.0103563 0.0202481 -0.0158218 -0.0194445 -0.0273404 0.046893 0.00835949 -0.0184455 0.0368849 0.00840733 0.0193316 -0.0396081 0.0166846 -0.00199581 0.00904787 0.0390246 -0.0448036 -0.0487747 0.0103376 -0.0172369 -0.0309262 0.0117303 -0.00208749 0.0425788 -0.0428048 -0.0202619 -0.0458809 -0.0010299 -0.0434534 0.0195266 0.0432961 -0.0406951 0.0295884 -0.0017455 0.0421028
t -0.0406877 0.0305437 -0.00543613 0.015486 -0.0341506 0.0443725 -0.0489774 -0.0386956 0.0122202 0.0127941 0.0418584 0.0349711 0.0346763 0.0137266 0.0011817 -0.0206941 0.0305424 -0.0146 0.0188553 0.00956269 -0.0122801 0.00619712 -0.0409574 0.0244634 0.00140338 0.00589519 -0.037674 -0.0367381 -0.0231172 0.0296953 -0.0180661 0.0303241 -0.0473153 0.0240213 -0.0153912 -0.0098285 0.00112836 -0.0228142 -0.0359599 -0.032889 -0.0131772 0.0205388 0.00580363 0.00183707 0.0294859 -0.0367725 -0.0336564 -0.0446174 -0.00677214 -0.0276995 -0.0252024 -0.0179321 -0.0277408 0.0249462 0.025509 0.0415359 -0.0351621 0.0349503 -0.00709494 -0.0115088 0.0293878 -0.00249429 -0.00220814 0.039231 0.0268885 0.0299329 -0.00449314 0.0217119 0.0107419 0.00543631 -0.0211183 0.00303416 -0.000658512 -0.03505 0.0371523 0.0297626 -0.000392221 0.0258513 0.018401 -0.0353994 0.0299231 -0.00248554 -0.0412953 -0.0109078 -0.0398872 0.01225 0.0226086 -0.0213079 -0.0247339 0.0350054 -0.0152599 0.025571 -0.0387278 0.0498137 0.013572 -0.0418777 0.00375825 0.0314198 -0.034501 -0.0121148
s -0.0401198 -0.0375622 0.0245153 0.0122205 0.0104972 0.0280823 0.00475027 0.0401885 -0.0438757 -0.0249163 0.0318224 -0.02888 0.0179348 -0.028437 -0.0270283 0.0379472 -0.0182616 -0.0141555 -0.0393488 0.0247796 0.0281675 0.0122521 -0.0454362 -0.0161453 0.024659 -0.00389519 -0.0215067 -0.0267463 0.0331883 0.0228806 -0.0391425 0.0271915 0.0476312 0.0418226 -0.0322678 0.0457948 0.0482081 -0.0396826 -0.010694 -0.00416467 0.00675901 0.0493627 0.0171627 0.0297163 0.001546 0.0471852 0.014035 0.0284954 -0.0292424 -0.0231595 0.019619 -0.0232867 0.0268835 0.0130761 -0.00529809 -0.0116376 -0.0167068 -0.0157561 0.0338679 -0.0234435 -0.0487754 0.0149654 0.0418882 -0.01803 0.0390364 -0.00200387 -0.0186034 -0.025912 -0.025501 -0.0442858 -0.0459914 -0.0492149 -0.03334 -0.0281984 -0.0425682 -0.0341337 -0.012486 -0.0239819 -0.0249355 0.00239785 0.0213608 0.0342815 0.0367519 0.00969283 0.0315636 0.0451993 -0.00231121 0.000823416 -0.00228645 0.039008 0.0132954 -0.013933 -0.00817648 0.00875302 -0.00588267 0.00191579 -0.0275507 -0.00194529 -0.0373361 0.00843356
ll 0.0417481 0.0433434 0.00893072 -0.00670937 -0.000178922 -0.0454392 -0.0447909 0.0121577 0.0362899 -0.03136 -0.0065252 -0.0227202 0.00441073 -0.00354928 -0.0464165 -0.00636784 0.0367578 0.0327972 -0.0358006 0.0285529 -0.0156906 0.0350905 -0.0134297 -0.0215991 0.00250886 -0.0238112 0.0477604 -0.0253028 0.0240504 0.0381847 0.0213899 -0.0227898 -0.0397153 -0.0065603 0.0377726 -0.0442457 0.0184497 -0.042609 -0.00204152 0.0244335 0.0130906 7.0557e-06 -0.0473088 -0.0128183 -0.0308906 0.0203039 -0.0116186 -0.0232983 -0.0167272 -0.0403432 0.00375428 0.0236932 0.00946127 0.00193729 0.0208708 -0.0170402 0.0181863 -0.0422642 0.0180585 -0.0418483 0.0411207 -0.0454602 0.0293016 -0.0338973 0.0270283 0.0070851 0.0404321 0.0292788 -0.000953056 -0.0302383 -0.04865 -0.0190167 0.0278531 -0.0216443 0.0479147 -0.00960062 -0.00474215 0.0187793 -0.0250316 0.0187537 -0.000666011 -0.0382556 0.0123732 0.0439312 0.0216962 -0.0207758 0.00170613 0.0222595 -0.0330641 -0.00946572 0.0268606 0.028952 0.035559 0.0153602 -0.0348321 -0.0407464 0.0345195 0.0169372 0.00516329 0.0488442
how 0.0482726 -0.0366834 0.0263252 -0.00458268 0.0135559 0.00958843 -0.00712415 0.0370189 -0.0339761 -0.00522254 -0.0380897 -0.0444063 0.0116157 0.00835752 0.0198651 -0.0490402 0.0267686 0.0125543 -0.00791318 -0.0137692 0.0298222 -0.0497208 0.030321 0.000903428 0.021748 0.0313209 0.000475563 0.0309192 -0.019719 -0.0264555 0.0351189 -0.0476088 0.0306008 0.0313792 -0.0275493 0.013684 0.0252441 -0.0454507 -0.0034549 -0.0110755 0.0465857 -0.0342687 0.0413201 0.0263973 0.0484984 0.0232811 0.0412867 -0.025609 0.00139274 0.0481922 -0.043099 0.00900578 -0.00234371 -0.0278949 0.00562095 0.0289719 0.048527 -0.0024524 0.0293958 -0.0438136 0.0469789 -0.0342265 0.0303604 -0.0235582 -0.0255808 0.0416129 -0.0119316 0.0345277 0.000678372 -0.0270956 -0.0382963 -0.0141812 -0.0345455 0.0381861 -0.0420435 0.0425194 0.0124238 -0.00177311 0.0155124 3.16128e-05 0.0013089 0.00917659 -0.0417134 0.00733775 0.00995333 -0.00586499 0.0144118 -0.00325353 -0.0432247 0.0352619 0.0337893 0.0251656 -0.0382363 -0.02911 0.0499782 -0.00258596 -0.012465 -0.0421053 -0.0362398 -0.0410692
they 0.0405614 0.0249562 -0.0331754 0.0189915 -0.0274482 0.019156 -0.0370354 -0.0328707 -0.0277483 -0.0248156 0.0167717 0.0203413 -0.0498249 0.0405617 -0.0229692 -0.0279608 0.0196485 0.00764585 -0.0227504 0.0478274 0.0233293 0.0361983 0.0123009 0.0139655 0.0218988 0.00965364 -0.0277055 -0.0225589 -0.0185845 -0.020287 -0.00858754 -0.000861906 -0.0333057 0.0332444 0.035574 0.0100102 -0.0436529 -0.022524 -0.0201889 0.0440986 -0.0488483 -0.0436953 -0.0163788 0.00902841 -0.0179968 -0.0208846 -0.00588812 0.0285941 0.0342217 0.00622983 0.0412388 0.0210973 0.0308189 0.00714241 -0.0163054 -0.026335 -0.00448648 -0.00109819 -0.0113031 0.0130051 -0.00396842 -0.0318636 0.028153 -0.00736308 -0.0079474 0.0462743 -0.0111978 0.0105142 0.0214781 -0.0337852 -0.0259343 0.016731 0.0451194 -0.00444334 0.0070047 0.0255141 0.00323007 -0.043273 -0.0456649 0.0478303 0.0107898 0.00495453 -0.0380783 0.0419078 0.0445063 0.0215206 -0.00345148 0.0223871 0.0113373 -0.0238185 -0.0452782 0.0387936 -0.001667 0.0391792 -0.0270368 0.0401204 -0.0342649 0.0291993 -0.0246316 0.030321
about 0.0456907 -0.00586905 -0.0488269 -0.012093 0.00304028 -0.000313152 -0.0225146 -0.0395105 0.0404606 0.0240198 -0.0213744 0.0201805 -0.0358897 -0.00661411 0.0262066 -0.00930057 -0.0361389 -0.00749416 -0.0237994 0.0195688 -0.0195978 0.0466221 0.000390589 0.0430831 0.00914273 -0.0234123 0.020815 0.0110106 0.0459258 -0.0183729 0.00564035 -0.0279873 -0.0457393 0.0454273 -0.00478857 0.0329795 0.0409892 0.00703939 -0.0494781 0.0385393 -0.0365861 -0.0314546 0.0139686 -0.0124397 -0.00745379 -0.0433756 0.0240739 -0.0244273 0.0379529 -0.0380906 0.0201395 -0.0339158 0.00116438 0.0344552 0.0246212 0.0215475 -0.0260244 -0.0380424 -0.0403322 -0.0296985 -0.0459184 -0.016853 0.0337675 -0.0491032 -0.0175679 0.0262512 -0.0341435 -0.0155609 -0.0104712 -0.0200411 0.0188119 -0.0418573 0.0419555 -0.029271 0.0494094 0.0181229 -0.0289145 0.0242226 -0.0114236 0.0321438 0.027084 0.0142306 -0.0446042 -0.0107374 0.0487789 -0.012691 -0.0196585 -0.0406539 0.0451037 -0.0408397 0.0270199 -0.0391286 0.0326073 0.00677673 -0.028579 0.00540861 0.0490855 -0.0169071 0.0486716 0.011081
herself 0.0269579 0.0244963 -0.0115764 -0.0364582 0.0123279 -0.0476435 0.00458409 -0.0173442 0.00549953 0.0244258 0.0117308 -0.0384694 -0.039106 -0.0248456 -0.0210617 -0.0245602 0.0369284 0.0108828 -0.0269383 -0.0287559 -0.000981249 0.00438418 0.0485921 -0.0277067 -0.0287022 0.0151927 -0.00241505 0.000927508 0.00498645 -0.0186732 -0.0246157 0.03926 -0.00392503 -0.0187952 -0.0418853 0.0360922 -0.0226727 -0.0163157 -0.0140747 0.0321744 -0.0163979 -0.049176 -0.0272989 -0.0422768 0.0271019 0.0168662 0.0416815 -0.00802458 0.0100549 0.000742029 0.0278698 -0.0164535 0.0401309 0.0376603 0.0296406 -0.0244961 -0.0392256 0.0483978 -0.0411044 0.00676022 0.0397772 0.000382375 0.0228891 0.0398746 0.026587 -0.0385484 0.0287476 -0.00523533 0.0327964 0.0370102 -0.0155217 -0.0399145 0.0189275 -0.0353204 -0.0112674 -0.0455526 -0.011734 0.0053221 0.023531 -0.000473537 0.0319148 0.0304892 -0.0153669 0.038008 -0.0183906 -0.0198339 0.014639 -0.0146087 -0.0183186 0.0300125 -0.0464074 0.0477192 -0.0217511 0.041119 0.0468597 -0.00553911 -0.0144209 -0.0317379 0.0315799 0.0274036
me -0.0224216 -0.0100678 0.0198812 -0.0254625 0.0133985 -0.00971378 0.0106736 -0.039225 0.00534276 0.0135566 0.0122554 -0.016044 0.0305398 -0.0487456 0.0172573 -0.0281039 -0.0407703 -0.0121441 0.00811996 -0.0349791 -0.0473585 0.0297706 0.0264705 -0.0459054 -0.00233371 -0.0121524 0.0108308 -0.0414352 -0.0119892 0.00342016 -0.0353022 -0.0182126 0.000903524 0.0145468 -0.00475921 0.012002 0.00615975 -0.0239767 -0.0147264 0.0439006 -0.0454244 0.0277863 0.00743846 0.0293384 0.0234056 -0.0167256 -0.0469541 -0.0495717 0.0233622 -0.0175662 0.0118347 0.0300511 0.0444541 -0.0499421 -0.00978556 -0.0459869 -0.0137017 -0.0250013 0.00146493 -0.0316298 0.0437566 0.0453541 0.0242453 -0.0332057 0.0101224 -0.00427507 -0.0192633 -0.00763882 -0.0281069 -0.00057305 -0.0464851 0.0372875 -0.0281936 0.030498 -0.0103491 0.0424172 0.00274608 -0.00197508 -0.024352 -0.0187531 -0.0235255 0.0359331 0.0217097 -0.0456969 0.00444285 0.0292522 -0.0145679 0.0229003 -0.0370225 0.0292358 0.00438048 -0.0479918 -0.02654 -0.00114207 0.0128167 0.00478943 0.0452632 -0.0398584 -0.00667406 -0.0489813
up 0.00840032 0.000469781 -0.0491767 -0.0260482 0.0342255 -0.0133175 0.0361963 0.019642 -0.0115474 0.00679475 0.0409687 0.0166321 0.0297065 0.0343864 0.0360581 -0.0366115 0.0226127 0.018121 0.0228853 -0.00310472 -0.0212403 0.0246351 0.0434337 0.0284696 -0.0317353 -0.0299787 -0.0499169 -0.0483597 0.0414266 0.00827324 0.00260458 0.0305543 0.0309589 0.0272736 0.0293251 0.0358699 -0.0400457 -0.0435576 0.0215052 -0.0488187 0.00856055 0.0202578 -0.0180276 0.00629901 0.0106736 -0.0254529 -0.0331672 -0.0464558 -0.00403447 0.0128984 0.0410284 0.0231034 0.00610131 0.0288211 -0.0117852 -0.015115 0.0181249 0.0409786 0.00692494 -0.0204658 -0.0337103 -0.0418733 0.00972869 -0.0430905 -0.0450474 0.0419588 0.0105385 0.0195989 -0.0193075 -0.0365165 -0.0490791 -0.0401426 -0.042883 0.0111174 0.0377252 -0.0421384 -0.0387033 0.0414275 0.0284124 -0.0187861 -0.00841719 0.00838201 0.00394427 -0.0227314 0.0153612 -0.0302897 0.0447647 -0.00887567 0.0437708 0.0359476 0.0275415 0.0252203 0.0319737 0.0100013 0.0177966 -0.00573708 0.0146503 0.00328443 0.0485403 -0.0471514
what 0.0347299 0.0148712 -0.00375811 -0.0168309 0.0461135 -0.00893776 0.0441054 -0.0104122 0.00827919 0.0359478 -4.96991e-05 0.0301227 0.0461396 -0.0300074 0.00272564 0.0117986 -0.00865465 0.0076931 -0.0141173 0.0260981 -0.0275668 -0.0321067 -0.00372588 -0.0421571 0.00156014 0.0183772 -0.0457135 0.0251384 -0.0420684 -0.00694202 -0.040252 0.0494053 -0.0496306 0.0275862 0.0193041 0.014763 0.0148485 -0.0306918 0.00668591 -0.000280213 0.0427538 0.00469202 0.0408594 -0.025315 0.0441698 -0.00500649 0.0324332 0.0193579 -0.0243502 -0.0367307 0.0479948 -0.0362065 -0.0202982 0.00510682 0.0174963 0.0376003 -0.0320779 -0.049222 0.00389745 -0.0231604 0.0494208 -0.00284829 0.0438202 -0.0193734 0.0397053 -0.00251517 -0.0266794 0.0342019 -0.0321569 -0.0199137 0.0103052 0.0111238 0.01186 0.00162561 0.0199592 0.00535965 0.0492258 0.0489786 -0.0206635 -0.0405415 0.0466111 -0.00246338 -0.0251543 -0.00610632 -0.0244381 -0.0499452 0.0419463 0.0352044 -0.0208678 0.0443267 0.0231606 -0.0357105 -0.0433107 0.0146401 -0.0217433 0.0429045 -0.0431501 -0.04159 0.0346656 0.0449912
way -0.0435779 0.00105566 0.00397538 -0.0483015 -0.0394809 -0.0208247 0.0121311 -0.0209597 -0.0173131 -0.0194895 -0.0111358 0.0416696 0.0243394 0.0364643 0.0316606 0.0445333 -0.0208499 -0.0485304 -0.0113117 0.0276893 0.0193976 0.0399329 -0.0410423 0.0425068 -0.0283189 -0.0153921 -0.0150795 0.0319041 -0.00198235 -0.028504 -0.0153575 0.019196 -0.00332107 -0.040084 -0.0149772 0.0415023 0.0348627 0.0133793 0.0184695 -0.0268435 -0.0417273 -0.0473922 0.0353365 0.0225612 0.00282107 0.0413451 0.0246328 0.0110951 -0.00870224 0.0190872 -0.0128292 -0.0426773 0.00948762 -0.0431773 0.021037 -0.0307367 0.025212 0.0424557 0.021908 -0.0057503 0.0397746 -0.00558336 -0.0368614 -0.0122976 -0.0101489 -0.0438261 0.00364554 0.00621501 0.00617483 0.0437652 0.00456037 -0.0303268 -0.0122296 -0.048282 -0.0108583 0.0146028 -0.0139603 0.00281072 0.0269538 0.0310115 0.0427505 -0.0387966 -0.0050519 0.0278946 0.0253907 -0.0114641 0.025182 0.00560047 -0.0381287 -0.0144297 -0.00162347 -0.0271699 0.037497 0.0113624 0.0491111 -0.0318783 -0.048016 0.0204849 0.0087315 -0.0414692
when 0.0141007 -0.00839007 -0.0455451 0.00416147 -0.00307947 -0.0194037 -0.0357664 -0.0162981 -0.0223972 -0.0359447 -0.0218094 0.0293141 -0.0462857 -0.0380494 -0.0186641 -0.0149338 0.0284745 -0.0432191 0.039688 -0.0344189 0.0462591 -0.00343771 0.0258124 -0.0317285 0.0495247 -0.00235843 -0.0370803 -0.0141647 -0.00561811 -0.0217206 0.0020188 0.0291131 0.0160546 0.0403669 0.0366925 0.0418545 0.0306495 -0.016622 -0.0393354 -0.038855 -0.0369509 0.0256705 -0.0215225 -0.0476414 0.0289306 -0.0449746 -0.0311545 0.032961 0.00911482 0.0119803 0.0109204 -0.0036101 -0.0417133 0.0320251 -0.0168663 0.0131601 0.00777416 0.0384089 0.00148993 -0.0458656 0.0269021 0.0397458 0.0194553 -0.0204141 0.0106293 -0.032998 -0.0227316 0.02358 -0.0297791 -0.0194897 0.00721369 -0.000598658 -0.00828994 0.0234608 0.0459602 0.0384139 0.0447244 0.0428481 -0.0356124 -0.0460333 -0.0111752 0.0464796 -0.00382251 -0.0380781 -0.0254675 -0.00203428 0.0138299 0.00907569 -0.0409149 -0.0240919 0.0222351 -0.021625 0.0110516 0.00745925 0.0237341 0.00596653 0.00029416 -0.0214186 -0.00999215 -0.00279973
like -0.0326532 -0.0493393 -0.0410216 0.038318 -0.0220995 -0.0416862 0.0339462 -0.0143677 0.0439702 -0.00429558 -0.0467087 0.0172336 -0.028638 0.0379101 0.0358276 -0.0458007 0.0297876 0.0237373 -0.0389163 -0.0361633 -0.00252628 0.0401125 -0.0328204 0.0327506 0.004294 0.0330498 -0.0357261 -0.0351677 -0.0448187 0.0484341 -0.00575119 0.031831 -0.00146417 -0.0256854 0.00195529 0.0202211 -0.00962891 -0.00843887 0.00551625 0.0457597 -0.0376402 0.0337013 0.0240806 -0.00125104 -0.0229542 0.000385143 -0.0169021 0.0219071 -0.0437727 -0.0318452 -0.00096171 0.014457 0.00277599 0.0496874 0.0320245 0.0036595 0.0442027 -0.0278072 0.0242657 0.0276471 0.0100619 0.0405331 -0.0286308 0.0475096 0.0395501 0.0453418 0.0276971 -0.00152139 0.0401 0.0498471 0.0382821 0.0196138 0.0123435 0.0130411 0.0271234 -0.0425304 -0.00801275 0.0137066 -0.0137582 0.026077 -0.0310255 0.0354355 0.035471 -0.0438818 -0.0431463 0.028137 -0.00412964 0.0244971 0.0372687 0.0156228 -0.0274526 0.0416322 0.00472646 -0.00125865 0.00275713 0.0186923 -0.0481215 0.0484815 0.0227519 0.0203429
one 0.0232259 0.0330094 -0.013123 0.00378653 -0.00763419 0.0341348 -0.00726008 0.0174487 -0.00139592 0.0498835 0.0114779 -0.0331017 0.0358824 -0.0434193 -0.0390625 -0.000274383 -0.0133804 0.0267226 -0.0422713 0.0248534 -0.0336061 0.0371121 -0.00307949 -0.0275135 0.0241476 -0.0495989 -0.0090627 -0.0169757 0.0219697 -0.0361736 0.0342301 0.0273449 -0.0326869 0.0203021 -0.000421144 0.0209273 -0.0253979 0.0335867 -0.0491481 -0.0049039 -0.021085 0.00510533 0.0258485 0.0240448 0.0376079 -0.0321806 -0.0314602 -0.0199789 0.0341073 -0.0461797 0.045598 -0.0440014 0.0483257 -0.0153128 -0.0146506 -0.0191916 -0.0237905 0.013957 0.0225245 -0.0365068 -0.0201181 -0.00742118 0.0125138 -0.00158857 -0.0174806 0.0295741 0.0446 0.0347221 -0.0255809 -0.00797269 0.0427138 0.025758 -0.0345759 0.00808449 0.0268318 -0.00271022 0.0493945 -0.0264184 -0.0083843 -0.0232523 0.0350563 0.0172418 0.0433107 0.0199826 -0.0476499 0.0345159 -0.0294203 -0.0240819 0.0141998 0.0432339 -0.048116 0.00208348 -0.0397838 0.000427164 0.0278398 0.0476276 0.00319395 -0.0270057 0.0146171 0.0263447
do -0.0250294 0.0478789 -0.00607312 -0.00751034 0.0434634 0.00861146 -0.00543243 -0.0327475 0.0257002 0.0353837 -0.0111573 -0.0429584 -0.0411278 -0.0388142 0.0180175 -0.00358047 -0.0079722 -0.0436817 0.00214459 -0.0204132 -0.028404 0.0166343 0.035599 -0.0200683 -0.0477343 -0.0255413 -0.0433138 0.00245821 7.91326e-05 -0.00371516 -0.0262498 -0.0483398 0.00396096 -0.0173713 -0.0366148 0.0153044 0.0236929 -0.0433068 0.0192689 -0.0236031 0.0179099 0.0202823 -0.0119151 0.024735 -0.0376341 -0.0064736 0.0177389 -0.00968188 0.0256542 -0.0218326 0.00657038 -0.0205909 0.00656431 -0.00580161 0.00318719 0.0347685 -0.00289782 -0.0273312 -0.0121804 -0.0169053 -0.0190487 0.0442107 -0.0272348 -0.00191454 -0.0462208 0.0114488 0.022619 0.0335926 -0.0290244 0.0403412 0.0289629 0.015639 0.0244793 0.0456843 -0.0421572 -0.0257543 -0.0354233 -0.017752 -0.0291971 -0.0380454 -0.0124476 -0.00420023 -0.0281463 -4.28446e-05 0.0476818 -0.0144346 0.00868513 0.0423046 -0.0329029 0.00408683 0.0182695 0.0266573 -0.0423242 -0.0143618 -0.0199394 -0.036274 -0.0376833 -0.00286857 0.008803 -0.0496984
no 0.0156658 0.0107493 -0.03582 0.0127318 0.000616957 0.00530957 0.0275816 -0.0200787 -0.0114489 -0.0363677 0.0390638 0.00459598 0.014915 -0.00341768 -0.0342809 0.0274847 -0.00065086 0.0413412 0.0379503 -0.0299147 0.00348728 -0.0212058 -0.0283008 0.0481281 0.00508457 -0.042377 0.00408105 -0.0243368 0.0485827 -0.0336345 -0.023595 -0.0223495 0.0380231 -0.00661472 0.0313989 -0.0047606 0.00389482 -0.042305 0.0160882 -0.04679 0.0478418 -0.00843696 0.00671086 -0.0446727 -0.0223751 -0.0353314 -0.00654246 -0.000580419 -0.00473855 -0.0361944 0.00361781 0.0495246 -0.00745958 0.0386508 0.0265314 0.0363327 -0.046868 -0.0396857 0.0142807 0.0329388 0.0476498 -0.0121838 -0.0359845 0.00685298 0.00591314 0.00374598 0.02674 0.00385835 -0.00909067 0.0139882 0.0441802 -0.0405175 0.00683563 -0.0167521 0.0373444 0.0459468 -0.0390551 -0.0364165 0.0372247 0.0161793 -0.0176043 -0.0486198 0.0363505 0.0481324 -0.01673 0.0366481 0.0270334 -0.0068259 -0.0316146 0.0484315 -0.0449993 0.0318507 0.000391863 0.018596 0.0227571 -0.0180161 0.00259907 -0.0257673 -0.0353961 -0.0449936
oh 0.047547 -0.000174154 -0.036667 0.0124354 -0.00386246 0.00578121 0.0305667 -0.0260992 0.0328626 0.0416663 0.0412536 0.0271101 0.0143921 0.00460232 0.0484214 0.0287548 0.0138086 -0.0261126 0.00620677 -0.0437865 -0.0129468 0.0259333 -0.0306683 0.00689884 0.04133 -0.0471868 0.0147732 0.0372386 -0.0136033 -0.0169623 -0.0486482 0.0262177 0.043536 -0.00465014 0.0133672 -0.00253994 0.0395421 0.0385762 -0.00487492 0.00759931 0.00776426 0.0435526 -0.0406091 -0.0129096 -0.027237 0.0301627 0.0361743 0.0116768 0.0475669 0.0219171 -0.00182117 0.0486017 0.0475911 0.0358687 -0.0117288 0.0240461 0.0125486 0.00487657 0.0225026 0.00959344 0.0102106 0.0103917 -0.0325914 0.00716088 0.00735318 -0.00637716 0.0140317 0.0444037 -0.00809175 0.0214229 -0.0419416 -0.0127723 0.0247482 0.0449562 0.0159812 0.0346205 0.0149432 -0.0111755 0.0331555 0.0289717 -0.0432224 0.00152129 -0.00548192 -0.0136686 0.0469853 0.0178236 -0.0169152 -0.0197714 0.041291 0.00330486 -0.0208985 -0.0368228 0.019251 -0.0330371 0.037996 -0.00416982 -0.00784464 0.0012093 0.0408681 -0.044724
went -0.0112568 0.0326095 0.0290009 0.0222865 -0.0193221 -0.0211879 0.0310527 0.0168583 -0.0467653 0.0226848 -0.0237479 0.0449904 0.00682647 -0.00475966 -0.028399 -0.0300233 0.0208363 0.0497835 0.0229059 0.0256543 0.0162478 0.00802857 -0.0151816 0.00250681 0.0422008 -0.0154004 -0.00523348 0.0242883 0.0433562 0.0138927 0.00735221 0.0256437 0.023804 0.0474059 0.00448994 0.0405116 0.0249109 0.00560385 0.0262465 -0.0417152 0.0419027 -0.0180666 0.0439056 -0.0496855 -0.0355552 0.042473 0.0220775 0.0351435 -0.0022014 0.0466061 -0.0156968 -0.0251445 -0.0427977 0.0147887 -0.0296329 0.0116478 -0.0228041 -0.0131711 0.00806369 -0.00854026 -0.0497543 0.023561 0.00339515 -0.0240668 -0.0255406 0.00568273 -0.00237693 0.0386898 0.0153806 0.0459075 -0.018814 -0.00138594 -0.0460224 -0.00874487 -0.0425209 0.0437348 -0.0153518 0.0307846 -0.0366993 0.0322494 -0.00128552 -0.024823 0.0293326 0.0101951 -0.0361869 0.031379 -0.0325288 0.0415263 -0.027383 0.0226956 -0.0229099 -0.0172724 0.00323634 -0.0333879 0.00834602 -0.00558965 0.00372733 -0.0144479 -0.0172269 -0.0400835
thought 0.0205581 -0.000980806 0.0326244 -0.0382615 0.02165 -0.00612961 -0.0360474 -0.0059127 -0.0313031 -0.0429911 -0.0362932 -0.00290985 0.0192358 0.00935242 -0.0257902 -0.0434411 0.0194236 0.0027208 0.0105753 0.0153521 -0.00506599 0.00812911 0.00174284 0.0246774 0.0264979 0.0246493 -0.0486426 0.0460688 -0.0153127 -0.00108522 0.00154849 -0.0164061 -0.0177778 -0.0180485 -0.0378839 -0.0158006 -0.0172565 0.0309368 0.0218701 -0.0422069 0.00536408 0.0171915 0.0210398 0.0120105 -0.0404974 0.0282046 0.0309303 0.0178846 0.0493227 -0.0274914 -0.0270968 -0.00161112 0.00885365 -0.00787759 0.0142351 -0.0321507 -0.0387559 0.0449051 0.0276327 -0.0393196 0.0273212 0.0390661 -0.0397362 -0.0329898 0.0379024 0.0205446 -0.0289155 0.00733707 -0.0158978 0.0317236 -0.0104598 0.0326548 0.0260992 0.0354077 -0.0352724 -0.0491099 -0.00382962 0.0463816 -0.044892 0.0288384 -0.0493344 -0.0201579 -0.0303077 -0.00923108 -0.0188517 -0.0273803 -0.0406035 -0.0162207 -0.0274758 -0.0444655 0.0365015 0.0138304 -0.0223986 -0.0491806 -0.00833964 -0.032195 -0.0152586 0.0280197 -0.00768352 -0.0455777
again -0.0136745 -0.036016 -0.0107116 -0.0363171 0.00677527 -0.0342904 0.0201034 0.0340608 -0.0458749 -0.0469811 0.0466818 -0.0375276 -0.00790813 -0.0496344 -0.0277835 0.048632 0.00615629 -0.036077 0.0276022 0.00714182 -0.0482973 0.000361048 -0.00550757 -0.0466651 0.00773431 0.0498097 0.0341765 -0.0306887 0.000336848 -0.0234872 0.0309818 0.0382116 -0.028188 -0.00240903 -0.0253746 -0.00512537 -0.025846 -0.0028505 -0.00375954 0.000273786 0.00802226 0.0173427 0.0132588 0.0343414 -0.0183299 -0.0172506 -0.0260394 0.0412583 0.0102758 0.0482346 0.0453554 0.0427953 -0.0459213 0.0444429 0.0155789 0.00833359 0.0180185 0.0322229 -0.041474 0.0153267 -0.0104318 0.0203833 0.000344645 -0.0154662 0.0276155 0.0103598 0.0348971 -0.0015239 0.00550525 -0.00339685 0.00973483 -0.0466841 -0.021588 0.0364859 0.0023638 0.0086756 -0.0461355 -0.0437935 0.023153 -0.00853954 0.0332663 -0.00861429 -0.0338472 -0.0379998 -0.0267833 -0.0437646 0.0481544 0.00409045 -0.0241379 0.00442343 0.0259199 0.0255782 -0.0305715 -0.0276216 -0.00271919 -0.0378485 -0.0238301 -0.0408121 -0.0243858 0.00796616
there 0.0253767 -0.0034125 0.0307695 -0.0285272 0.012177 0.046975 0.0204067 -0.0148614 0.0404194 -0.0290799 -0.0459779 -0.0357765 0.0299732 0.0227054 -0.015017 -0.0130509 -0.029908 -0.0251695 0.0369807 -0.018096 0.0387467 -0.00400952 -0.0400439 0.0230816 0.00977205 -0.0420508 0.0106033 -0.00751507 0.0377089 0.00623966 0.0336847 0.0423757 -0.0342915 -0.0306235 0.0219761 0.0377112 0.0190378 -0.0244311 -0.0301569 0.0341924 0.0189626 -0.00973123 -0.0304878 0.0196035 -0.0355741 0.0262977 0.0435799 0.0293129 -0.0251445 -0.0119739 0.00279294 -0.034941 -0.0308909 0.0498632 -0.0446747 0.0282772 -0.0244933 0.0425665 -0.0324425 0.00369544 0.0284167 -0.0208515 -0.0313464 -0.0429518 0.0274693 0.0254838 0.0288975 0.0469904 -0.0332399 -0.0469441 0.00715138 0.0375627 -0.00712086 -0.0254989 -0.00194448 -0.0030607 0.00037726 -0.0235825 -0.0171403 -0.0134462 0.0373104 -0.0113781 -0.0064851 0.0396196 -0.0309464 0.0395266 0.0178453 0.0110501 0.0232221 -0.0461723 -0.036534 -0.0269004 -0.0170523 -0.0274964 -0.0332543 0.0488471 0.0488191 0.0029638 0.0390377 0.0427263
see 0.0197771 0.0333964 0.0075022 -0.00277547 0.00799699 0.027908 0.0285559 0.0414549 -0.0485243 0.0224883 0.0149612 -0.0447842 -0.04386 -0.0433209 -0.0380752 -0.0428131 0.0373285 0.00163691 -0.0247319 -0.0420554 -0.0139573 -0.048221 0.0435655 0.0172735 -0.035335 0.0444863 0.0370883 -0.0148711 0.000495244 0.0379312 0.00620522 -0.0472077 -0.0327154 0.0217515 0.0143933 -0.045227 -0.0438664 -0.032042 -0.0056227 0.0360042 -0.0283876 0.0162277 -0.0385953 -0.0108128 -0.00307411 0.000363968 -0.0309377 -0.0411495 -0.0476433 0.0439031 0.0333317 0.00508387 -0.0356382 0.0027988 -0.0455723 -0.0446873 0.0181685 0.0488834 -0.0316226 0.0179624 0.0483185 0.0115735 -0.00718923 -0.0468997 0.0311687 0.0326247 0.0396204 0.00740447 0.0371764 0.0401256 0.0343375 0.00481976 0.0258544 0.0157524 -0.0320512 -0.0274615 0.0395634 0.0455968 0.0103401 0.000514291 -0.0326767 -0.0341565 0.044118 -0.0254206 -0.0139029 -0.0376624 0.00184197 -0.016553 0.0233988 -0.0150444 0.0461089 -0.00568024 -0.0131806 0.0427717 0.0445967 0.01025 0.0059875 -0.00521189 -0.00442619 -0.0274578
or -0.016709 0.0387161 -0.0252671 0.0045043 -0.0301304 0.0427249 -0.00952171 -0.0228045 0.0435573 -0.0273622 0.0150027 0.0289946 -0.0187152 0.0344198 -0.0134855 -0.0339826 0.0253109 0.0311869 0.00467144 -0.033678 -0.02654 0.0417518 0.0446128 -0.0155749 0.0287096 -0.0422806 -0.0252175 0.0373825 0.0401773 -0.0327796 0.0101786 0.00946988 0.0463294 -0.0129488 0.0185517 0.0192568 0.029571 -0.0384045 -0.00460155 -0.023626 -0.0146138 0.0200793 0.0200468 -0.0421691 -0.00101373 -0.0358986 0.00852934 -0.0029145 0.022566 -0.0230692 0.0392877 0.0185751 -0.0457821 0.0186917 0.0165185 0.0303972 0.0128849 0.0251622 0.00437228 -0.014183 -0.0168496 0.0166105 0.00427745 -0.00798015 0.0176738 0.0260257 -0.01284 -0.0130705 -0.0174535 -0.0268528 -0.0245021 0.0490979 -0.0208103 -0.0403695 0.0408458 -0.00175017 -0.0478549 -0.0434815 -0.0018387 0.0274726 0.0427343 -0.021402 -0.0347294 -0.0417144 0.0134408 -0.0217154 -0.0331958 -0.000914313 0.046243 -0.0320974 0.0373281 0.0471317 -0.0164093 0.0352908 -0.0408302 -0.0455964 0.0299514 0.00485008 0.0330295 0.039712
could -0.00271998 -0.0279744 0.015443 -0.0486683 -0.0316765 -0.00253443 0.0308291 0.0464198 -0.0409672 0.0253107 -0.0499973 -0.0301479 -0.000741016 -0.0159952 -0.00837846 -0.0475907 0.00171198 0.0486546 -0.0230749 0.0309099 0.00453334 0.0224574 0.0274155 -0.0103076 0.0438052 0.0278347 0.0236854 0.0350083 -0.00193126 -0.00824894 0.0183063 0.0110147 0.0259222 0.0357165 -0.0376341 -0.0269819 0.0116081 -0.0317361 0.00440849 0.0240535 -0.0335059 -0.0398487 -0.0455992 -0.0480141 0.014775 -0.0103958 -0.0278509 0.0052049 0.0251633 -0.0395695 -0.000995588 0.00420859 -0.0421224 -0.0432793 -0.0247766 0.0370565 -0.0331041 -0.0219193 0.0266065 0.0327384 0.0103059 -0.0094152 -0.0319426 -0.0375096 -0.0243576 -0.0182027 -0.0477696 -0.0143525 0.0460825 0.0309998 0.0380782 0.0122563 0.0152146 -0.0167176 -0.0304688 0.012043 -0.0450873 0.0408321 0.0255688 -0.0294725 0.00378156 -0.0220829 -0.037579 -0.0300048 -0.0329008 -0.0447749 0.0222476 0.0308846 -0.0455886 -0.00627022 -0.0133425 -0.00196026 -0.0213653 -0.017745 0.042688 0.0207595 0.00670842 -0.0108431 0.0262973 0.044044
would -0.00851995 -0.0381468 -0.0467314 0.0300396 -0.0258062 -0.0183716 -0.0106195 -0.00299726 0.00233512 0.0288056 0.00858613 -0.0113964 -0.0293474 0.0056515 0.00911612 0.0183671 -0.00381812 0.0144691 -0.0131664 0.0321349 0.0487168 -0.00939346 -0.0267301 -0.0146394 0.0226321 0.0205292 0.0442928 0.00308855 0.0156178 -0.0305883 -0.0235792 0.0376761 -0.0262492 0.0334227 0.0427344 0.00623062 -0.0122382 -0.0383 -0.0431792 -0.0212939 0.0438902 0.0386937 0.0293209 0.0484677 0.0165851 0.0277072 -0.0279736 0.00525079 -0.0461098 -0.0135336 -0.0119501 0.00756074 0.00940629 0.0254883 0.0210857 0.00717707 0.0477827 -0.0188478 -0.00967558 -0.0233095 0.0232175 -0.0223273 0.00957651 0.0108482 -0.0173058 -0.0338139 0.0079693 0.0479084 0.0147905 -0.0300196 -0.00718601 -0.00455832 -0.00378139 -0.00629535 -0.00229102 0.0323047 -0.0207829 -0.0272557 0.0132481 -0.0123399 0.0475416 -0.0383943 0.0415527 -0.0480798 -0.0435563 -0.0161442 0.00766915 -0.0470555 0.0428357 0.0237012 0.0161021 0.0313414 0.0320775 -0.033938 -0.0299645 0.0268094 0.0286062 -0.00216194 0.0327649 0.0293837
think -0.0216259 0.03426 -0.020644 -0.0249308 -0.0287775 -0.00926024 0.0040745 -0.0335632 -0.0251222 -0.0456287 -0.0213235 -0.00494043 0.00185648 0.0377702 0.00807189 -0.0120734 0.0279238 -0.0255071 -0.0235326 0.0215333 0.0383431 0.00770164 0.00523816 0.0415975 0.0294257 0.045927 0.00151203 -0.015977 0.0173839 0.0128115 0.0104089 0.039921 0.0181593 0.0272396 -0.0378253 -0.00070896 -0.0155474 0.0230155 -0.045524 -0.0481086 0.0383821 -0.000537705 0.0388802 0.0345901 0.00169948 -0.0171857 0.0226182 0.00579273 -0.0194525 -0.00208195 0.0440484 -0.0086026 0.030817 -0.0157618 0.0217393 0.0292756 0.00024569 -0.00658501 0.00280476 -0.0181711 -0.0392138 -0.00809288 0.0299522 -0.0288249 -0.0121741 0.014751 0.00869478 -0.0398494 0.00325929 0.0365715 -0.0391183 0.0144851 -0.0488897 0.0029575 0.00172564 -0.000205051 0.0304192 0.0449654 -0.0394736 -0.014786 0.0415552 -0.0111047 0.0247838 -0.0359086 0.0134684 0.000401057 -0.0102202 0.00833187 0.036959 -0.00110267 0.0425464 0.0493769 -0.00493611 0.0347489 -0.0199856 -0.0228066 0.00771451 -0.0311507 -0.0374381 0.0255061
them 0.0292998 -0.0134678 -0.0271737 -0.0422616 0.0324015 0.036843 0.0404755 -0.0186732 0.0297128 0.00752307 -9.07555e-05 0.0469586 0.0056998 0.0190189 -0.0456693 0.0107293 -0.0316528 0.0415463 -0.0301183 0.0166833 0.0463401 0.00403603 0.0406924 -0.0238303 0.0141096 -0.0468301 -0.00338014 0.00956483 -0.0370674 0.00758604 -0.00835643 -0.0300925 0.0050967 -0.0458691 -0.0143582 0.0332695 0.0400812 -0.0152223 -0.0256267 -0.00423188 0.043651 -0.0203484 0.0323154 0.0323146 -0.0421629 -0.0481119 0.0493154 -0.0346439 0.0027894 0.0488383 -0.0336755 -0.0322171 -0.00118612 -0.020451 0.0378301 0.0280574 -0.0362972 -0.026197 -0.0317794 0.0407084 0.0473721 0.0464264 0.0301807 0.0251959 -0.035672 0.00435494 0.0147516 -0.0464854 -0.029619 -0.0375143 -0.0169224 -0.00622563 -0.0410129 -0.0162689 -0.00555613 0.024572 0.00167023 0.0127143 0.00169394 0.00895013 0.0462357 -0.0423114 -0.0462892 0.0393145 -0.0339312 0.0211689 -0.00322533 0.0311974 -0.0362877 -0.00645251 -0.0108404 0.0238421 -0.0136569 -0.0292489 -0.0119213 0.0266874 -0.00996047 0.0115895 -0.0259418 -0.0498989
know -0.0317798 0.0375547 0.0401231 -0.0104279 -0.00425012 -0.00489522 -0.0282954 0.0372445 -0.00206561 -0.00225413 -0.0327292 -0.00176724 0.0470928 0.0343406 -0.00911113 0.00939841 0.0368434 0.00476361 -0.0228169 0.0178499 0.041935 -0.0472676 -0.00158874 -0.0354496 -0.0409048 -0.025241 0.0436772 -0.000779785 0.00459517 -0.0370023 -0.0156066 -0.0304539 -0.0302722 -0.0221834 -0.0442574 0.0364833 -0.0482291 0.0353463 -0.0438832 0.0451402 0.0082705 0.0439412 -0.0429661 0.0142221 -0.0354323 0.0163788 0.0101173 0.0460184 0.0379875 -0.0341058 -0.0428725 0.0450448 -0.0245415 -0.000917338 -0.0106366 -0.0102374 -0.0190882 0.0296204 -0.00785647 -0.0194967 -0.0180669 -0.0475008 -0.0223535 0.0207571 -0.00409504 0.00526382 -0.0440193 0.0324869 -0.0149725 -0.0386406 0.0327447 -0.0246857 0.0337215 -0.0416273 -0.0347141 -0.0492286 0.00527233 0.0496277 -0.0211122 -0.020687 -0.0434528 0.0465867 -0.00347104 -0.0231643 0.00151123 -0.041949 0.0231341 0.0204768 0.0425735 -0.00869441 0.00533975 -0.0129552 0.0377896 0.0308995 0.0257289 -0.0150409 -0.0401735 0.0303983 0.0249673 -0.012606
rabbit 0.0102882 -0.0346835 0.0278878 -0.0494036 0.0486926 0.0332964 0.0300926 -0.0380441 -0.0343188 0.00421313 -0.0311252 -0.0294223 0.000918519 -0.0403376 0.0135592 0.0324244 0.0376639 0.0219676 -0.0068432 -0.0379043 -0.031281 -0.0139435 0.048316 -0.0181968 -0.0116589 -0.0142725 -0.00654947 0.048683 0.0115611 -0.00286802 -0.00222097 0.0214423 0.0223353 -0.0396254 0.00575418 0.0142165 0.0480866 -0.0179696 0.0317781 0.0476791 -0.0479042 0.0215142 0.0331174 0.00040102 0.0441828 0.0435575 -0.00713023 -0.0453291 0.0448166 0.0240736 0.0136352 -0.0276223 -0.0423306 -0.00940157 -0.0302696 0.0429142 -0.0432208 -0.0266384 -0.0152923 -0.0254179 -0.0334669 0.0406175 -0.0410579 -0.0336493 -0.00151224 0.0480336 -0.0155923 0.0114975 0.0322893 -0.00709563 0.00444062 -0.0101262 -0.0211114 0.0206423 0.0316947 0.0236302 -0.0184172 0.00883565 0.0304202 0.0199125 -0.0275024 0.0148075 -0.0114771 -0.0153106 -0.0340121 0.0457469 -0.0102535 -0.0295941 -0.0276369 -0.0387377 -0.0288472 -0.0376129 -0.0437117 0.0202436 0.0371739 -0.0128713 -0.0215701 0.0437053 -0.0473966 -0.00551636
dear -0.0342879 0.0497914 0.000682451 -0.00530851 -0.0290621 -0.0402331 0.0454539 0.0465837 0.0203928 0.00265316 0.0404107 -0.0440792 0.0242498 -0.00163137 -0.0134951 -0.0341783 0.0202556 -0.0402264 -0.0487807 0.0235388 -0.0195728 0.0215553 -0.0381491 0.0264539 0.00325341 0.0360068 0.0417968 0.0344145 0.00429501 -0.0215826 0.00396059 0.040133 -0.0490723 0.00354648 -0.0317765 -5.02691e-05 0.00235741 0.008315 0.0293197 -0.0268304 -0.0025483 0.0088037 0.0284385 -0.0336307 0.0031377 0.0299171 -0.00162456 0.0455802 -0.0346028 -0.041259 -0.011885 -0.0428902 0.0121625 0.0196428 0.0432033 0.00491413 0.0478372 0.00881886 0.0229253 0.0240281 -0.0232427 -0.0306323 -0.0448814 -0.014141 0.038623 -0.0265905 -0.0220502 -0.0470607 -0.028724 0.0196469 -0.0147274 -0.0244453 -0.0408505 -0.00677844 -0.0129997 -0.0055982 0.0317965 -0.00812719 0.00641446 -0.0446278 -0.0257904 0.0364142 0.0304664 -0.0044323 0.0382256 0.0300601 0.01447 -0.0466096 -0.0497069 0.0463901 0.0173038 -0.0485221 -0.004398 0.00743741 0.0209081 -0.00771799 -0.00471542 0.0255155 -0.0341884 -0.0446597
were 0.0198756 0.013152 -0.0303217 -0.0459745 0.0393183 0.0445719 -0.0151766 0.0153316 -0.0251236 -0.030415 0.0181708 0.038475 -0.0084402 0.0494787 -0.0357268 -0.00331969 -0.0267206 -0.00896534 0.0176437 -0.00121369 0.0384233 0.0325019 0.00757275 -0.0418963 -0.00808002 -0.0184742 0.0127355 -0.0265399 -0.045676 -0.0171658 -0.0141174 0.0116403 -0.000305891 -0.015353 -0.0172895 -0.0265357 0.0355609 -0.0174395 -0.039602 0.00978658 -0.00113185 -0.0413213 0.00688238 0.0378896 -0.00302636 -0.0387734 0.0180711 -0.0389692 -0.00307237 -0.000659775 0.0325476 0.0233795 -0.0362312 0.0375861 0.0309706 0.0417052 0.0387056 -0.0141252 -0.0471524 -0.0311872 0.00735857 0.0194451 0.0193618 -0.0462097 0.000396647 -0.0496734 -0.0160928 0.0487753 -0.0400502 0.0161494 0.0429859 0.00945461 -0.0402531 0.00419347 -0.00191935 0.00709059 0.0285453 0.0208012 0.039093 -0.0484356 0.0431342 0.0354337 0.0104827 -0.0431441 -0.0462765 -0.047455 -0.0181105 -0.00743366 -0.025794 -0.047332 -0.0173089 -0.0290408 -0.0257595 0.0180003 -0.00376545 0.0159661 -0.0357368 0.0144856 -0.0116735 0.0220473
time -2.41399e-05 0.0263662 -0.0324298 0.000824176 0.0427402 -0.0265622 0.0361522 -0.0337081 0.0410209 -0.0198029 -0.00858207 0.0395686 0.00380795 0.0077334 -0.046996 0.0417952 -0.00938462 0.0192851 -0.0386557 0.011652 0.0438965 -0.0142343 0.00827377 0.0491852 0.0433994 -0.0255886 0.00606962 0.0345491 0.0436805 -0.0498279 0.00577662 -0.0402858 -0.0109069 0.0463956 -0.0362819 0.0100823 0.0210759 -0.0443852 0.0170956 -0.0455966 -0.00838995 0.000271846 0.0108788 0.0411268 -0.043934 0.0106361 -0.034695 0.0175355 -0.0209734 -0.0358642 0.0399943 -0.0102846 0.037286 0.013111 0.0117891 0.033098 -0.0392877 -0.0387923 0.0446179 -0.0186457 -0.036093 -0.0324891 0.0249146 0.0159845 0.0270771 0.0261427 0.00273857 -0.0372657 -0.0128552 -0.0411293 -0.044275 0.0401687 0.0249938 -0.0395683 -0.00958426 -0.0185879 0.0293305 -0.0276128 0.0149975 0.0409182 0.0201565 -0.0410392 -0.0245612 -0.00246458 -0.040583 -0.0388012 -0.0028754 -0.0421434 -0.00188122 -0.0190364 -0.027932 -0.0109688 -0.0451139 0.0480938 -0.00678809 -0.00468115 0.00236611 0.00616277 -0.0368659 0.0462471
get 0.0031299 0.0067615 -0.036977 -0.0167361 -0.0383242 0.0012121 -0.0363912 0.0272637 0.0192997 -0.0385284 0.00115718 -0.0443986 0.0414381 -0.00860361 0.0369607 -0.0493863 0.0101971 0.0457681 -0.019599 -0.0437536 -0.0424309 0.0470037 -0.036685 -0.0139625 -0.0155918 -0.00436244 -0.0069563 -0.00252471 -0.0111575 0.00483239 0.0022405 -0.00956166 0.0168523 0.00125965 -0.0164082 0.0466028 -0.0195316 -0.0226951 -0.0218074 -0.014831 -0.0150291 -0.023342 0.042148 0.018848 0.0181302 -0.0309253 0.0461236 -0.0227094 0.00168516 0.0287538 -0.00433067 -0.0165939 -0.00911807 0.0231691 0.025076 0.0145469 -0.0295184 -0.0418604 -0.0443751 -0.0274139 0.0378055 -0.0265867 0.027389 0.00678615 -0.0228613 -0.0146898 0.0457653 0.027518 0.0222477 -0.00717932 0.0458259 0.00632669 0.00587014 0.0298403 -0.0401409 -0.0290774 0.0434703 0.00552098 0.0135471 0.0491607 0.0366919 0.0206229 0.0412325 0.0499103 0.023718 0.00516311 -0.0123216 -0.0465209 0.0294725 0.0100881 -0.0319831 -0.019993 0.0475547 0.00217719 0.0154395 0.00721009 0.00674754 -0.0312896 -0.0304458 0.036454
here -0.0193219 -0.0333119 0.0367747 0.00365589 0.0197412 0.0302689 -0.0247938 0.0475622 0.0258791 -0.0304921 -0.00522081 -0.0452691 0.0460648 0.000204932 0.0332968 -0.00504069 0.00759709 -0.0325455 0.00709866 0.00484611 0.0120521 -0.00250024 0.0428705 0.033127 -0.047335 0.0297861 -0.0118012 -0.0165892 0.00391696 0.019031 -0.0215902 0.0332918 -0.0272611 0.0394436 -0.047417 0.0162006 0.0451251 0.00203351 0.0112224 0.0499004 -0.00249267 -0.0281446 -0.0371731 -0.00327837 -0.0477703 -0.00668856 -0.0115211 -0.0438769 -0.0167475 -0.00804502 -0.0171885 0.0194683 -0.0170531 0.0215513 0.0481524 -0.039399 -0.0338515 -0.0398414 0.0268992 -0.0447897 -0.0368531 0.0310726 0.0344363 0.0436733 0.0279755 0.0337301 0.0245829 -0.0223675 -0.00295078 -0.037899 0.0221117 0.0172304 -0.000258349 -0.00645499 -0.0231893 0.0010263 -0.00959599 -0.0442963 -0.000785828 -0.0485688 0.041972 0.0167603 -0.0452782 -0.0304678 -0.0216896 -0.0463759 -0.0145749 -0.0397416 -0.00361142 0.032824 0.00959802 0.0216555 -0.0174389 0.00179794 -0.0169346 -0.00635374 0.035598 -0.0447244 -0.00763844 -0.000672258
must 0.00293099 0.0316974 0.0357451 -0.0212803 -0.0345501 -0.0279321 0.0431424 0.037729 -0.0470564 0.0327888 -0.00800315 0.0307542 -0.00746846 0.0469471 -0.0142687 0.0248381 0.0081099 0.0430647 0.0102235 -0.0466016 0.0442018 0.0375604 -0.0264479 0.014003 -0.0466085 -0.0190457 0.0315302 -0.00715277 0.0150022 -0.00357153 -0.0448196 0.00270789 0.041563 -0.0437744 -0.000934422 -0.00446399 -0.0377928 -0.0194651 0.0400019 -0.0357654 0.00616436 0.0410205 -0.00486741 -0.00427788 0.0389697 0.031308 0.00337087 0.0448382 -0.0474632 0.0451776 -0.0296943 -0.0232468 0.0304512 -0.0415507 0.00886776 0.0345856 0.0188425 -0.0341634 -0.039366 0.0306322 -0.00877016 -0.041552 0.0484755 0.048462 0.0350551 -0.0333136 0.0456393 0.0430215 0.0182339 -0.038799 -0.00471012 -0.0346268 0.0218397 -0.00739948 0.0475507 -0.0177725 0.00536216 0.00424074 -0.00649265 0.0178646 -0.0192177 -0.00283279 -0.0364254 0.0455218 0.0245301 -0.0388996 -0.00157517 0.0394638 -0.0306515 -0.00938112 0.0109129 -0.00107978 0.0153936 0.00599935 0.00909888 0.000885569 0.0384981 0.044605 0.0350101 0.0443895
my -0.0173071 -0.00442947 -0.00878476 -0.0161222 -0.0476409 0.031333 0.0372262 0.0111724 0.0295704 0.0122211 -0.0477207 -5.06267e-05 0.015685 0.0274203 -0.0300081 -0.0282633 0.00252259 0.0435889 0.0367182 0.0145365 -0.0321221 -0.0267684 0.0192677 0.0490719 0.0071784 -0.0461787 0.00855265 -0.000630867 0.0258513 0.0277147 0.00938418 -0.0362366 0.0454503 -0.0306768 -0.0455676 0.00950019 -0.0212991 0.0421453 -0.0172084 0.0432465 0.00459901 -0.00395282 -0.00808916 -0.0183602 0.0244508 -0.00948526 0.00131656 -0.0320736 -0.0412643 -0.000691224 0.0020862 -0.0286563 0.0144153 0.0259204 0.00776467 0.0494134 0.013282 -0.0210298 0.0456118 -0.00585113 -0.0187061 0.0222502 0.00990565 -0.0281079 -0.0273728 0.0479232 0.0485498 -0.0213644 -0.0134115 -0.0258501 -0.0304787 -0.00560836 -0.00557404 -0.0357676 0.0457732 0.0479562 -0.0154997 0.00363947 -0.00279883 -0.0393244 -0.0300179 0.0220691 -0.0161608 0.0277395 -0.00523288 0.0444572 0.0179121 0.0301747 -0.00700737 -0.0248758 0.0308837 -0.00158706 -0.0481071 -0.0351358 -0.0102841 0.0450317 -0.0155551 -0.0448679 0.00645439 -0.012611
by 0.00620816 -0.0223925 -0.00383161 0.0265492 0.0452643 -0.0483517 -0.037511 -0.0393894 0.0125662 0.00133157 -0.00144754 -0.0150027 -0.0480519 -0.0412878 -0.0362887 -0.0369982 -0.0154711 -0.0279731 0.00244178 -0.0434916 0.0455573 0.0174905 -0.0456778 0.00986417 -0.00417831 0.0108655 -0.0258489 0.0311395 0.0444381 0.0220221 -0.0075001 0.0410049 -0.0302202 0.0384074 -0.0444861 -0.0325022 -0.0325026 -0.00389601 0.0333332 -0.0470238 -0.00461556 -0.00464793 -0.0408012 0.046614 0.0335015 0.019123 0.026984 0.0461303 0.014925 0.0335049 0.00592321 0.0232911 -0.0480229 -0.0280725 -0.0140813 0.0364868 -0.0204604 -0.019721 0.00742478 0.0221867 -0.0440083 0.0345102 -0.0262522 0.0124997 -0.0209172 0.041283 0.0247694 0.00958646 -0.0428377 -0.0304596 0.0472817 0.0296273 0.0184103 0.0356054 0.00115671 -0.0406877 -0.0111979 -0.0346209 0.00722788 -0.0310482 0.0376285 -0.0348395 -0.00595318 -0.0400669 -0.0475836 -0.0181967 0.0344707 0.0259397 0.0297188 0.0362237 0.0228618 -0.0309982 -0.00223087 0.0102436 0.000311434 0.0457547 -0.0203865 -0.00555644 0.00690049 -0.0347056
into 0.0487381 0.0370588 0.00479763 0.0234025 0.00946759 0.0293985 -0.0102862 -0.0137979 0.0320493 -0.00680314 0.0150451 0.0169507 0.0326753 0.0257185 0.0177898 0.0376161 -0.0423603 -0.041105 -0.0340739 0.0321548 0.0417675 0.0204006 -0.0283602 -0.0469348 0.0415345 0.0484459 -0.0304912 -0.00589477 0.00952139 0.0403382 -0.000210918 0.00928075 -0.0149706 0.0160473 -0.0205177 -0.0496914 0.0280265 0.0370715 0.0134298 -0.0374605 -0.0444166 -0.0110732 -0.0468353 0.000367843 0.0489212 -0.0322112 -0.0101866 -0.022102 0.013449 0.0332325 -0.0477831 -0.00286733 -0.0177978 -0.0482315 -0.03039 -0.0197452 -0.00854798 -0.0180365 -0.0297511 0.0249192 -0.0193629 -0.0107439 -0.0195035 0.0218231 -0.00989879 0.0165777 0.0449895 -0.0386153 0.0183268 0.0172209 0.0434008 0.0184256 0.0280762 -0.0459378 0.0391337 0.0238319 0.033551 0.0213861 0.0233185 -0.0476663 0.0228532 0.0396308 0.0420313 -0.00124787 0.0399197 -0.00010829 -0.0128823 0.0369798 -0.0213598 0.0435761 -0.0271325 0.0276961 -0.0231324 -0.0442871 0.0199996 0.000248063 0.02313 -0.00400096 0.00279767 -0.0484724
found -0.0203431 -0.0322742 0.0497022 -0.0287169 0.0139384 0.0248981 0.0185176 -0.0343233 0.0451732 0.0259673 -0.00583003 0.0428697 -0.0154228 -0.0471571 0.0259979 -0.0207844 -0.0118708 0.000741016 0.044266 0.00947411 -0.021687 -0.0413277 -0.0463209 -0.000610244 -0.0476828 -0.0108306 -0.0214564 -0.0427983 0.0143047 -0.0380441 0.0317107 -0.0475634 0.0156823 -0.0225309 -0.0118352 0.00636128 -0.0109121 0.00726039 0.0458317 -0.0209413 -0.0129214 -0.0441264 1.91107e-05 -0.000895429 0.0263446 0.0189675 0.0474077 0.0263507 -0.016336 -0.0336981 0.0313923 -0.00234131 0.0127548 -0.0344828 -0.0252567 -0.0396703 0.0170754 -0.0479156 0.0310157 0.0482073 0.0132771 0.0244498 0.00925289 -0.013285 -0.0474317 -0.00438597 -0.0302413 -0.0168159 0.0375631 0.00764734 0.00268026 -0.0128335 -0.0386754 0.0118519 -0.0321686 0.00754068 -0.0311176 0.0352122 0.0483839 0.0235433 -0.0289305 0.00192151 0.0294385 -0.0352575 -0.021166 0.0323147 -0.0103528 0.0210763 -0.0354813 -0.00299723 0.0340062 0.00824133 -0.00413441 -0.00176271 -0.0296265 0.0151011 -0.0204196 -0.00719199 0.0345908 -0.031744
such 0.0274974 -0.0333676 0.0384582 -0.0165386 -0.0237002 0.0320775 0.0370755 -0.0349139 0.0198066 0.0452524 -0.0355374 -0.0365769 0.0275424 -0.000477444 -0.0389191 -0.0054494 0.0402262 0.0463194 -0.0449524 0.0397464 0.036049 -0.0156763 -0.0247579 0.0336471 -0.0218078 -0.0302327 0.0267831 0.0482862 0.00812936 0.00858555 0.0483573 -0.037355 -0.043378 0.021384 -0.00457809 0.010457 0.0107362 -0.0330237 -0.0429127 0.00835854 0.010573 0.0450803 0.0127159 0.0108158 0.00343919 -0.0111884 -0.00596185 -0.0185881 0.00178494 -0.0444962 -0.0314307 0.0311804 -0.00907673 -0.00114004 -0.0140866 0.0371685 -0.0347571 0.0158459 0.00343392 0.0287158 0.00384297 -0.0157893 -0.0348138 0.0231302 0.0445958 -0.0480896 -0.023898 -0.00450257 0.033598 -0.029282 -0.0162995 -0.0067598 0.0247119 0.0480124 -0.0303967 -0.0241919 0.0218534 0.0334208 -0.0261702 0.0430778 -0.00682303 -0.044521 0.0141017 0.0172887 -0.0291243 -0.0259717 -0.00773479 -0.0181412 0.0312386 0.0321632 0.018923 0.037151 -0.010158 0.0308205 0.010874 -0.0183909 -0.0308265 0.0345037 0.0239298 0.00390718
began -0.00489799 -0.00850955 0.0175515 0.0230134 -0.00571065 -0.0220707 -0.005067 -0.0339424 0.0122856 -0.00397557 0.0324429 0.00994741 0.00570633 0.0379894 -0.0451159 0.0457334 0.0465185 0.0102965 0.00966561 -0.0197852 0.0200948 0.029328 -0.0299101 0.0135348 0.00206817 0.0236208 -0.0278004 0.0429724 -0.0297939 -0.0373757 -0.00875527 -0.0436678 0.0120364 -0.0131082 -0.042247 -0.0357615 0.00651539 0.0344752 -0.0476447 -0.0463925 0.03527 0.0250105 0.012936 0.0415354 -0.0365975 0.0334984 0.0364896 -0.0328362 -0.0156872 -0.0432573 0.0243298 -0.0262991 -0.0187736 -0.000339497 -0.0393468 -0.00047233 -0.0254113 -0.0241399 -0.0284877 0.0327733 0.0199345 9.44249e-05 -0.0323846 0.0220047 0.0139776 0.0438927 -0.00123812 -0.0185936 -0.0233471 0.0398126 -0.033169 -0.0418743 0.0212661 0.0409815 0.0197082 0.00750629 -0.0499732 -0.0333735 -0.00975412 0.00609368 -0.0311477 0.00512197 -0.0191399 0.014216 -0.0361526 -0.00413766 0.0233037 -0.0104802 0.0425935 0.00937313 0.0491961 -0.0159136 -0.0357119 0.0215802 0.0210247 0.0442138 -0.0383809 0.0126945 -0.0330549 -0.0202072
soon 0.0472137 0.0112509 -0.0132703 -0.027524 0.0113473 -0.014884 0.00253091 0.046067 -0.0469208 -0.00856159 -0.0249988 -0.0242547 -0.0456011 0.0316906 0.0473203 -0.00610448 0.0134381 -0.0141432 0.0377447 0.0436437 0.0291497 -0.0397023 0.0376553 0.0291479 0.0480149 0.0216849 0.0220786 0.00261093 0.00812938 -0.0227594 -0.0253032 -0.0149579 -0.0378153 -0.0465952 -0.0437354 0.0438761 0.00448637 0.00783173 0.0250894 0.00674549 -0.026121 0.034657 0.0182949 0.0493177 -0.00604507 -0.0124778 -0.048087 0.0298925 0.0216894 -0.0402426 -0.02657 0.0395668 -0.00463338 -0.0103354 -0.0298059 0.0301818 0.0326653 -0.00651266 -0.0312651 0.0121292 -0.0182816 -0.0289077 0.0434344 -0.00436765 -0.00203533 0.0251285 0.013501 -0.0138001 0.000906635 0.0365205 -0.0489058 0.00277529 0.0126865 -0.0139523 -0.0144919 0.0276735 0.0195594 -0.0417264 0.00989461 -0.00576675 -0.0374415 0.0459447 -0.0249494 0.000939798 0.0304049 -0.0349868 -0.0284075 -0.0056417 0.0359473 -0.0456436 -0.00262839 -0.0127524 0.0304554 0.0287152 -0.028266 0.0185995 0.0472839 0.0057187 0.0383679 -0.0419235
m -0.0320524 -0.0382118 -0.0220784 -0.0204134 -0.0399569 0.0395923 -0.0346997 -0.00627001 -0.0471404 0.0314613 -0.0452728 0.0193869 0.0446084 0.0202889 0.0102824 0.00641072 0.0387428 0.0490962 -0.0346578 0.00982229 0.00406544 -0.00772867 0.00194772 -0.013263 0.00128691 0.0278499 0.0164873 -0.0304327 -0.0456985 0.0488911 0.0141979 0.0173727 0.0426776 0.0183616 -0.0360785 -0.0278861 0.0473172 0.0435414 -0.00603605 0.0118233 -0.0380889 -0.00423179 -0.0361045 0.0134508 -0.0365991 0.00581317 0.0135202 -0.00740807 -0.0369563 0.0316709 -0.0236141 0.0241881 0.00783174 0.0223661 -0.0488298 0.0144135 0.0194503 -0.0294672 0.0374431 0.0260816 0.0257844 -0.0261526 -0.0330209 -0.0345802 -0.0261928 -0.010047 -0.016319 0.0433104 0.0129971 -0.0371784 0.0213949 0.00694227 0.0488429 0.025294 0.0382033 -0.0386373 -0.0340907 0.00386318 0.0270321 -0.0195437 0.0497682 -0.0250783 0.0182322 -0.00571953 -0.0497025 0.0353996 -0.0499956 0.0414838 -0.0374829 -0.0349448 -0.0479832 0.0250464 -0.0143469 0.0188605 -0.0277307 0.0418517 -0.00909785 -0.0325864 -0.025347 -0.0155535
quite -0.021306 0.0105827 -0.0146734 -0.0218725 -0.0247062 0.0279124 -0.00727155 -0.0498607 -0.000789296 -0.0127213 0.0175084 0.0253733 -0.000503611 0.00722915 0.0295211 -0.00501434 -0.0288485 -0.042323 -0.0335058 0.0383971 -0.0114742 -0.029897 -0.0453908 0.0434789 -0.0118843 -0.0278749 -0.0274598 0.0249568 -0.0144877 -0.0219155 0.0419936 0.00213878 0.0255592 -0.0468579 -0.0314544 -0.0428847 0.0477821 -0.00776211 0.0343093 -0.0362671 -0.0498315 -0.0317156 0.0210064 0.00939498 0.0302005 0.0206121 -0.00562136 -0.0420634 0.0328631 -0.015907 0.0238378 -0.0188307 0.02516 0.029863 0.0176793 0.0436529 -0.00470536 0.0441517 0.0295889 0.0447284 0.0115634 -0.00451116 -0.0165918 0.0267099 -0.0303008 0.0308843 -0.0128232 -0.014519 -0.00185546 -0.0236315 -0.00252484 -0.038867 0.0247655 -0.0457713 0.0268756 0.0382127 0.0432553 0.00829612 -0.0360101 -0.0359416 0.00291719 0.0227325 -0.0442101 -0.0325372 0.00120628 -0.0372601 -0.0203387 0.00914178 0.0142396 -0.00643607 -0.0256585 0.0498326 0.0255725 0.0203056 0.0477674 0.0497627 -0.001326 -0.0472596 0.0318627 0.0164808
then -0.0256285 0.0167431 0.00448463 0.0117316 0.0462793 -0.0273033 0.00612837 0.0400861 0.0334941 0.0462447 0.0103016 -0.0293832 0.0240595 0.0164685 -0.013887 -0.0340575 0.0356728 -0.00153977 -0.0364566 0.0412085 0.0242233 0.0263615 -0.0110462 -0.0452052 -0.0460268 -0.0455119 -0.0460784 0.0160208 0.00370568 0.0320804 -0.0461006 -0.0398146 -0.0398628 -0.0484866 -0.0454077 0.02643 0.0367232 0.0117916 -0.0126195 -0.0292204 0.00753465 -0.0271256 -0.0433204 -0.0135834 -0.0421146 -0.0395347 0.0142986 0.0262918 -0.0496997 0.0290443 -0.0376172 0.04009 -0.0291015 0.0111688 -0.00837291 -0.0296427 -0.0323188 0.00608097 0.0246294 0.0140107 0.0398295 0.00721546 0.0251975 -0.0376648 0.0245381 0.0262184 -0.00117544 -0.0194629 0.0385207 0.0437542 0.0230862 -0.0127735 0.0214276 0.0395208 0.0190582 -0.00645081 0.04625 -0.0271033 -0.0352451 0.0228163 -0.0490159 -0.0205026 0.0491008 0.0403147 -0.00182475 0.0152506 -0.0137392 0.0492603 0.00720624 -0.0131614 -0.0249885 -0.026048 0.0240002 -0.0386831 -0.0305336 -0.0482296 0.00118751 0.0178876 0.013471 0.0324835
off -0.0250542 -0.0460719 0.0351033 0.036201 0.0246937 0.019861 0.0260199 -0.025614 0.0160814 -0.00979544 -0.0363226 0.0100523 -0.000964344 -0.000380527 0.0408246 -0.0212453 -0.0426008 0.0285625 0.0443083 -0.0320116 -0.0277729 -0.0129349 -0.026017 0.00663336 0.0277904 0.0351702 0.0166911 0.0464161 -0.0347837 0.0151103 -0.0353804 -0.0284115 0.0375033 -0.020982 -0.021241 0.0341074 -0.0113226 -0.0264293 0.0162392 -0.049278 0.0342326 0.0343363 -0.00908894 -0.0366059 -0.0421834 -0.0162658 -0.0174459 -0.0218997 0.0113209 -0.00283936 -0.00710898 0.00037092 0.0468926 0.00904964 -0.0426662 0.0282611 0.0354982 0.0194283 -0.0226995 0.0255986 -0.0485802 0.0209692 0.0461941 0.0405097 0.0374354 0.0396016 -0.00372422 0.00253588 -0.0497007 0.0417324 -0.0432204 0.0304362 0.0020326 0.0184276 -0.0202752 0.0347416 0.0429683 -0.00999437 0.00353496 -0.00310767 0.0447526 -0.0410734 0.0063329 -0.0231067 0.023558 -0.0112823 0.0235394 -0.0278703 0.00982894 -0.0400757 0.0169039 -0.0114763 -0.00328077 -0.0358157 -0.0386236 -0.0316545 -0.00730928 0.000955857 -0.0327315 -0.0209792
now -0.035472 0.0064766 0.0142904 0.0288784 -0.00146209 -0.039594 0.039507 0.0178076 -0.0319836 0.00590456 -0.000715293 -0.0395416 0.0255701 -0.0493356 0.0359506 0.0354764 0.0467058 0.0406892 -0.0429529 -0.00496887 -0.0431796 -0.0292436 -0.00783361 0.0233282 -0.0314049 -0.000725843 0.00475521 -0.00726131 -0.0339361 -0.0108539 -0.00927138 -0.022613 0.0244128 -0.0465952 -0.00530021 -0.0306246 -0.0415789 -0.026895 0.027515 0.0175626 -0.0496228 0.0180927 -0.0371204 -0.0351707 -0.0139217 -0.00455926 -0.0225415 0.0395336 -0.0261981 -0.0212825 -0.00724775 -0.000269257 0.0230382 -0.0181081 0.000409532 -0.0432374 -0.0206144 0.0362743 0.0369746 0.0243247 0.0188542 0.0247484 0.038043 0.026788 -0.00804878 0.0003374 -0.00519515 -0.0124212 0.0165352 -0.0175182 -0.0110441 0.0249192 -0.0122888 0.0330264 0.0223982 0.0366737 -0.00692395 0.0424823 0.00611498 -0.025409 -0.0111366 -0.00276971 -0.0133296 0.0293265 -0.0283532 -0.00642924 0.0144382 0.04043 0.025637 -0.00435747 -0.0340064 -0.038526 -0.0469037 0.0363323 0.000424542 0.01556 -0.00026504 -0.00800053 -0.0106353 -0.043178
go 0.0118092 -0.00454301 -0.0285042 -0.0391706 0.0135443 -0.0217087 0.0439053 -0.0436986 0.0389265 -0.0123677 -0.00631907 0.0107844 0.0380914 0.0242514 0.0323329 0.0199509 0.0496852 -0.0184651 0.00524728 -0.0483559 0.0154529 0.0335138 -0.0467353 -0.0093026 -0.0440302 0.0300589 -0.0255753 0.00422865 -0.00526934 0.0394142 0.0311711 -0.0115805 0.0426811 0.00191974 -0.0415554 -0.00706156 0.0409502 0.0209579 0.0423432 0.026888 0.0161242 -0.0334019 0.0126077 0.00505047 0.035165 -0.0102933 0.0372877 -0.0126619 0.0407609 -0.0274192 0.0147281 0.0475692 -0.00116962 -0.0493319 0.0401872 0.0133543 0.0276769 0.0282758 -0.0395845 0.0186063 -0.0294046 -0.0178092 0.0457238 -0.00439248 -0.0207336 0.00847502 0.0211292 -0.0357743 -0.00608075 0.0350456 0.0040108 -0.0121989 -0.00955354 -0.0443837 0.0187178 -0.00300866 -0.0377641 -0.010145 -0.0170144 -0.0147029 0.0268022 0.0187181 -0.00273651 0.0480499 0.0454169 0.0112603 -0.0404696 -0.0330058 -0.0157907 -0.0493107 -0.013584 -0.0220942 -0.00168012 0.0166983 0.0342798 -0.00882802 0.0130944 -0.0499367 0.0173693 0.0310293
say -0.0370445 -0.0112652 0.00703276 -0.0339384 0.0423219 0.00657636 0.00874754 -0.00415914 0.0499888 -0.0236356 -0.0215747 0.0391495 0.0230196 -0.0151301 -0.00211747 0.0282715 0.00371411 -0.0405061 -0.0255964 -0.000530791 -0.0188241 0.0279237 -0.0317686 0.0120994 0.0305819 -0.0493292 0.0336107 0.0241879 0.0256068 -0.00192466 0.0180509 -0.000686157 -0.0486332 0.0423433 0.037673 0.049973 -0.0456233 0.0211712 -0.00259006 0.0194428 -0.0499897 -0.0490416 -0.0273308 0.0268078 0.0335314 0.00852897 0.0467843 -0.000846326 0.00841318 0.035066 0.0234602 -0.0352804 0.044051 -0.0312069 -0.0120743 0.00486684 -0.0092379 0.0243845 -0.00192558 0.0377618 -0.0016327 -0.00608634 0.0266872 -0.0404555 0.00203822 0.0463181 0.0240766 0.0271761 0.0145673 -0.00482348 -0.0185346 -0.0335956 -0.0167975 -0.0421134 0.00458483 -0.00630119 -0.034233 -0.0118393 0.0205477 0.0325346 0.0392645 0.0297356 0.0390082 -0.00868551 0.0130015 -0.00835223 -0.037503 -0.0072467 0.0320047 0.0320309 -0.0195224 -0.0339259 0.0113843 0.0257766 0.0299016 -0.0399553 -0.0115403 -0.0444084 -0.0184398 -0.0365773
have -0.0352189 -0.0420533 0.023318 0.0231527 -0.00400364 -0.00225233 0.0313345 -0.0338804 0.0399623 0.0157644 -0.0212767 -0.0415622 0.00340787 -0.0455012 -0.0043267 -0.00158222 0.0108684 0.013223 -0.0234058 0.0254715 0.0466324 0.0134507 0.0407659 -0.00361984 -0.0225679 -0.0467248 -0.00250572 -0.00269037 -0.00343298 0.0470771 0.0285075 0.0382158 0.017508 0.0120334 -0.0454227 0.0452656 -0.0465368 -0.0371328 0.0401706 -0.0165735 -0.000407506 -0.0107496 -0.0128407 -0.0439951 0.0185709 0.0315876 0.00802494 -0.0287143 0.0456916 0.02343 0.0242236 -0.0324546 0.0231251 -0.00477728 0.0422462 -0.0408385 0.00533585 -0.00257342 -0.0121986 0.0297681 -0.00933162 0.0300913 -0.0205961 0.00795232 0.0474823 0.0132984 0.0261094 -0.0427865 0.0174122 -0.0460009 -0.0250136 0.0320679 -0.00960164 -0.0252466 0.043308 -0.0316479 0.00556551 0.0462126 -0.0102153 0.00739442 -0.0220398 0.0364776 -0.0499718 -0.0173393 0.0451582 0.00147054 0.00689042 0.00368278 0.0348509 -0.0364614 0.0127651 0.0324928 0.0221274 0.0236234 -0.0168583 -0.0197809 0.0274947 0.0385021 -0.0258589 -0.0352307
which -0.0382819 -0.0338754 0.0358123 0.0170709 -0.0154482 0.0317698 0.00728327 0.0123994 0.00561526 -0.023333 -0.0452309 -0.0242811 0.0118572 -0.0349898 0.0166306 -0.0371171 -0.0274798 -0.028061 -0.0356215 -0.0353732 0.00898939 0.00853249 0.00114374 0.0306521 0.00484095 -0.038367 -0.0194125 0.0493206 -0.0436313 0.0203412 -0.0298742 0.00633154 0.0223345 0.0128203 -0.00202983 0.0389353 0.000768624 0.000652254 -0.00916562 0.0213915 -0.0041691 0.0483467 -0.0184551 0.00191838 -0.0287582 -0.00257938 -0.0416174 0.0480355 -0.021219 0.0466233 0.0124866 0.0425645 0.0450136 0.0222576 -0.0160183 -0.00579323 0.0386572 0.00920645 -0.00289664 0.00849849 -0.0378025 -0.016481 0.024121 0.0129636 -0.0492862 0.0494704 -0.0275195 -0.00909251 -0.0238298 0.0297531 0.017827 -0.00391235 -0.0345905 0.00946923 0.00711827 0.0254562 -0.00928289 0.039053 -0.0391885 -0.0407583 0.0334046 0.00655127 -0.0325318 -0.0323309 -0.0322097 0.0274416 -0.0407796 -0.0475055 -0.0305754 -0.0421398 -0.0208186 -0.0153213 0.0308014 0.0222615 -0.0443969 0.00740795 -0.00336528 -0.00310767 0.00423669 0.0473249
come -0.0160633 -0.0101263 0.0458532 -0.0293701 0.0264041 0.0387355 -0.0449387 -0.027304 0.0440123 -0.0265252 0.0303737 0.0224773 -0.0201443 0.0255153 0.0118158 -0.0430051 -0.00605582 0.018891 -0.0200139 -0.0201895 -0.0486048 0.0267495 -0.0136519 0.017372 -0.0341063 -0.0200812 0.0181467 -0.0432014 -0.00130972 0.033457 0.0352013 0.0203346 0.0410523 -0.0255916 -0.0465426 0.0469936 0.0151603 0.000475608 -0.0326902 0.0128468 0.0235001 0.0292413 -0.00157487 -0.00943673 -0.0478185 0.0349633 -0.0086699 -0.0139519 0.0311149 0.0065163 0.043261 -0.0431624 -0.0188617 -0.0234658 -0.036851 -0.00785298 -0.0375522 -0.0251646 -0.00303566 0.0423764 0.0285361 0.00503712 -0.0227302 -0.0495382 -0.0288518 -0.00478066 -0.0341076 -0.0159667 -0.0339413 -0.0388673 -0.011936 -0.0476025 0.000820111 -0.0305938 0.0342132 -0.0450435 0.0196878 -0.0114859 0.0349922 -0.0139162 0.0304851 0.0026531 0.0486348 -0.0168529 0.0284501 0.0285874 0.0247711 -0.0420395 0.0148441 0.0499184 -0.00734027 -0.0135343 0.0298556 -0.00480882 -0.0425173 -0.0031503 -0.0161429 0.0109602 0.020699 0.0246805
dinah 0.0497581 -0.0181548 0.0312958 -0.0269037 0.0275688 0.0103954 0.036943 -0.024111 -0.0364 0.0198344 0.0265768 0.00890189 -0.0464449 0.0101935 -0.0190236 -0.0138371 -0.00862564 -0.0133501 -0.0184953 -0.0439712 0.00430273 -0.0142622 0.014682 0.0311136 -0.010877 0.00123218 0.0223012 0.0338439 0.0286516 0.0318285 -0.0322721 -0.0262893 0.0116917 -0.00742318 -0.0472165 0.022438 -0.0104215 0.0456453 0.0228721 -0.00740895 -0.0476158 0.038944 0.0244425 0.0432113 0.0280145 -0.0200976 0.0130393 0.0213374 -0.0327732 0.0304132 -0.0385257 0.0196358 -0.0278511 -0.015961 0.0103047 -0.0350574 0.0239556 -0.00209205 -0.0187871 -0.031664 0.0367604 -0.0399712 0.0259809 0.0467234 -0.0102347 0.0462212 0.00513688 -0.00596108 0.044608 -0.0122192 -0.0163355 0.0143631 -0.0114559 0.0164822 0.0112241 -0.0195023 -0.00728904 0.0149979 -0.00879212 -0.0291776 -0.0134839 0.0177251 0.0483381 -0.0475981 -0.00187279 -0.000228681 0.036962 -0.0120482 0.0369372 -0.0183029 0.0091079 -0.027055 -0.0446189 0.00911579 -0.0480688 -0.0495086 -0.0177621 0.0371464 -0.0266932 -0.0478197
your -0.0242634 0.0330226 -0.0355519 -0.0460607 -0.0339801 0.0213029 0.0140409 -0.046441 0.0441142 -0.0426823 -0.000783227 0.0404346 -0.0181927 -0.0145846 0.0369654 0.0173789 -0.0129139 -0.00196839 -0.0477427 0.00653784 -0.0359853 0.038865 -0.000609376 0.0497069 -0.000915159 0.00578988 -0.0116453 0.020015 -0.0140316 -0.0269711 -0.022564 0.0104847 -0.0281015 -0.0020228 -0.0381073 0.00607339 0.00444667 -0.00787195 -0.0441378 0.0494298 0.0118597 0.0441513 -0.0306468 0.0221933 -0.0287689 0.0491538 0.0329204 0.00225614 -0.0147075 -0.0435855 -0.00497211 0.0140663 0.0306993 0.0310034 0.0268382 -0.00225856 0.0184958 -0.0359138 -0.00495536 0.00952914 0.00849117 -0.0467148 0.0138244 -0.00888205 -0.00570879 -0.0359958 -0.0432055 -0.00570978 0.0346476 -0.0201473 0.0181983 -0.0122474 -0.0247966 0.0276954 0.0355353 -0.00152819 -0.0333587 0.022083 -0.0194685 -0.0417896 -0.00945308 0.00964332 -0.00387817 0.00348929 -0.0391733 -0.0293212 -0.0340866 -0.0245965 -0.0380102 -0.00234152 -0.0199204 0.0150627 0.0470376 -0.0324632 0.0230134 -0.0488893 0.010243 -0.0133588 -0.0025932 -0.028079
thing 0.0334215 -0.0355327 -0.0268436 -0.0496806 -0.0332133 0.0327844 -0.04389 -0.00289258 0.0350181 0.0344498 0.0137029 -7.64057e-06 -0.0412866 0.0287209 -0.0432995 0.0314775 -0.0368271 -0.0121683 0.0153724 -0.0498295 -0.0356542 0.00744656 -0.0291316 0.0423948 -0.0236816 0.0180984 0.0248065 -0.0279314 0.0169137 -0.0246699 0.0254771 -0.0370589 0.0399677 0.0331433 -0.0478755 0.00334612 -0.0207759 -0.00409963 -0.0127132 -0.0319039 -0.0186347 0.012897 0.0192761 -0.0239858 0.00151505 0.00838869 0.0143259 -0.0055869 0.031962 -0.00200286 0.0499083 -0.0194762 -0.0305477 0.0194884 -0.018093 -0.014303 -0.00052806 -0.0326476 -0.0495706 0.026799 -0.0434896 0.0177619 0.0233433 0.0249582 -0.0467001 -0.0301438 0.0219606 -0.039391 0.000661969 -0.00113642 -0.0459118 0.0213165 -0.00280707 -0.046918 -0.0493452 0.0155968 -0.0452011 -0.0100509 0.0359476 0.0461338 0.0369806 -0.0490404 0.039019 0.0369966 -0.0106923 -0.0432276 -0.0401633 -0.028199 -0.0225901 0.0387483 0.0462134 0.038994 -0.0493553 0.0282828 -0.0193334 -0.00302567 -0.0393347 -0.00456511 -0.0267349 -0.0151894
dodo 0.0400273 0.0301054 -0.00688974 -0.0111644 -0.00287598 0.0266803 -0.0207426 0.000520658 0.0402994 -0.0414003 -0.03891 -0.0030464 0.0018175 0.0402954 -0.0115387 0.0257958 0.0411882 0.0111866 0.0129205 0.0214481 -0.0314001 0.0280901 0.0407009 0.0366799 -0.0234878 -0.031313 0.0223551 -0.0248848 -0.00322457 0.0304692 -0.00455011 0.0284022 0.0149859 -0.04953 0.0348355 -0.0326057 -0.0385002 0.0233523 0.0265259 0.0171417 0.0110494 0.0235515 0.0190701 0.0246187 0.00937886 0.00986693 -0.0434099 0.0291946 -0.039183 -0.0358771 0.0218572 -0.018622 -0.00278289 0.0331134 -0.0349035 -0.0434073 -0.0278933 0.0474186 0.0064932 0.0270534 0.0279344 0.0468105 0.0417547 0.0273969 0.0498908 0.0137255 0.0228695 -0.00944139 0.0498331 -0.037923 -0.0131783 -0.0478287 -0.0300293 0.0314509 -0.00930196 0.0111763 0.00498199 -0.0268981 -0.0190019 -0.0370978 0.0372939 0.0499182 0.00983668 0.0365806 0.0240475 -0.00243025 0.0490104 0.0223797 0.0164653 -0.0226244 -0.0148665 -0.0189621 -0.010899 0.0299063 -0.0167884 0.0489895 0.0473117 -0.0255768 -0.0196059 0.00849985
much 0.0443953 -0.0156635 -0.0313822 0.00467853 -0.0321093 0.0171874 0.0403964 0.0340673 -0.0430216 0.0138286 -0.045629 0.0338894 -0.0366785 0.0432032 0.00038619 -0.0154607 7.89762e-05 0.0372231 0.0224769 -0.0268202 0.031257 -0.0228663 0.0434119 0.0427384 0.0181358 -0.00711659 0.0103876 -0.00635988 0.0355646 -0.0338543 -0.0447717 0.00764219 0.0179957 -0.0113315 0.0485891 0.0153838 -0.0263355 0.0238466 -0.00108645 0.0212503 0.0227118 -0.00255274 0.00219282 0.00630431 0.0221983 -0.036674 0.0368813 0.0195155 0.0320795 -0.0167463 0.00596595 -0.0314455 0.0156125 -0.0205945 0.00393785 0.0192054 0.0255167 -0.0322285 -0.0153832 -0.000279404 -0.046003 0.00234394 0.0354777 -0.0413502 -0.0124933 -0.0302909 0.035794 -0.0494509 0.0124084 0.0400342 0.0123321 -0.0323839 0.0245979 0.0482469 -0.0170338 -0.0290495 0.0264544 -0.00575044 0.0192456 -0.00890195 -0.0442528 -0.0246521 -0.00393273 0.0325593 -0.028516 -0.0367701 -0.00227051 0.0271086 0.00262389 -0.0396862 -0.0142148 -0.0428732 0.038521 0.000729751 -0.00279683 0.0465951 0.00646733 0.0338504 -0.047329 -0.0297838
shall 0.00920802 -0.015677 -0.0435182 0.0165197 0.023456 -0.00906103 0.0139097 -0.0232003 0.0103364 0.0197476 -0.0358243 -0.0105211 -0.044991 -0.0368386 0.0274491 -0.0380453 0.0343022 -0.00427378 -0.0260438 -0.0439016 0.0268709 0.0297616 0.0192457 -0.0306003 0.0288964 0.034809 0.0128695 -0.030289 0.0328289 0.0266648 0.0395035 -0.0430688 0.0473315 -0.0460632 -0.0490038 -0.0404526 -0.00688002 0.0277962 0.00422828 -0.000111781 -0.0152859 -0.0310932 -0.00940361 -0.0427155 0.0452164 -0.0490885 -0.0354659 -0.0321546 0.00265614 -0.0140926 0.0338793 -0.0486685 -0.0269963 -0.0138787 0.0426294 -0.0430338 0.0343773 -0.0130334 0.0361912 0.0224466 0.0388002 0.0188977 -0.0488621 -0.0279329 0.0354116 -0.0176767 -0.0108535 0.0227404 -0.0346489 -0.0380094 0.0364057 -0.0350419 0.00995276 0.00198022 0.00137943 0.0406065 -0.0462974 0.042774 0.0338409 -0.00481596 -0.0244182 -0.0153293 -0.019617 0.030136 -0.0412032 -0.00168717 0.045171 -0.0252704 0.030746 0.0315084 0.0179441 -0.0479199 -0.0102722 -0.0183716 0.0432449 -0.00747875 -0.00610957 0.0148211 -0.0478852 0.00407453
things -0.0272221 0.0393203 0.00368677 0.0467154 -0.0274726 -0.00221728 0.0438395 -0.00950753 0.047085 -0.00124728 0.00081582 0.0138117 -0.013169 0.0211932 -0.0461348 0.014829 -0.0374786 0.00830898 -0.0320398 -0.0494536 0.0415739 0.0201771 0.00408779 0.0267991 0.00813005 0.0380141 -0.0084129 0.000707947 0.0434633 0.0439171 0.0209088 0.0266266 -0.0136235 0.0122695 0.026602 0.0402296 0.0437236 0.0143862 -0.0123716 0.00422914 -0.0373176 0.0442411 0.0473903 -0.0301621 -0.0136613 0.00780301 -0.00127577 0.0293918 0.0167782 -0.0498641 0.0398114 -0.0055625 -0.0426618 -0.0382827 -0.0014104 0.00362512 -0.000553083 -0.00610609 -0.00877821 0.0499245 0.0295397 0.0369383 -0.00675852 0.0458798 -0.0177246 0.00899611 0.0388192 0.0228269 -0.0349897 -0.0362999 -0.0381562 0.0250497 -0.0499455 0.0260836 0.029047 0.000948716 0.013737 0.0380708 0.0451655 0.0455203 0.00811259 0.0382239 0.0292359 -0.00457563 0.0295274 -0.03529 -0.0114497 0.0203759 -0.0238463 0.00737598 0.0283873 0.0139044 0.00567655 -0.0246262 0.00888096 -0.0259978 -0.00281873 0.0361694 0.0220826 0.00723857
